NewLayer
-0.09199288507777936,-0.002019145072336359,0.9182232301434512,0.6390492660948732,0.1887614874783241,-0.06336228862620841,0.5437473463699729,-0.1166041037267227,0.5440567190111978,0.5256001802652004,-0.7416499524103508,-0.8837471129231709,-0.014144343045001229,-0.8790792478561249,0.10193717238653344,0.132530231774036,-0.23648199437378503,-0.5725656207567311,-0.4716927999999425,0.8961328422201109,0.5629680959439098,0.12083208475316853,-0.3296214994455213,0.48708613125369316,-0.47967626570116684,0.5881145073060785,0.3987889059558931,0.21149371169837194,0.859293088171432,0.44742022985072194,-0.039980385897812054,-0.4764331938306605,-0.4955534666012764,-0.9221751220578458,-0.05238226960661163,-0.8327427775069296,0.5616949734182377,-0.78680688162584,0.5432253752860405,0.19676624821626798,-0.05795545248871936,0.49764137980312606
-0.5735939376363635,-0.10626298833557413,0.20366710676605293,0.05622875901260027,0.7084019556435437,0.6207417045071719,0.5288927037696591,-0.697747068550332,0.9340173145698598,0.21113992730551678,-0.5007497500157547,0.3260566944923955,0.003825020959371095,0.5015914566775408,0.7433224684353807,-0.307244519317488,-0.5783346647360836,-0.6685619162730929,-0.3829585984728676,-0.6858605604590116,-0.5266853367242299,-0.7897920300584891,0.5048329552610165,-0.8069680591614372,0.8312193230912308,-0.4856212781795364,0.6978441086516927,-0.6693693104281682,-0.9910729437758103,0.6112511507490519,-0.5155695148920283,-0.4840474007049169,0.6213619485218,0.25729662783694907,0.8170764714977774,0.05748168599479575,0.2957980836136114,0.5890808056632313,0.7381966998834977,-0.6901454073908686,-0.670790297667115,0.17660241621504347
0.32202045057290807,0.20126151344462673,0.18801451707529204,0.7247890136877619,-0.5392843884866145,0.9840020582509976,-0.9856246346143611,0.4822168105352158,-0.09076792942992773,-0.1763329938257001,0.7740777511894255,-0.971843374887309,0.47349469778744724,0.3249474386471043,0.22891230212997415,0.7111259075198555,0.8137374224790292,0.2960726190710512,-0.1372532359523071,0.6642565880172961,0.6822629714675357,-0.8059219041362118,0.5976906519039193,-0.7212135330282141,-0.6868743710390475,0.1513840403551414,-0.6508847820813994,0.420953521927099,0.3532223143683455,-0.3270845665094759,0.2267660320067968,-0.8073532868056816,0.6593350945681915,0.68226538847235,0.3596819357901426,0.102274002461612,0.059200786332997524,-0.4466402326632444,-0.5336410456071412,-0.7850438657642209,0.41445924264886425,0.3292232101251449
0.7383340666858778,-0.5110316168686637,-0.843211681852349,0.12344764318118617,0.8014048512404226,-0.8844897384571189,-0.24178559821835766,0.03490238198177886,-0.507213832873326,0.24288843912550218,0.9787127527695603,-0.9906244222735516,0.4188039542817119,0.754942200581775,0.5938785251659287,-0.5147002916514882,0.43718803562862174,-0.5175769871151215,-0.4110572807418873,0.579301924959623,-0.5104724728842569,0.3079841479901335,0.5986134475726079,-0.4953514985210774,0.1182867923748181,-0.26375790901951257,-0.8961087338507092,-0.3720467381010686,0.7000389782199872,0.13714237311637256,0.4673763167132452,0.09359047579134172,-0.18072557675600165,-0.7767500542158077,-0.521409085024489,0.3302071920906007,-0.8068634562861938,-0.9958375978937277,-0.6257387061549544,0.9960216074540906,0.4401606755091443,-0.7855953483123079
0.5211941862659162,-0.523260505255247,0.3872890543995713,-0.2986272187255321,0.48454010068779274,0.8792668273389836,-0.3638343920942806,-0.0990995204923566,0.8036397721467115,0.5688659239154723,-0.4293910012253046,-0.5334408722408446,0.14312639474598488,-0.3444777033572648,0.6427122108471581,-0.7931732537909482,0.7311521898808417,-0.635668736116157,-0.0818835040777166,-0.7245356821897679,-0.9116071570711972,-0.07860710579281194,-0.15411045561926406,0.3314765293643718,-0.6316605466078622,0.8357751586632602,0.011111880799876683,-0.13804802561283247,0.9679731070254929,0.9459206168131313,0.05690163375010604,-0.25910999539325386,-0.8431555324507023,-0.8607623544751455,-0.838155821986178,-0.6178679720565072,0.056602893586573444,-0.872716026950985,0.6311794869646927,0.04585652182953348,-0.008193280665863556,-0.3276271980854075
-0.8472176294106595,0.3120432481505939,-0.12194417250595424,0.12759146937543986,0.6891228799801707,0.6300245319696991,-0.7176488329088151,0.8275897223024868,0.06195739299613168,-0.40201281144458334,0.5527172639707651,-0.7291745489447374,0.8934417577733684,0.2829657960609411,0.10949439470496825,-0.21772044966166026,-0.5468102679452804,0.9853965092526753,0.9034283885772705,-0.5642702331873906,-0.08778884982942059,-0.5483923463725173,-0.7376095376731622,-0.3036936872266751,0.2915267095143479,-0.34605274234528305,0.6967659835038342,-0.7986670863280136,0.23614742793600518,-0.8937144989666459,-0.22661778361052587,-0.38777295128653133,-0.9721967048415248,-0.14639060913122037,-0.8029145718788919,0.38705147104159576,-0.8589513940513838,0.06608880067499623,-0.47933905712478375,-0.8120603129826263,0.9807371603287833,-0.9001952367865429
0.03674952124528219,0.12130896349712494,-0.051767321744913275,0.8637357142412556,0.5769277862028803,-0.7489265337358777,-0.7065356387313806,-0.563103482010149,0.8135473024386117,-0.36088603080166126,0.9594617622664636,0.6429354572350829,0.40114950083973344,0.794886878756536,-0.48393591628029475,-0.3609533724410676,-0.031885090250352466,0.3615657885799699,-0.6464166081494127,-0.6798464921075091,-0.9401202965452264,-0.763187670727361,0.23667563151732152,-0.7959552517319337,0.6184096229186749,0.7778333092089398,0.4753768587177978,-0.792807443642819,-0.0966453957773501,0.7632466755806588,0.7155256319902104,-0.9817329943816813,-0.3521624258318241,-0.982810175193795,-0.5363251644989457,0.8120455211604727,0.6448489104725414,0.07947773502666533,-0.26958437105823085,-0.8407703068793229,-0.726630210846247,0.18818898581033494
-0.130615875152162,0.8050078800817622,0.4287965792474395,0.6095815371709763,-0.9119110834939486,0.22522779865089282,0.7791933215824784,-0.8351115914118634,-0.11887838543007545,-0.7712607499529813,0.5961378229758327,-0.30013041213342584,-0.6535935554288337,0.30757621904937693,0.06240327348638974,-0.7818805618752733,0.3620237960776145,-0.799842861652386,0.5487679511583814,0.3910121107456035,-0.9351045416687807,-0.11679926848074129,-0.5372303762921502,-0.023800148273544597,-0.4018872655049366,0.14525205958148724,0.49321283478905564,-0.7417568518217141,0.29054776031900786,-0.9233911997343174,-0.29116376073185,0.31395458223945205,0.5003326300658191,0.6851143850524344,-0.806203877897427,0.5215856037784365,0.6516178129543571,-0.9619746422050754,0.49875876809091224,0.8634288052399486,-0.050753636941102354,-0.09445862651661963
-0.6698859159374884,0.515225983716934,-0.657899615020779,-0.2883672668103723,-0.3914471743523644,0.7413182008657477,0.4046378050477897,0.519772691835291,-0.5436224469626012,0.140588142684563,0.5913903592273042,0.8337461351639477,-0.7560438159978782,0.44174887503645643,0.9902424590454038,-0.6476224242470332,-0.17270949323594387,0.22695258235062155,0.704358458762709,0.7122078643139003,0.31915831915609005,0.8698199840666168,-0.9285176885640241,-0.2184225243304625,-0.19181133885138868,0.5828542141930009,0.7901291059397175,0.449594609060312,0.3035436098416304,0.8831810672055478,-0.9534315069577044,-0.12388696096362217,-0.27670946052986634,0.7539444785153646,0.397815008289518,-0.7651833128136623,0.7919950526684332,-0.5670700064755589,-0.9052448659007115,-0.530508518252891,-0.5390877999569845,-0.6772034308615034
-0.22202049586619887,-0.4147154758143259,-0.20811933457570375,-0.6014081759801431,-0.40662496336287357,-0.36101380752984413,0.24014426153316348,0.01744561603332473,-0.3038607235181574,-0.2542189508136603,0.1348582272608143,-0.5486645045074892,-0.6640427430786868,0.9926887319539193,-0.8242868142205135,-0.5123275246901973,-0.8520054224093307,-0.6781683300420969,0.08756237144878876,-0.6126800257886906,0.6997475390440318,0.1241551339110103,-0.1483583457690978,-0.6064213684791604,-0.4604031198341083,0.4973904647573406,0.4721929033756205,-0.9594372065763728,-0.8456523181239948,-0.5042544579131771,0.5842039208672614,-0.8316733633070064,-0.7393465222591931,0.10697085774020199,-0.7488927666849425,-0.47379879435632555,0.8914088155044204,0.11850720735063658,-0.9294503985847633,-0.4172350001063496,-0.14650434341864638,-0.4155352525027558
0.6703847494880739,0.7274613486487118,0.9821481127582581,-0.3789471803957043,-0.9423162343849543,0.9513570488350991,-0.027976401915246862,0.09930187738809515,0.2414994802955004,-0.29639962980823165,-0.06182879788325413,-0.341781148958785,0.9671148591187217,-0.611275695503682,0.5007167248391227,0.43180025139837386,0.48982559416808047,0.42526807495636754,-0.7073408441235072,-0.6011725836980895,0.34000162765745245,-0.13922128725977978,0.6885185899313127,-0.19634186941284915,-0.20408727640308477,-0.11993132672921525,-0.9567128612544276,0.15354341479956823,-0.8096501223388894,0.10881998792251557,0.838452527680648,0.01022957897081933,0.405226576979431,0.33417435381872806,0.2616962873404818,0.0008072637962621698,-0.8496855219740709,-0.9219989861231954,-0.47937490894772683,0.2577619944975533,0.27750287705113363,-0.3068850767049407
0.2238449179530888,0.06136699704628068,0.777481097635851,-0.2206223377304637,-0.8689352121226361,0.792701146909828,0.4061437481867356,0.7021552188942768,-0.20076758168573194,-0.5261085848775635,0.21990616421368747,-0.14790933956739782,0.9829674169389355,0.4703299685682465,-0.2145170611873104,0.6007195116329429,-0.34456825446313677,0.6254074993850087,0.17643279219710184,-0.5752637170732546,-0.9107402154696769,-0.34835815560847716,-0.39975407111121597,0.0021393524535469055,-0.7813779204070721,-0.40117089087584,0.40890861519880506,0.9085419253018434,0.6170470206314207,0.22188330982874005,-0.5452587855361377,-0.24119370049756395,0.9072825444772046,0.9297162966918799,0.6781376763051097,0.20393676260402138,0.5490579868316421,-0.29487274839217426,-0.4736493613648154,-0.2233578241075358,-0.8988911562761259,-0.32268021798097624
0.15842283196825147,0.7556306890202347,0.9229107064441557,-0.5413993155238512,-0.6184803974748381,-0.4751999319131046,0.20040111093223079,0.08050339347239199,0.690546737557763,0.5414373984575025,-0.0636313714293133,-0.40033098971641423,0.987722749277185,0.0910147653213107,-0.6138094519605621,-0.620812711168025,0.6514561651841828,0.32284423140677077,0.6287463110810201,-0.7227982725962541,0.5371853203842671,0.12536539475165331,-0.4700199766807207,-0.9100737522314153,0.532014097315523,0.00954552127869901,0.9291043116677125,-0.7311601550274212,0.907374933726393,-0.9099515580664643,0.4225761512513302,-0.9734527048653396,0.6965191044887495,0.5934339960225568,-0.49039094195898647,0.9530974776179391,-0.0533352181160609,0.8671668392769205,0.5744424725917807,-0.37288036276509073,-0.7254747764188914,0.3461742099077627
-0.13844858278554506,-0.7591830124562167,-0.8854879188257341,0.8717355945573328,-0.40856363779346405,-0.7361444555176704,0.3614129983402139,-0.2383726587537378,-0.3206143633210916,-0.7882943217158902,-0.163816217101739,-0.5725652456185433,-0.3860359273848013,0.15201723368117426,0.17807391609803314,-0.09296756428218633,0.30147586383286473,-0.9465849045517756,-0.18297534955847428,-0.23633837147951597,0.409565218709949,0.10649721868629647,0.823621574887238,-0.1609018439211023,0.9924392326400202,-0.8688660147916496,0.047871937563125355,-0.7302836472513612,-0.41761017955141777,0.32963420920262765,-0.3255067327131602,-0.014970483070121166,-0.6504311294085816,0.8981078996360075,0.19698477127299863,0.4732001960803651,-0.15776035897205287,-0.8401092960857726,-0.36033920565672894,-0.009957134555346636,0.25864429154676793,-0.8645801272898888
-0.09350436615998148,-0.8374657937448187,0.7051217017873426,0.9105871696078327,0.9381329564379866,0.08156844197774515,0.342727540149002,0.8020584001341231,-0.74440201368057,-0.24905220962298213,0.9853945094747303,0.5519131743034915,-0.6584830218541597,-0.019268244890483732,-0.13006939997713474,-0.4352034857130431,0.9385570202658788,0.028299457070578793,-0.4185754590011308,-0.7401219181727225,0.7800618809248703,0.939574456573705,-0.8021588520724798,-0.6969764835615919,0.2525254336081624,0.46590817104003945,-0.07684027785431291,0.36907705983017425,-0.07159615792545626,0.002820356885290698,0.9466582375483408,0.18864707534908143,0.6562895531187756,0.8125980817765108,-0.8082606004494706,0.34793342855790077,-0.406371025918548,0.6058595399511424,0.04003200414019559,0.6328110444897272,0.6019681279894586,0.8486567446143176
0.8070038996277771,0.9211805204651242,-0.6986297741745557,-0.5289297626374134,0.9638213516722107,0.39750031306285827,0.651589422729103,-0.2073962912868006,0.05594203849720114,0.6405287347168356,-0.11805595959487536,-0.32327425729480774,0.9489655317681545,0.3145363572445441,-0.17981351900354592,-0.5101507703563919,0.337844324897717,-0.4300876759432497,-0.9170299738601562,-0.11533935595880185,-0.9674011381887084,-0.2566993981004826,-0.3998265150876348,-0.5511247675968909,-0.4472549276254605,0.6075232610280585,-0.797664873613267,0.277159525154441,-0.6001742838464228,-0.9325665072167442,0.6848732638521271,-0.8113775334308178,0.9271809155430808,-0.27011662238209166,-0.7001963131373954,0.6799078530876976,0.9146837446482463,-0.11839431417976698,-0.13963312259115535,0.0210906017617567,-0.662741773667993,0.9429316056543953
0.7769363183914755,0.9165696883118446,-0.07768721322957806,-0.9953323276733723,-0.8571780290272322,0.9356994042418114,-0.18281993058408053,0.08896524774302272,-0.10106547243430897,0.5944402589106377,-0.0355318422217521,0.21900926510724572,0.7692097431282665,-0.1405371287262116,0.3586599894331881,0.9790261999968812,-0.9393028915864265,0.8541478482577418,0.802616116642423,-0.2991691083675916,-0.2383969850926424,-0.9833894358184903,-0.10353554492753037,0.248670494206078,-0.834361915392172,0.3317686954698491,-0.45564541654993373,-0.5070430172593123,-0.24375391499228782,-0.9137352485875383,0.05413455783019594,-0.06723805163522756,0.9687032391978365,-0.8833370598535533,-0.8736696546749683,0.25516306281248724,-0.748262861081983,-0.5327464288128569,-0.6352279889469412,0.5675381332825546,0.5526956343352465,0.36317995254483404
0.27970919426646734,0.4163948410189977,0.11750729748998756,-0.0077296563380171435,0.5029152361489277,0.8081158529164114,-0.010682757275366495,0.7194106715392481,0.06419207537968608,0.5224471032338072,0.7887401249755919,-0.5999229204706991,-0.009511285788023294,0.10775103855079493,-0.2408088407943778,-0.07016070986741973,0.699991798268272,0.43340574268542875,0.7354709873008376,-0.23955862202952471,0.08051998902242263,-0.4075933888894707,0.06793977556968223,-0.08398615868850934,-0.5881289516345334,0.17862244230109492,-0.6574285979396381,-0.8505655022184935,0.34205687103270166,-0.533714382645395,-0.9473282207003404,0.3371630890526611,-0.8483185069863759,-0.8420938772082003,0.006409385629039921,-0.9111148560127642,-0.8259220334369917,0.28638777525489845,-0.11997816983831222,-0.011155487838105271,-0.9324045674857386,0.6732268903107324
0.08311958555776866,-0.3410423132832714,0.3241915143108478,0.8895649759938293,0.5763495425295633,-0.4439528709505378,0.25748202677059195,0.26445026505557023,-0.4214463230414489,0.38796406488827984,-0.06010654677561189,-0.8147631428082307,0.0748893201757379,0.34735753045304474,0.8195137001754975,-0.332643030300658,-0.12122006213275083,-0.4332252554441465,0.3580513874475435,-0.49641904122983105,-0.9557549297068983,0.07669050344697226,-0.5307569098418703,-0.33965295590744504,0.8056208924109873,0.9861089384471431,0.992892022665905,-0.7884743586823741,0.40647361258860193,-0.050860360574686014,0.6183427778628034,-0.802339127491293,0.7599144603764905,0.8926418568130239,0.7525364155316201,0.7448424178342099,0.5539764222964212,0.49521972938659076,0.8044599635524059,0.6040946020823945,-0.2520324553953033,-0.8401880054471604
-0.1805258893458508,0.26912117447394035,-0.6651697154514948,-0.18788689915134582,-0.4418026716710577,-0.11059706234366473,0.30114086785611094,0.6229352415921521,-0.40027292958666294,-0.7214745636940223,0.5153381716167065,-0.17203065193715172,0.30381539445676253,-0.3009958055687625,-0.12035517606102286,-0.4862309982635624,0.4723799405742546,-0.6915754843010624,-0.397358536770382,-0.7744057011206695,-0.6852205539585521,-0.6155102685346889,0.3480573062953767,-0.5946377266623879,0.834597982319945,-0.4563402538593928,0.8626726558798987,0.3276040642570097,-0.7840475911071301,0.9115632010864452,0.5860304768694209,-0.8251050581689969,-0.602539377392205,0.5659193321755058,0.1363097138269891,-0.06020254144423509,0.3646169751688846,0.39070244990641245,0.6374081890938068,-0.41506592933079345,0.5373201906154788,-0.8563112057172944
0.5082841715545843,0.5670241703570695,0.39695975649273274,0.8538361308663771,0.02057340032202859,0.13192853968083496,0.8929771271685312,-0.3061421090933909,0.3828518208602878,0.3305696941463552,0.7390826903628724,0.10655231269617937,-0.09144527158103566,-0.35327262492952993,0.7133857880794345,0.25721790036224146,0.948348451124887,0.8854758083415406,0.7920315052168463,0.6757736590029442,-0.33891000730377807,-0.9428989284589695,-0.3573988130268928,0.8034011237831324,-0.9334236895314312,-0.3485588435070748,0.49275533263009885,0.11690218912408912,-0.6671410701403522,0.13388271556496933,-0.5085680643981378,0.31317734805151787,-0.9409795675861694,-0.4711549084815829,-0.8269587311101838,-0.2677054697372365,0.4185402752719991,0.7054056246486378,-0.8116751193986351,-0.490986789426308,0.04950890900445426,-0.02415177986453143
-0.018641280284982686,-0.4056388401492803,0.48274974846485175,0.29084005867670615,0.6675257922005688,-0.09003804957130401,0.8927496056041333,-0.263178366769121,0.6035528989195846,0.3269765242972842,-0.24461588772716336,0.7804967406818475,-0.4064678939548736,0.6561582441210037,-0.19549252200917344,-0.8448087835608349,0.990834000554736,0.8430705662911877,0.7038338487875544,-0.3216389591120885,0.6204244236085992,0.4078370940330456,-0.5685413635212886,-0.7873751721325919,-0.914584630195943,0.3074624131082342,-0.8830490810681431,-0.4749287882230735,-0.01192996439769578,-0.02881395876694004,0.1947938158178888,0.9553460859760543,-0.5323737213475763,-0.5629238467235127,0.7499394202998613,0.6574679775482997,-0.036673886590312454,-0.7253100772768926,0.8791896015189256,-0.23764796537251143,-0.8749359833042261,-0.35897026044405056
-0.2990611556521918,0.900144947789135,-0.3028878775714279,0.7234659453360583,-0.8509073557126017,-0.11342420306128909,0.4835652495166092,-0.788391411541171,-0.9426700490715747,0.5467561471310523,-0.27874285455790027,-0.21487713764263305,-0.24777046838615435,0.39484177927046726,0.104353465408066,0.6311172896686279,0.2759377567524828,-0.3640283445879051,-0.9238775909032133,-0.6889969680037416,-0.7145096833582936,0.7882883433253691,-0.9030843744503634,0.7198824223386109,0.7178761849949293,-0.5963518596484154,-0.681447510645891,0.5604847848376584,0.4699722484414457,0.3351355656195143,-0.043855023363997825,0.885690310590302,-0.4362931100504597,-0.4630734445717153,0.391651445721237,-0.35512368852122056,0.9370945764632432,-0.25142959488819683,-0.7252942912370692,0.9420877273466757,0.6143783065277033,-0.8309970263977455
0.25580489790518035,-0.6591478367399848,0.11111357775517083,0.17055419058633947,0.37001816786937614,0.7279029608895391,0.8288786643359123,-0.38828831741658565,0.34550561461915863,0.1273569994148227,0.9342352410842845,-0.18841712452798776,0.7213961063080885,0.45556365028334045,0.04656232983600983,-0.9561167596004547,-0.9638711503131137,0.8199722919128773,-0.3837199411012069,0.7937432291040338,0.7215682947014181,-0.8192723611008772,-0.9435330209845805,-0.6066988560045654,0.8839440796544284,-0.47391585611979203,0.8294165025332594,-0.13622832415098873,0.21984603783128587,-0.5705858734077374,0.8646843813686707,-0.43714729092008686,-0.33056185438623364,-0.8870460890154221,0.8877484118270613,-0.3767268319864552,-0.9039932466498661,-0.02725875836072289,0.9658880065264841,0.2863386383962985,0.33674323928228,0.16286638410557064
0.5363049561774018,-0.3494493152874374,0.26573551984927035,-0.36879810821084114,-0.7753549685151984,0.7531092000285875,-0.11706834682414846,0.42993544567486186,0.05912388538002622,-0.5717631236960705,-0.247140181568255,-0.41820348809407637,0.28623770224996625,0.49552520841563297,-0.5482922426285746,-0.5564492188895254,-0.48785309491313544,-0.18721992036835422,-0.7972960906087985,0.21797776957796344,-0.9671830549031977,-0.44871679684387233,0.3141399839589416,-0.5294591335263681,0.23513567688121784,0.6478084162408568,0.8407380985655639,-0.1545904135517311,0.3939033351028156,0.6115073390693915,0.34238721516938964,-0.15780268908290696,-0.527575011146119,0.11045744968054416,0.17375151097026986,-0.9379728952572712,-0.950496819972398,0.9055715989624478,0.9341121403933832,0.21999760739507668,-0.7444186029302371,-0.263588919352864
0.20027573198157156,-0.43145156143544594,-0.03687641185973223,0.90059938764898,-0.4163048051213172,-0.12375133088106405,-0.3807049326524212,-0.26329114458943814,0.033717970684421505,0.07797070493661251,-0.6357933390171884,0.9892172478594956,-0.8322338720575404,-0.19877717907638348,-0.35869811408440033,0.4869913559181873,-0.530823303484083,0.1026304010325978,-0.9214524714773802,0.5080949774938668,0.5686732266852019,0.529409086138525,-0.12367217783910656,-0.14998080293601412,-0.09717397292995478,-0.47658136589816813,-0.3496570963045502,-0.015529002097416589,0.8586960827182888,-0.7638046233993432,0.44318054935837226,0.9569477002481594,0.8558307981736042,0.039374710964968695,0.3665465281329965,-0.5244178821907868,0.18973341981183478,0.24979632747753655,-0.19368826168866837,-0.8878486538234049,-0.3384791346203797,0.3725684003231944
0.38001416208120586,0.5299403774480325,-0.6627313167828037,-0.25798835403439835,-0.32829393299232645,0.4911165324566136,0.2219094837490201,0.38437498284589733,0.5859921454405261,-0.4144144773781766,0.09748540454347032,0.1984445777806576,-0.890024798776571,0.5451594198407517,0.9482132796067291,0.35778745998206984,0.8713681588201365,0.1664468820067222,0.6410060178166348,0.12545545712310546,-0.9566950531899294,0.5212774436239525,-0.7554442754362021,0.5369254853127672,0.765393328462276,0.07675284053817655,-0.5077022135035751,0.20324286596692254,0.720283352848424,0.4970500154589512,0.5795160826827399,-0.48753884632741595,0.9821670132977072,-0.3521185609279036,-0.8768591851166188,-0.3569710096945178,-0.9173691331242679,0.7853743227073384,0.33194188688133,-0.6102330180286271,-0.6093226314378033,0.0687983861687349
0.4873988897608472,0.2785180277851216,0.9865349476941077,0.48749047872475937,0.6840926624496155,0.1596592379286832,0.6608451672264277,0.7568125156605723,-0.15550764541444373,-0.008030043316705537,0.4476556360090864,0.4130030271286371,0.24723775490146127,0.021554107369249564,-0.007563835004209096,-0.5420657579966885,-0.4722550776375325,0.3070354125916519,0.9384861457580251,-0.8954162458268942,-0.41596351723646485,-0.02546676636788403,-0.13148551132216157,0.7657638144339836,-0.7265222017799124,0.7288225891170899,-0.04083162224180814,0.43200445905099794,0.9190312220640586,-0.5239533672346413,0.19352563758293617,0.945052883407236,0.5392670741611196,0.6041738528885112,-0.741252957053131,-0.32658413583143187,-0.43195701795136277,0.799806234590041,-0.33224195195274,-0.941447999317305,0.2649571696064359,-0.3466468271232306
0.9091667468165845,-0.4404960325442193,-0.6434455395293512,-0.9365703709961177,0.76316499057106,0.0339143908423698,0.49634894222788506,0.10752822460533107,0.4433476096871838,-0.8233873574001058,-0.9075204958193208,-0.5265240378109597,0.45615348245187404,0.9789977755475365,-0.23902579083451125,0.41544271720924386,-0.946445534560874,0.7106068830369887,-0.4592977633235711,0.4115939033124214,-0.6866976411208998,0.34534191982131146,-0.4821839738281861,0.20493494553283464,-0.6397378459470784,-0.14043976099038735,0.3402611114048655,0.19868954844015718,0.6744270970926829,0.3003860270844336,0.7944476155235962,0.8614131958917504,-0.024780079743257577,-0.6465606286905701,0.1902635610139869,-0.8790570300586837,-0.7119241893819699,-0.6740954311667764,-0.7314594863654769,-0.10215280197407983,0.24538858482856063,-0.7587598274025769
-0.4579068775052568,0.7353460190963745,0.9766896069302589,0.49954879608822256,-0.4866013739402615,0.4106080773362428,0.5531785868410626,-0.9546481693712032,0.225104222166991,-0.6531378676803525,0.037087414459147094,-0.9256621393341855,-0.29831954128682914,-0.46191304184575555,0.03859940128575867,-0.161454021163407,0.5760838844686156,0.49641741632904735,0.49903821446401686,0.07750241739613939,-0.04977084064375337,0.07985423041597373,-0.5567455072301948,0.22586393083888945,-0.4617753028106708,-0.7577747969887927,-0.7128551940435128,-0.08795563559592923,0.37864659848147,0.5659613119178801,-0.6877345149879419,-0.35126690341421485,-0.7967943937877779,-0.13002569504463413,-0.15733142530104605,0.8785371206954,-0.5808688429801645,0.6377546554714688,0.9027263704079824,0.43745102896785615,0.5454734506103991,-0.16428193630409105
-0.6016759058509809,0.8657562012864954,0.6858968054624484,0.4178426948171041,0.34489117440784933,-0.42536643442565136,0.2666024890143188,-0.7442747267833589,-0.20506799678402432,0.8308476309422732,0.33153784791878715,0.9894954424958142,-0.9244147934695177,0.817603385058683,0.5485057267588171,-0.6904464093673666,-0.16842471504699796,0.6132946101585923,0.6773696082819634,0.713302819237865,-0.764219679062617,-0.46790833872026627,0.4508205156114782,-0.39225968612932327,-0.11459046110524707,0.33779545061798366,0.6664077804720179,-0.5204189415029286,0.8969622626683003,0.5788092455056901,-0.39314520626381255,-0.7570544383205591,-0.40363977225583625,-0.8405324735688477,0.40244550253740874,-0.0013364839704981257,0.7376128453398907,0.40080391684901695,0.5797306886629439,0.7734401868438652,0.6962406406929926,0.8766606254597371
0.15116198611575626,0.920175941703014,-0.3401085280067617,0.1332070785803081,0.7135187421424491,0.06780736379571772,-0.19269295795146957,0.7184644989913336,-0.20750499376052112,0.7433729224556602,0.7259329710176632,-0.3231020623150207,0.8191586024402666,-0.7369161615924389,0.9937844353524603,-0.005578159078547307,-0.7477808005688182,0.7539748006547957,-0.07690579718236723,0.8343096164229891,0.1916749144651475,-0.48123828231540244,-0.8407234740096927,-0.38264276441829326,0.5760762732654163,-0.46672288870080547,0.5110625330820302,-0.7853716010558189,0.8947129407488881,0.911711418756521,0.4612323361897823,-0.9417550722668095,0.5162786553920513,-0.40704714300963674,0.5192490052902743,0.10172535597215093,0.3411482461898354,-0.6092292761429337,0.6980691819897538,-0.6984339648472371,-0.21763270199329598,-0.4143560069715042
-0.22056556304922892,-0.7132767890410654,-0.40907855470807375,-0.1550959026473353,0.12056653150389263,0.149760894718167,0.5782112022269661,-0.5784042694375668,-0.06785788896143652,-0.1888477096335548,-0.1596943314051622,0.9037849078897269,-0.0036145956438085047,0.4862771128821817,0.4005953485164826,0.8118393120535619,-0.22842493339675451,0.9706663816844061,0.1881831573018824,0.14271163015984611,-0.34694623387565615,-0.4233374133448793,-0.15394379974502703,-0.05853148095509386,0.3772424943958894,0.004149723913213776,-0.7581452312428154,-0.788867204299881,0.619253360803611,-0.843938110171546,-0.5213643802902692,0.30988959439636155,0.5475674907027013,-0.22341577486812958,-0.1652036429744368,0.5794189932714502,0.8853334881301502,0.10805116700576667,-0.5263134179289026,-0.6192065140974088,-0.128226263511932,0.6843837864047553
0.21972591957412613,0.20448178216818547,-0.5357218354105999,0.24032838116239597,0.8517634748915857,0.8185960679171007,-0.8578399069346407,0.20232537021004848,0.3762187292451513,-0.7233143895409913,-0.04371993155367582,0.1590174212308837,0.8258931602546375,0.39516459465008213,0.9824444347151908,-0.8052325797059825,0.808599495235252,0.7379884800204213,0.8097488917279494,0.8679809286480431,-0.5540797966054494,0.7595947557051954,0.8339116374550029,-0.13077959634918446,-0.5801778993183466,-0.6392026378770079,-0.19308724932088261,0.8646383867324379,-0.02091237376762356,0.8701803638766517,-0.26760198394413104,0.7916260555743373,-0.9576874826806454,-0.3217146508306661,-0.3436616183469068,0.806082348613723,0.8715584139854071,0.7967089033171231,0.6510131297708557,-0.354461084611992,-0.04290767624808933,-0.1815348121734064
0.07949673195490847,-0.6707396510042827,0.12192026042042636,-0.631485574258754,-0.42626858758548747,-0.9368782553513877,0.5478429962658797,0.5873715063727261,-0.0679220211419922,0.9777260344416743,0.5852103860185742,0.8294620615252499,0.3099685162076087,-0.2440815317274625,0.14033381341101037,-0.3385832921856766,-0.22550759652422459,0.9769878494017898,0.9819693683799804,0.24378165030892562,-0.22971640394317672,0.962002770281972,-0.39641659979584465,0.5333023809096205,-0.3716995543886308,-0.4476627230129733,-0.29678368619823936,0.39251380855185247,0.01378977346013821,0.27709735451721595,0.32360857579926416,-0.2208327986615255,0.5599909383502293,-0.5030563226876961,0.821383841954461,0.7299269161933097,-0.22198711788997216,0.3277236074741767,0.5930819448974711,0.046238441807545216,-0.64244373028208,0.09787524685888083
0.5811083539500963,-0.8393101207238443,-0.760860796753402,0.7373939117862356,-0.9714907483751236,0.43995714963646515,-0.2261397788413162,-0.5745565914136346,-0.6630349878598942,-0.0684496686711833,-0.577771947613025,-0.34703766747765674,0.9459315683001126,0.22546971051819797,0.0879426229676461,0.40894700642207105,0.4070162037635343,0.022203105213709495,-0.9878640321292704,-0.29747110919009523,0.18732846445259677,-0.3474263919402778,-0.3340448096586772,0.3656320332229688,0.8522554135205229,-0.18287944413274393,-0.46087368248709293,0.8075430506318544,-0.8084852140087087,0.1779972818443496,0.004504008830754858,-0.4582824095597009,0.14531982185823966,0.9160215961730931,0.8581191575911584,0.6410096206588363,0.4032292391997594,-0.09651482247321796,0.6713325070489355,-0.8248896374459378,-0.0449574336353471,-0.938324837978906
-0.8580701568703377,0.852264786750488,-0.6159983370690922,0.8468297644344003,0.1432875774372524,0.6957698182859517,0.09943430401458908,0.5831045727727644,0.7236256253727658,-0.49936644675014685,0.5113109443090695,0.19651095925070705,-0.02251086071952879,-0.8010368212006609,0.7587317506845594,0.9903604036090603,0.4778424429136141,-0.3313952129567388,-0.811200554901059,0.03773258442447225,-0.68373264747644,0.853524807411512,-0.8485033665734898,0.8794394866652571,0.14934125233548734,-0.9870469638025634,0.5482653921787322,-0.161921057638565,0.423088396156589,-0.1894828677232634,0.25344086318986836,0.9632742146965219,0.9975877176940833,0.11973057590470493,0.8242096232755198,-0.4782118327901841,-0.9419346628868508,0.44838388667118045,0.80503366407719,0.7007701085103111,-0.12702922299253938,-0.7646030229698126
0.5982189762139039,-0.1999841123877022,0.07398579573331188,0.5796791200543001,-0.9565892246587535,0.7016898099899276,-0.04635459070806447,0.9600346503780537,0.25342909467863883,-0.7900759541845654,0.9286463849373534,-0.8695184292579652,-0.44472826572124746,-0.008703324601393891,0.0356281145784858,-0.763947516165322,-0.9764654655734759,0.44428910624245166,-0.03146584968468469,0.5001981408239664,-0.3963198612365675,-0.029591963708245572,0.41390063997407256,-0.6109832661114543,0.8877372949940809,0.8613472762369183,0.5903300169679746,0.70687664330079,0.6070467524854957,-0.5371499660467893,-0.0995650637762977,0.6096135737481161,0.9388134982811489,-0.7884946550256677,0.3356686458962652,0.43319575402109467,0.1233014267007575,0.2652923088421937,0.14495920730989043,0.8792665580073011,0.692721746436175,-0.5842319889016505
-0.13981205528131113,0.44436144002017786,-0.6215776393407519,-0.9328062000122619,-0.15256515293362205,0.9099318566576446,-0.6304567399220209,-0.3232733872461624,0.9635096361620026,-0.9203524623467094,-0.7551982750073072,-0.28958447582847757,0.5468688915015016,0.6795564082147021,0.9437555792127874,0.45980019380774895,0.8057038440637532,0.9551740443701475,0.49037965812929274,-0.3781008642822479,-0.4338772501180628,-0.4097122943544196,-0.16258614990665765,-0.6250763006011404,-0.14934231791644348,0.7215947097409081,0.07405895960661635,-0.07766699979736535,-0.2014905168049823,-0.822071299159248,-0.37994777640411725,-0.7232874433190393,0.8131295044955216,-0.6481594462113964,-0.5443224563763145,-0.27969012724286046,0.328039255509035,-0.981914814920648,-0.9512372410319316,-0.1367224826238893,-0.3505709582335581,-0.21062361381196637
-0.5577205378256724,0.23107263624722507,-0.8403468588615244,-0.30630359455636813,0.9365035434784068,0.31772936076823366,-0.8543938496527061,0.33699719751083146,-0.5618966111369785,0.32414295378007973,-0.40328003851471084,-0.32825188742318123,-0.6944623988308136,-0.20923545220815454,-0.45703110203205055,-0.17801858422464978,0.6762542441007613,0.07756292605953097,-0.1916286864633534,0.33039130809276074,-0.23595516899159508,-0.3912259181640345,0.6251711868504206,-0.4635150847340379,0.5817321410410738,0.48184701872509117,0.7198690844315256,-0.46230004227976873,0.8558714190495342,-0.9530649535597502,-0.1861396034881999,-0.7522156753940115,0.37198971568496497,0.42452348097888115,-0.4061163420930065,0.9218918039503203,-0.18494960167342311,0.35506365838408405,-0.022708148961366525,0.1284916131382825,0.21434465975957018,-0.6228200860802668
-0.29842467010756324,-0.45125347825531326,-0.9691467307100161,-0.3990820685794476,-0.7420730767395785,-0.898134024226297,0.8239951850261626,-0.7001370302730661,0.6353999029304691,0.9024471926549231,-0.5058075009861738,-0.5299741787120511,-0.011729467825859041,-0.1421760323303578,0.00984982001211332,0.9250757050645293,-0.018956096003979184,0.23027577834890556,0.41674899382777864,-0.48142236137820227,0.8183351431154455,-0.6756660119032074,-0.9153949466259299,0.2742511618542094,-0.25218453745836356,0.3622892120141663,-0.42440547678516016,0.02220225584610147,0.7349952770077823,-0.2715549701612019,-0.646969605831927,0.4734087112550258,-0.9272936670407324,-0.21519399605954637,-0.02762181211570902,-0.03183356672314397,-0.014237738294043067,0.4300718897600402,0.619763356329984,-0.7016371233091887,-0.18209729931084007,-0.21754709405322847
0.15484847147439496,0.6350327715649406,0.9315518908544909,0.8940719350051687,0.6654872210910769,0.9983433066048599,-0.2847681063244689,-0.2591351336412422,-0.8656948540069018,-0.5637506258054101,-0.07096378136478432,-0.5921105912027633,0.421239980057192,-0.6371066535743106,-0.726439742932935,0.6960147508388452,-0.1361735814802001,-0.27412050453161285,0.48787061993396974,-0.4446624004374178,-0.5076175328790009,0.7536840364088759,0.5149229803684297,0.5692204495509521,0.37660655386857966,-0.12143541683002246,-0.04361181047178686,0.22678074078415622,0.2808355337106969,0.8917160506027133,-0.9186563800784069,-0.3533265219244044,0.21555350821732722,0.9794720146231479,-0.517278569487613,-0.48241919235626796,-0.0609969601539575,-0.7536695681624401,-0.7147068177899225,-0.777443177507364,-0.4185335794061671,-0.9662465167507044
-0.20999175386966695,-0.7034395954464874,-0.31807537771731487,-0.1943403625411697,-0.2852441428499455,0.3104418247253433,-0.19937329639979362,-0.7900286998270449,0.803685494455185,-0.9121310451392419,-0.9058761417724905,0.7691988817194597,0.47508737156013336,-0.7529357041020794,-0.0028059633351567026,0.3872200442555942,0.7105904590613854,-0.40315926933005786,0.22122203740547586,0.7528552195368603,0.804285722141878,0.5068113577211797,-0.6812423511258201,-0.4269840244663714,-0.2923646339515804,-0.12869707746484838,0.751283142929771,-0.3611309830986025,0.19932298055114828,0.1392651883278162,-0.7114455305386997,0.23213181579305808,0.7499842462917412,0.4175949730281068,-0.09657056426535449,-0.19730233646050643,-0.4937218631460849,-0.6594437953295023,-0.5473370628277945,0.7380889519753593,-0.30476368575007506,-0.23933132303289173
0.9562955054206039,0.8957080334969794,-0.6329627909853273,0.23200786092844483,-0.47114531807346016,-0.8724225619239787,-0.9143350020344869,-0.5284924688370363,-0.23170460526931058,-0.9271793551990313,0.5350181812109407,0.0675196823902231,0.6239243419702221,0.8559146376853457,-0.3293333401018401,0.29358392112101517,-0.08616788992383007,0.8016009609466643,0.06003112266166899,0.2785485079192189,-0.25725614044958167,-0.5962433646059593,0.30312773207137433,-0.4279716934291753,0.876242227026129,0.18025397770077722,0.5493671634137034,-0.27952230673895717,0.0038947377405276207,0.9527126817999454,0.34931689956602097,-0.18003994808879797,0.1945890665490957,-0.17977053919754127,0.1995192991161725,-0.76025691659853,-0.3008100506698448,0.19650379472129398,0.40166280383366715,-0.35994146778281233,-0.09908928005157103,-0.3516332092416268
0.9477838945526498,-0.1152043704637864,0.6153341509153467,0.9417624464782806,0.461906755519236,0.3590047266323406,0.1513816673001609,-0.9458879545062828,-0.10922192711758205,0.519677315313251,0.7113209848725504,-0.4611718321098546,0.30146300200780307,-0.8812914798237026,-0.88125600783478,-0.2898098657114452,-0.8472870892303586,0.36186321727289283,-0.6882415438397624,-0.03501548779126562,0.4966006206180069,-0.6406819625883313,0.6803469847203669,-0.3756736835368135,0.7847999409750628,-0.7332549903812586,-0.8834625756048424,-0.591768708800565,0.41998538535355845,0.5157819453784576,-0.0655930682243755,0.17276177660585068,0.06964969984179459,-0.2608867318558197,0.7447273410664301,0.3290561719802254,-0.22837881102776691,-0.4595877173001661,0.7244496135104268,0.5581383572493328,-0.3628850044352818,0.3186557273939301
0.7998277120828337,0.20947742024910965,0.6741611446336093,-0.02088947281020248,0.8872899833778682,0.5604271815209185,0.86246665954568,-0.052811158723536034,-0.8503052704745246,-0.7410462063713368,-0.6449143589297517,-0.8916834520293506,-0.9260663455713576,-0.13404918886077244,0.9796914565512569,-0.6682045147022735,-0.011997105407549835,0.10810379269148784,0.8300345359063381,0.7197616471764032,0.8977113800419829,-0.6363430815664277,-0.6816037353397142,0.5956561829164144,0.2411929501173249,0.5951062295423133,0.30091621456717466,0.17974466850693815,0.3257868253525187,-0.679848404729299,0.5547678984599025,-0.45210085260101707,0.8883511319803683,-0.11512509583669672,-0.6974690741926206,0.7557635869245363,-0.7763669262854171,0.40946640256113365,-0.4894192003243243,-0.5345944408810201,-0.3598205808605428,-0.7474328041693701
-0.0898217866645683,-0.35401032712831704,-0.5175157834013528,0.63487370186463,-0.7813547346303471,-0.6733747532216094,-0.7140766537535415,0.650858164111181,-0.003180380899814983,0.3373402285310143,0.7727285863068867,0.0463101763279965,-0.3921475839689865,-0.5936925533652275,-0.8720714826777531,0.12203110911240334,-0.47617277376878553,0.6889626556293811,0.5839400377854838,0.21823973469448266,-0.2955935232842999,0.25284895979221433,-0.8541589297881778,0.19008312880680767,0.20408388267628252,-0.291001439843559,0.1676884467575135,-0.6622975238541069,-0.3122346908197169,-0.2838679123076311,-0.29193429692102235,-0.3515394388519497,0.756537363637894,-0.0113940581175771,-0.9993271097009271,-0.5445226503164851,-0.45573870934017857,-0.41162165955138486,0.11226235215917568,0.5711770277969894,0.9203153954875933,0.8662208226157149
-0.6787268146400722,0.9394468297827492,-0.9997789022708456,0.6830573594326501,0.696762728528566,-0.0003276939314011962,-0.7006709188551732,-0.8469050667042706,-0.4748241704740843,0.9242884651775138,-0.2809607672659282,0.0836783168484887,0.29851386747282405,0.8832182358766782,0.16057961015244726,0.9902187496860364,0.3424449584063931,0.5795989966113253,0.7061213218676867,-0.49281022893144444,-0.3177075765612003,0.36799864178836694,-0.49938674382827575,-0.82215817420301,-0.7497634632035122,-0.6510654853037374,0.5096193664493964,-0.2630270056004582,-0.37230745984374547,-0.44200162276037935,0.5917754176368775,0.33056724997065157,0.3821503832125628,-0.38839591831431464,0.9324576248719012,-0.37528801679542867,-0.6442671475149291,0.12914451162226515,0.6315602845940451,0.591530596013303,-0.6982601257849785,0.29630721907092017
0.715235874877552,0.3468523031834161,0.6774781701839552,-0.16816571616756804,-0.8245407047609832,-0.9571026690082987,-0.35075493692233706,0.32253335280396067,-0.31852895153887273,0.017285988916306616,-0.47102232561407464,0.7817672425953843,0.6918441999836631,0.689666815243626,-0.1484124249340022,-0.6353769045873245,-0.12007914906611794,-0.6683060889735819,0.356597580541147,-0.48570619084194,0.6308279263495995,-0.10727220333565923,-0.9479634821924143,0.947919184241572,0.6551502559087483,0.6176362224612835,0.6900273622271205,-0.49146303290314886,-0.12912142801263404,0.45740606961637886,-0.19115245274203785,-0.7616505837451606,0.756767054941476,0.9046123189861013,-0.6909951398856,0.9092697462902866,0.19436569227608635,0.1883337539814418,0.9155571842329817,-0.20016194268035625,-0.37901660565017825,-0.34040347023908635
-0.5667951895032206,-0.9784754065033405,0.6548378394360534,0.5782789466533269,0.21778199241064544,0.15190525549482947,0.4973817796827189,0.18133926128049604,-0.9347129219073209,-0.5983803717773015,-0.7109294545733469,-0.20654217920471685,-0.8961055700000371,-0.12146139753090823,0.6561474895162744,0.5888739058940351,-0.8155753390518685,0.454709108370396,-0.10924517977702264,0.8045541386686703,0.3800085221703562,-0.2979343095260738,-0.9443779139576227,-0.49071133497777075,0.6715056082011475,0.7047905258908651,-0.11650032506852948,-0.6566419565166803,-0.061170383354589575,0.7618599711933305,-0.7977177264072022,0.13892231893960494,0.1018795325494477,-0.0329410779854884,0.451121112181774,0.9663301551223087,0.2684545951208228,-0.7786645630285991,-0.46274233990132596,-0.4447196796617867,-0.7893503344443027,-0.9578627346016046
-0.6383429912971874,-0.34430378415111496,-0.2357205469598347,0.1472385742744149,0.026418453902968597,0.9881241156174247,0.6133126716347075,0.25936607976856685,0.8951097282825,-0.8864044179317083,-0.7678061090520352,0.510846960935391,0.5128201045425735,-0.13200401267155426,0.748402980001798,0.26795984714383647,-0.23491666884295248,0.5951051541825025,-0.5716151665469786,-0.22343866648184463,-0.6945112666588502,-0.8962173927471002,-0.4729148136043002,-0.1510998470298086,0.2040670638268134,0.8967018833716842,-0.2536260017256655,0.780256079181032,0.7817309937073511,0.2955480797566383,0.4825521526218659,0.3350713113869288,-0.9998440760409502,-0.23060443149880627,0.12628849800564246,-0.8841521566016046,-0.7371654742068374,0.5416584623041472,-0.9145082956032353,-0.014404324049336337,-0.3782960531333499,-0.8896923183044658
0.7820026629181813,-0.20854323223143045,0.3011913521708758,-0.9004779125702149,-0.5344317070243285,0.9640472212955802,0.21346518512111334,-0.033300410701869954,-0.2966230859528456,0.9948072875858047,0.3972085073028744,-0.6967561272218714,0.30408976112322117,0.9280408948448644,0.07164038066820289,0.10650726439812042,-0.7580794358904401,0.0433346350985917,-0.009169967328264583,0.40786065718445563,0.3549133210065516,0.8989347728715167,0.9595700315765596,-0.42986127560077203,0.2645793722464207,-0.9659899160013927,0.8196239116332091,0.40207482373057757,-0.8348425720992163,0.9710955980985838,0.11432516994175157,-0.14184056134951573,0.4430787258770432,0.9639767650938922,-0.3765164055275656,0.03158592962813622,-0.7124680886296797,0.920818166734314,-0.45815000199463096,0.636147648234118,-0.6073703446266472,-0.09597601301001957
0.37162209207421193,-0.9743375345584495,-0.5296576142907241,0.6722411045526935,0.6694777482168068,0.5506927656008234,-0.32360152832382094,-0.03284335836068375,0.5881713440841867,-0.6630778730923261,-0.48594533889909686,0.15194028701023954,-0.7965318370507357,-0.25685487500754567,0.18348014478911145,0.44655220937659323,-0.8938305919359522,-0.7850584867244745,-0.8675889651803101,-0.16644817803923817,0.45108939590350405,0.8194248126491657,-0.039926317658593335,0.48143019531120723,0.023401853450755628,0.22835033658964554,-0.739034600487344,-0.6827657310886004,-0.4155521273034106,-0.38763112152234425,0.563541399504689,0.15755639827067203,-0.23086854664879009,0.7223254497468428,-0.3934984366195826,-0.5362510282983564,-0.23933791547210492,0.4822373157035711,0.6700111132931099,-0.025413863427429684,-0.3004016140951087,-0.4767508414114021
0.804509247026818,-0.882856720259749,-0.7621439694683945,-0.3243703855934337,0.0022023130675199454,-0.42383478773544603,-0.4299891157626443,0.0008616545741297887,0.01278923815026034,0.6583819673111944,0.531018126130508,0.4604836897052258,0.14165071905505155,-0.5115461027106991,0.11592578680157839,-0.21180210725457416,0.6105640564565433,-0.41310459878119743,0.9177445958181187,0.8156244159078034,0.3274290532639095,-0.8739683701844791,0.9866347791171473,0.14528428367988666,0.16730550698990787,0.14076201286941625,0.0479888877348531,0.46067099227959596,-0.9159310482459477,-0.9872757486115205,0.6016058954423151,-0.007515589094415409,-0.23599699752358583,0.8773810047292276,0.1756071107068793,-0.888092046395585,-0.6510209986856694,0.24544607505771587,0.8259893805854079,-0.32665315295633346,0.09772179507942425,-0.5542345773788984
0.6447401106199484,-0.4455555908458011,0.8751565574843163,0.22723732064804136,0.6815013278092716,-0.17064825557504149,-0.9431297745527945,-0.5075682008444775,-0.7216998782280295,0.053851439581666716,-0.6760254085049853,-0.7689087068059135,-0.4828109904401461,0.7797282428012955,-0.895695425605517,0.16425068868365988,0.6494973946056206,-0.3603948029723747,-0.5812877165593231,0.8081700152432607,0.1325545408269342,0.8018358268441559,0.5473719182794539,0.15546609506704123,0.7760620982895656,0.8295814566415916,-0.8450399407269635,-0.85922023907148,0.4723163455207202,0.35914260204286585,-0.6073751097003266,0.11379492133570235,-0.6898769501412694,-0.3796766423029658,0.9561835571586816,-0.27945413986544976,0.22772872365541708,-0.8747171214205158,0.21872310750458945,0.22835077842098372,0.26426852590867167,0.558747524811261
-0.5457820756099023,-0.14448057718036877,-0.894176103722683,-0.22315588835996114,-0.1619509014339764,-0.9968172765485672,0.8331651525914665,0.08790756116856291,-0.6850164389158531,-0.7739774418985588,-0.016076046462370597,-0.8503624186822663,-0.888019820649619,-0.48778211306431496,0.5042034615591402,0.28048524603181635,0.9711161046167462,0.5419604809216618,0.11251742815660393,-0.3742921326860704,-0.8767644112100099,0.044086569788864605,-0.6751299748483113,0.8405621459177355,-0.801013278466858,0.6156982625213623,0.7124579187971827,-0.2665354470371455,0.8924645726338025,-0.14906553063575734,-0.5854478688773048,-0.45225234151528926,-0.5850118485571538,-0.778828548772958,-0.3134144913875483,0.8291596331022024,-0.5187994724850848,0.2222714835417514,0.16039993259386587,-0.7289818784545843,0.8726225829799314,0.19427375959175186
0.746842039897843,0.9417924427874296,0.4868534552117303,0.7356624281177995,-0.8368749037075407,-0.31998655269278364,0.1759062129566562,0.529090664377023,-0.7527535631267659,-0.7927660809902846,-0.9337622210959997,-0.47293376056687286,0.21518085535304632,0.26221624687845724,0.7108757134296451,0.721420149237531,0.1850264335262899,0.8579596059898595,0.7829426522684342,0.862771358504576,0.07679931298388087,0.8876455508902559,0.7943901117313255,-0.4567726764432587,0.7951951682726348,-0.015608647606065285,0.676476647906769,0.32702859176904653,-0.03677687738980451,0.29362212890257,0.7744734515496436,-0.6771796257284477,0.8003967516742703,0.8414441485678126,0.10706846396577063,-0.41765893792735165,-0.37918681677610855,0.9304583615113189,-0.6791136057175415,0.5520778607927666,0.9351207357207285,0.450707626856494
-0.543779854132425,0.7854994652394671,0.23635607570974781,-0.27743721940073285,-0.5117572587742327,0.29237739254551176,-0.15280912326626894,0.6025955453152247,0.12627026344197834,-0.17245601951171574,0.8077036837369658,-0.5865003726852045,-0.7656625673597859,0.5991242053674024,-0.27250690439331726,0.8174781329496417,0.5319305119417099,-0.16940906196403893,0.923772075494264,-0.6993891895187769,0.804075659572784,0.4796655358431614,-0.8233969602336892,-0.14695084914828382,0.6433855244347295,-0.9505363041495463,0.9882690892547654,0.45704181914336517,-0.6188426098934707,-0.11923949453215332,-0.029177404795969197,0.5934949303124728,-0.4614256101169867,0.027379023777923006,0.6497318137722485,-0.4636851185673454,-0.02503314894045494,0.49518941405324823,0.2839415167579451,0.8575489862909071,0.5196181912598268,-0.6762947494726506
0.8905363557543668,0.05955883891589453,0.05784870284754717,-0.9378999410809818,-0.4756974241772225,-0.49924137920705625,0.7624119451566853,0.4642564274233272,0.10383422216793825,0.1303165587129258,0.025244906039959103,-0.8401208337219512,-0.8914935210300938,-0.9356755013331219,-0.4345634123576061,-0.43910847804631126,-0.9708607889138163,-0.1899441686042629,0.7707610017130442,0.11207631962076858,0.11945572579721331,0.9074732196024204,0.01826149516542319,-0.8953745380676683,-0.11687946067386656,0.906665237602905,-0.21491533722430756,-0.8430652765202526,0.8956077075924143,-0.6328451973300941,-0.6460299079588954,-0.09294344283207523,-0.9368989537280825,0.9695204130758277,-0.5806565773158012,0.15047014363798228,0.41141791608506884,-0.31467327118428345,-0.32466495479706103,-0.7294311013181469,0.25399155436409515,0.2962578534329847
0.5332774167446284,-0.40607094174449543,0.18567414871544896,-0.8138812923324126,-0.9989176882182724,-0.7679509773123103,0.444554571635829,-0.627227250526013,0.6158809425471516,-0.018219777413506666,0.11746863412139863,0.2894760578059785,-0.2944182870109322,-0.23550305489477275,0.3998577272111583,0.9273619596717961,0.9061841979600509,-0.7070570389889546,0.020746224233904487,-0.16153968384544437,0.202450584602347,-0.49962503928911395,0.7929109327348132,0.8797163977087852,0.3480891311985477,-0.47989320983962536,0.8335980784611097,-0.11295599982550297,-0.22761947167377317,-0.31917173757570017,0.6280348123385862,0.6141618788594272,0.8878228020916501,0.20465287220714878,-0.8288126176476114,-0.721285796581359,0.8428380651292848,-0.6926160546061058,0.7791852155418793,-0.9987865900341804,-0.6312952016677595,0.21087052465932676
0.5855686510355305,0.9633509300456198,-0.2191753470937876,0.8564710160021562,0.6595050483766376,-0.8717680220082469,0.5803031317863461,-0.6790795476546421,-0.22546095370030805,-0.3434684231420093,0.6311569178504854,-0.050975231897354645,0.8581593760468729,-0.23481197516721553,-0.6611252530647178,0.9785004536524504,0.5216293525163576,-0.580281712105424,0.050689958694418946,-0.6849828892184548,0.35330617514575047,0.6235907457313306,-0.5046187755312483,-0.18415305093462941,-0.9485756012456048,0.15194286236556875,-0.3898108800866502,0.11376326014395022,0.6009453731953593,-0.6798687118313811,0.9967547681626983,0.5905557068740308,0.9973648253503629,-0.6451436068626883,0.3965135583816479,-0.20202138528615965,0.4362614157379199,-0.48907768346009606,0.033349528075794055,0.698740882502149,0.2995369498256544,0.04265689588467003
0.0009447139645402114,0.5901556340238083,-0.942976582021454,-0.7086177502740127,-0.7211309495361218,-0.6747025061840104,-0.34841465812106076,0.13160129990973135,0.8701500926857606,-0.16428655992323038,0.12657348017019765,-0.7952563106073158,0.674306834790148,-0.5596015893560995,0.6089788055017253,0.21152970309994812,-0.401477355286298,-0.9113651110079843,0.42239258944093705,0.055864533514210946,0.1033968768696718,-0.13132792555040718,0.3532486196216582,-0.8601143004870824,-0.4874803186367338,0.8512945644149765,0.29233227460421984,-0.4791285550746376,0.2524363165699637,0.2189042013355158,0.10476514139144433,-0.5956748533750778,-0.9044710942295879,-0.5564503991380563,-0.49639481682010356,0.7397814767868847,-0.07124890502359915,0.2125188130468727,0.16167647747801284,0.0768863489598619,-0.5746231712784031,0.5371000128936256
-0.9875656694095245,0.2286567819685159,-0.7732946548720789,0.780886517068883,0.7879196511627369,0.774974114105351,0.42453025051137416,0.0563812762249003,-0.9041428075311213,-0.5204693265731253,0.714348670779914,-0.08083262780843792,0.6401716882062967,-0.42623676236485,-0.7788176756489451,-0.2536414937198934,0.9799874536827355,-0.6939156805466895,-0.8519064266299181,-0.7315425418193773,0.754923664145539,-0.3491397231460771,0.06166394710700174,-0.7815375034890766,-0.6142133079849328,0.43865368596260423,-0.4436805325713655,0.5776179087591546,0.3521670360276483,-0.14425209526795868,-0.995726289691518,0.9879757887716705,0.763237446556212,-0.5434281992647862,-0.24938082462903055,-0.7729508702288297,-0.7166422004483048,-0.45893280387617863,0.8239400745140333,-0.6213002608529519,-0.41806537527206933,0.1737043794856712
-0.17222778202700595,0.4624029362252977,-0.484437215438849,-0.9095792119659034,0.5499276016294323,-0.7759812526358054,-0.23103940195704742,-0.2649470928523878,-0.37983723786394696,0.12138266379039275,-0.05722721660529673,-0.8212857581080597,-0.010600239925660837,-0.6521854951168251,-0.18818244194070188,-0.14393808956271315,0.9469629014181535,-0.09302446577546464,0.19642588467412025,-0.7450322374787552,-0.364646542414913,0.43468066787480075,-0.845426860848234,0.4657894106014433,-0.43221530342759773,0.7533500111923961,0.8122786684666325,0.8729521231186623,-0.8726955758276225,0.7112828438412242,0.35803967186696917,-0.1508236411025068,0.6010664733250786,0.062155098114953455,-0.678092553696819,0.3187953722997423,-0.5877548426560086,0.7566433112909163,-0.985338171127921,-0.6415161173881094,0.9521510588061193,0.9942091016844872
-0.8561107342938403,0.5785471260438484,0.7116089956012663,0.25561781181855125,-0.23357487823968826,0.12955533655006635,0.3751205660919703,-0.7446732874332029,0.4114422308368355,-0.5009987426943325,-0.7994732292190652,0.08715063832598702,0.35028950452805896,0.46929963168064903,-0.4300993995433584,0.6012413090611695,-0.7361152373632247,0.26468073508817724,0.8605130315002987,0.5273156390639204,0.36286185703064233,-0.6551270843795549,-0.07330668829909914,0.12554697552294058,0.2824225607283022,-0.17206385583615402,0.016952429351875242,-0.6869795139659414,0.4701283894074113,0.5152541991511168,-0.1521000366747296,-0.9461881487190902,-0.6384757583125562,0.019314234549719922,0.5546028835950445,-0.460005130964692,-0.15469095612142558,-0.2747911920296182,-0.35997772409455586,-0.37228880541639087,-0.11323298169544804,0.37315793272050657
-0.7293397852773895,0.08602661722455807,-0.18309300177057897,-0.372428981643973,-0.45073883093197087,-0.7212664894620424,0.12569739662031498,-0.6952013953386236,-0.02785218063026007,0.16947460863345398,0.2746594299723255,-0.49087619240048164,0.5759196851627648,-0.7962810344402493,-0.8220917427469883,-0.470450011207981,-0.05349711505218324,0.5061066022698708,-0.46264887509371366,0.8362948856878436,0.2795650315387359,-0.26025743914428956,0.5821114691505134,0.5375601126339835,-0.9894179491735533,0.5092432823142328,0.7200529436990482,0.688453184364743,0.7232382520508671,-0.06028209065424073,-0.5498001249476767,0.2517418075241129,-0.8246123036916124,-0.7262693695137832,0.488482627044033,0.7477461117602591,0.5337677745945337,-0.31689388554414677,0.3504131775144974,0.7735285912349779,-0.02947000072734074,0.867364863872913
0.7504419137646781,-0.0118444148862904,0.07216631398332973,0.9773217915592196,-0.13250922523512343,0.8302046791207753,0.4698353244205402,-0.448488345639813,-0.18137716843816776,0.2543620030316085,0.27186454219758804,0.14258914274006473,-0.49352820663139263,0.8853756140743909,0.26545252083908766,-0.439139855177084,0.10777519351588327,0.11480839485784156,0.2505950404366295,0.7721378298764925,0.5801283575839251,-0.9155404667431779,-0.9917606474642069,-0.8583832572223895,-0.9062975529983857,-0.9966810565503668,-0.6277384502444823,-0.6473165084864714,0.9317009178850564,0.2976183922361386,0.2753228689980076,-0.6485252325710753,0.1847729057373939,-0.16467094110655345,0.5124842413092618,-0.14089851803157916,0.8540723019532943,-0.6067751626206113,-0.8047629168666288,-0.7470093668581688,0.5924293737208073,-0.6946878553079705
-0.8683958332439505,-0.29225622531166917,0.4799380451359345,0.10411009309219055,0.6775483824909554,-0.6590786058819231,-0.8619862257645008,-0.37204523300537606,0.8978545042025621,-0.14723808908920688,0.49307866777865783,0.526413458044229,0.004591440126702873,0.8523956149040088,0.05919242468824537,-0.6370126957657887,-0.18190911159992917,0.8845491351402226,-0.5648450044608455,0.555743520476633,-0.47906690763818927,-0.9757921391324924,-0.7564494829899138,-0.7239722718138573,0.9098791838366931,0.5537825307021558,-0.7613419431110771,0.5419668736683578,0.5280280543956031,0.05001692520328738,0.14628678358029767,-0.5243731167799537,-0.17315677395784257,0.9259761499494465,0.4074272701526047,0.00227378721203908,-0.5554157401547448,-0.7382131197423507,0.06519424992845901,-0.40637455131420186,-0.1351626095322771,-0.25409778063108845
0.5076524630409642,0.6364018001395617,0.1126361895890684,-0.021828199446001673,0.7549751029890888,0.9773255529887586,-0.18322134396295686,0.5625200895834419,0.5851328754777343,0.18018702984208357,0.16556796142577435,0.17069414065186805,0.6374759599254305,-0.01621422240179249,0.6984998600633747,-0.9873643653247115,0.37053144565912555,-0.6565408961065025,0.2312259013593112,-0.49737644050895025,-0.6796132459759461,0.8404676944339609,-0.13458046742135488,-0.046178406883927936,-0.7652787286839036,0.8049161360137147,0.6593084866425554,0.03287383029828761,0.3852463792171841,-0.0806072409447165,0.9766595378070906,0.9867878099220568,0.42105166650713466,-0.05677105421096096,-0.20991107175026924,0.9680277891773157,-0.4683427215105771,-0.7795547276102166,-0.8288206729395546,-0.31694451393143575,-0.0005937345792326187,-0.6010101181504888
NewLayer
-0.9492954201850912,-0.7339985271456928,0.4309882954168347,0.9836156551671327,0.7948314564281656,-0.5895914319476647,0.07656708685673808,-0.4897018681522407,0.7615935946882559,0.9065729221708536,-0.7190685134316315,0.33996881360400333,-0.7581677003687834,-0.36992355149865697,0.8182698927602396,0.8164704565502638,0.09098797359513955,0.9662576338901794,0.3610573246209776,-0.9034652552451761,-0.9276132059564537,0.3821536291535321,-0.9399949405592163,-0.677484656032584,-0.09051116272133086,-0.783888338171284,0.7263128004346675,0.6410424102076322,0.07363086216615411,-0.43498292984455555,-0.16414042541505403,-0.7688673479220927,0.019982579524276067,0.5998731252471812,0.2930940459745217,-0.5258083016267747,-0.2310480235999921,0.9008239685855859,0.8144317211441094,0.049163848834058665,-0.8741876112878455,0.4848381050655275,0.7572576763255348,-0.2841395175471728,0.36027525767277657,0.4320666479625259,-0.26825968653143684,-0.010491345157282339,-0.12471471741779827,0.627677483643456,-0.5566951373998004,-0.8432701006853198,-0.5035942957809936,0.02749956221652239,0.8338013144293193,0.47907562000048687,0.4342684455689596,0.5222588531717811,0.9890624037805527,0.6083463511884775,0.8194401982986235,0.2591822005347635,0.9798305947724901,0.20628500905346514,0.8576429217189605,-0.7489328123802346,-0.1959988646825257,0.8830556409275976,-0.9749096161172683
-0.9910141464481717,0.15094413209803226,-0.30944853528789174,0.22722863553601202,0.7330698378688942,0.0698040240850224,-0.2504321927676527,-0.650457493177004,0.23390008960028097,-0.15054598638362982,0.14230663384942388,0.5674899696419493,-0.5241746421825728,-0.1992094538331377,-0.6512950193082372,-0.3771664688974514,-0.34890812891286993,0.3267899189546266,0.5540780005724828,-0.533917425018388,-0.2633296474429414,0.13012927472932523,-0.04254313738209148,0.5195524526992907,-0.19675903442439013,0.9276390029397845,-0.780732731422519,-0.5838514228070009,-0.33583820038920376,0.21523166261909554,0.0016743929662492718,0.6618593176815204,0.6559076460602462,0.7721916295455302,-0.3453305427867417,-0.7878796246736262,-0.0915047121245629,-0.1051982050660254,0.48046784268357445,0.7135194953976436,-0.8329649916964232,0.38545937889100834,0.39078448138685395,0.910295614781296,-0.8892626774402872,-0.9056690783925401,-0.19797328626555033,-0.6427530615236523,0.6235452363800478,-0.7365628691299728,-0.5682449155117812,-0.6129445336221364,0.35565448125043564,0.381754772318166,0.7937224754605805,-0.6925880385596848,-0.7103849424318296,0.37712880720732733,0.19375712382318433,-0.21163600690406836,0.8135692612774377,0.6436657798556598,0.0713171649705544,-0.4791822794080707,0.10920525338202536,-0.44300013882694644,-0.8624284861152816,-0.519511052350109,0.07529235044219784
0.934785458999579,0.8914948684781578,0.8006721493308055,-0.5642563830480294,0.4347147531132829,0.08208661885832447,-0.9645012341077139,-0.2795919027864364,-0.0657500948498444,0.5789740273577695,-0.43923294457283935,0.7732752406467287,-0.7187211388753441,0.019986520344819292,0.3448760803787183,-0.35544532693887154,0.10607534725210566,-0.0858487561754615,-0.8380999573884762,-0.8780988096523219,0.030895760724803267,-0.0020261834700485704,-0.17908906165810112,0.12620680753008506,-0.759206909268624,-0.1972101081289639,-0.010458430025487964,0.09612345044531478,-0.0172464971393802,-0.7000001477969096,-0.6873139263643935,-0.07748118435627127,-0.21974062308907927,-0.08047873532144978,-0.5837179539353861,0.6871405762159275,-0.2807725156495071,-0.5935081806896778,0.3533762760947692,0.36703113632474427,0.3932189582303114,0.457613443306232,-0.7933873146087538,0.08843480642402102,-0.683145009243596,-0.7845994020098959,0.981158814836143,-0.1990312880064895,0.9734953398483417,0.6778929397348894,-0.6049830586219866,-0.5232490082156869,0.5173916648837316,-0.3735636076393052,-0.46180425169767503,-0.9446288177466777,0.17912371682770156,0.9547837637849204,0.6304153977965816,-0.7096950238752529,0.9505054427568709,-0.10205005997527006,0.8717344193891929,0.014662407986112624,0.8546279826120284,-0.5314408593481081,-0.6087849188691021,-0.10961230768678387,-0.36033915881084155
-0.5385863104165876,-0.12360520971367772,-0.15550935261874743,0.8122935559282509,0.058903461612741737,-0.758043256039107,-0.4142109516119703,-0.5635062765339309,0.2230627311438389,0.929797377362283,0.44445678555332213,-0.4749209205998217,-0.7471536772197731,-0.13189932349027544,0.6377874515898059,-0.19661093317463063,0.09730402361941648,0.3571540111339131,-0.3831860700136822,-0.8917881547429907,0.4833090572993832,-0.21467717496643646,-0.5862450781284358,0.2411954030111656,-0.4636232653534411,0.14551249276227485,0.3496982419502226,0.6956467671894768,-0.2284683889191721,0.4132710285086518,-0.9334397460181523,0.8784143556676625,0.1637476854485571,0.7463903347523104,-0.7101680796921692,-0.1668206633345879,-0.6128479678430989,-0.7064335877391501,-0.4833005330174127,0.9796285896212038,-0.5373332744203871,0.30233926249721543,0.6219844971588242,0.8925303815550998,0.6508571031191313,0.9567431401947322,-0.675667901641005,0.9318370539410636,-0.5677064084728405,-0.9680444046680836,0.10182992184674688,0.6382315226851629,0.5564804382004065,0.9694143168507254,-0.136028829828458,-0.8565656394465719,0.9161817242694494,0.30938371840846135,-0.48568282642561855,0.4507946520563326,-0.5690159399965684,-0.7222394322609804,0.7826159268151982,0.19673250502300732,0.7689163221198985,0.972244931495224,-0.4414574901556634,0.8188497172998948,0.040949942306312215
-0.44344156860560635,-0.9038834992669844,-0.9769127154914619,-0.7630122352461544,0.4679417343637522,0.7082542280852808,0.5401959026213063,-0.7073035977954985,0.6165079761052332,0.00541989724876335,-0.2116913026781142,-0.1443346361245923,-0.4133271186523839,0.8234465448803041,-0.4646463717754412,0.23896080961781663,0.9167575748493217,-0.4340657270521422,-0.07488735508935696,-0.6456160545360814,-0.02512323433582897,0.13656813658178768,0.27322549624630477,0.15851401277642996,0.3723161965637769,0.6636838586966185,-0.4202955147557712,-0.4606999887868344,-0.608068927451225,0.18422610090858038,-0.3101870297639162,0.7545505851047676,0.12401861319587426,-0.5126538378061016,-0.04274107769518953,0.7641032244300583,-0.05202489504335195,-0.5824892336002965,0.7650955961316073,-0.24861443502048175,0.8411870335314746,-0.02869195730607288,0.5227275969633081,-0.9674676219650016,-0.8533595023987528,-0.6805070834486004,0.18602319112576637,0.24262762539578753,0.7698066936180126,0.0006586789528228998,0.9041706860655219,0.37385236168515523,-0.2421945402705521,0.6936262755283962,-0.2685836798041221,-0.5222021929723359,-0.8479610067855303,-0.7031739318710011,0.8826873012874346,0.19153135943217325,0.011807183225179818,0.16961668096358307,0.4371308663792939,-0.041433369288029764,-0.9677514921172883,-0.5701341105273303,0.903692373936283,0.5333336135265192,-0.6856276598991902
-0.39685650512315096,-0.053330450606020596,0.21545664561345235,0.1796930698333321,0.41321042818491116,0.8135213803074661,-0.7968093171371924,0.2528767638718179,-0.2870269435561845,0.28233193794273337,-0.06314536041716168,-0.22277099789793353,0.8596067351937009,0.5847373272613954,0.1507437817184829,-0.10460160391845896,-0.9895491805023524,-0.36030968427005217,0.7660151868441989,-0.6104523187692661,-0.7119319047884045,-0.31223054444002285,-0.5219128784514,0.17934707383166937,-0.7322028673671614,0.44846076420659675,0.31845301073460575,-0.8725485382937581,0.07447124777853187,0.6594002569580366,-0.8916702891358881,0.2594087605630675,0.40507755080255525,0.9812679389357253,-0.38464759995558495,-0.762022275765643,-0.5546209179239823,-0.35524993312614916,0.7588468398726642,0.3036806919206856,-0.487946873740843,0.7574298012120821,-0.9721496971927104,0.15708768946973328,-0.7157108762049535,-0.9807518082231745,0.6145365230844309,0.28618527308886543,-0.9474994862699415,0.8300976443378729,-0.4622496192971146,0.8789237787303723,0.3049112602731645,-0.9979641857374801,-0.7389871758791833,-0.5339404412688131,0.05575124752169214,0.23545033236662727,-0.31442541938135316,-0.6188895741645111,-0.36109594420281677,-0.9808528965772945,0.1607403317502616,-0.4758128278552449,-0.8765203742651522,-0.21240031670326953,0.9834399151039768,-0.5745651078510674,-0.537415023814092
0.14197818301294474,-0.8061151370742714,0.7609663965201088,-0.0991874656210261,-0.5884545827989274,0.39140700360800307,0.15530324595709244,-0.969208534566147,-0.8380081946717042,0.6538961038017501,-0.9337067731693485,0.8160607290059505,-0.7738083144593941,-0.0029707867884176675,0.715339509540843,0.6157313849434602,-0.5269402131146437,-0.060935747224240666,-0.05663615762099594,0.9216414184325459,-0.3520512079717295,-0.532795748814463,0.504106592796786,-0.25823653499550847,0.5815204458958851,0.8009187430911657,0.2704345827893879,0.7618008226246893,-0.350959456842185,-0.024077939391999648,0.3684976188853899,-0.14778107995128398,0.11363293695555132,-0.058649739012559765,0.40240103498457946,0.11126141495218,-0.039316820547474984,0.7797827932228207,0.6652849334000563,-0.5175689520793239,-0.7821803694785054,0.5388147536844525,-0.09976726423989679,-0.7100141820023547,-0.6633095688810546,0.7128034248887096,-0.6800403417398009,-0.12444403778268676,0.43763061129057057,-0.4649684906861571,0.12209192989813888,-0.9100007667839749,0.3627260796905407,0.9100437389897817,0.9652577040014398,-0.14154071060169393,0.7834266563931382,-0.6941439999524406,-0.18092427016270762,0.18614417426011998,-0.7898840786332739,-0.004902795361100276,-0.5128025329527366,0.2347266245910815,-0.3406141115077872,-0.6731775727867206,0.43545249292110855,-0.2795718586689806,0.7848469420506705
0.5793440909978951,-0.9899672076142887,-0.3316443674878864,0.018053099606988088,0.19109594307801103,0.3934575449820241,-0.6187915264483155,-0.060750060569103814,0.33993557118806095,-0.18120598050656023,0.8744200476684032,-0.566618401558441,-0.10071031948517928,0.36134894563125397,-0.16550484602951698,0.017124756317526746,-0.20570280758459836,-0.6681520029318131,-0.2358364306146712,0.9501139723703707,-0.6865726232862346,-0.18256728034776493,0.6603810475309999,-0.7325980118914115,-0.8151094190598716,-0.5397658296531487,0.4617430576013377,0.6180755812141556,0.15471638476394212,-0.8971796773354208,-0.7978760821109172,-0.07435795620085317,0.5497579720060815,0.7522644078809884,0.15275246790638675,0.7488554273671335,0.1431396748154603,0.3669855639518418,-0.8446101116060769,0.4577075237110182,-0.5053710805360598,-0.809987623316822,0.474150383211138,-0.43780441651883684,0.28938844679498965,0.614244186303097,-0.049053030070253856,-0.09209228021125337,0.9849436557835742,0.544117830687981,-0.04537055434290416,-0.21178438945182343,-0.644017827373569,0.7617224932047326,0.9049747370515957,0.07819833577803315,-0.2637341659439032,0.64921583188068,0.7246571679963134,-0.38109026599384577,0.22964280161188588,0.3137249290859614,0.44118284365564153,0.9229312126579863,-0.21416816672999484,-0.3153010162353844,-0.7416536032903915,-0.045837953532372966,-0.5947139731132549
-0.28935425920137026,-0.09976611847323258,-0.6490244765310451,-0.36294545447047377,0.6269691835811857,0.9321733709415743,-0.18748423656945268,0.9009100696025971,0.13057827753758633,0.47265862157921523,-0.5492165414368231,-0.329408259182459,-0.8548268313986143,0.0804808684777285,-0.34924816319149365,-0.4190066216061399,0.6496456918840303,-0.27842216033445144,-0.641337582135876,0.7829754313754884,-0.11551407663851454,0.8259123870583498,0.04342546229176869,0.8295198951754592,-0.8656250265473471,0.8420174805883045,0.033712833824517396,0.053974438707378836,0.7583075616584096,0.4842565910870231,0.1819997622366356,0.07663655906682165,0.8709382302743205,-0.22189190889278754,0.8440654425461858,-0.25321229578022364,-0.3767080566182277,-0.026443634271517302,0.522561261278115,-0.8323467700125702,0.8837825547188634,-0.8507239340948085,-0.331342270319124,0.1127246757325635,0.9685162542600074,-0.4429708715417622,-0.3956998216152139,0.1717088317884008,-0.2744103666668072,0.5755829117640245,0.6088366809017354,0.38021148541802896,-0.01792126937750016,0.15672800119982533,-0.07300543591782382,0.5965857810311699,-0.10547717249628397,-0.33137907862338456,-0.5163607285448288,0.8201768802194773,-0.907732162493091,0.3812771400911279,0.5228274808892788,0.8209384253325553,0.8507970168535175,0.554499844953519,0.9785160304907801,-0.6524490582383389,-0.9197381402855003
-0.16903971214832025,-0.01191582695408222,-0.57995888462601,-0.5268571362934342,0.027845088694496534,0.3496971228704784,0.22549187164242923,0.9805403997599809,-0.23452137923629457,-0.5071594175495968,0.07167712018064054,0.7614706721524216,0.8569705939995493,0.09818985029696314,-0.7295877861871867,-0.40903710780557456,-0.3096527932578188,-0.21376106212564006,-0.4257596108727968,-0.36534441236995874,-0.4445352268445357,-0.5151226443665702,-0.7922025171973865,0.6333588438486466,0.13882391130071614,-0.23213308404073651,-0.7987947356025775,0.3973610346031804,0.600636531607083,-0.3778802828104584,-0.4057406243567401,0.19417422111458738,0.9175332797296496,0.28455124779434215,0.6545904723309475,-0.5405035474783422,-0.7349716682738914,0.3844724006819018,0.4291234861145834,0.19530806397288214,0.870356120901959,-0.5912620286359773,0.7933169773670794,-0.24346739510077664,0.5615349860183783,-0.7448356525676834,0.36576335785017844,-0.5842836666736819,-0.18946174439766605,-0.16993547510847629,0.0616899039147738,-0.057856139388465344,0.5001324690729678,-0.03163038401777141,-0.976675330393636,0.27668941976981154,-0.9682407618016917,0.4197210750416813,-0.8635029169854713,0.5950445127687003,0.8464130178262257,-0.681540626843866,-0.22618697324543757,-0.23598542117531163,0.46808016122716634,-0.5952338608357515,0.9886864232719725,0.4357734932067767,0.3791876584254008
-0.33770661785104106,-0.6286084103532263,-0.8082859113905285,-0.01850507195720774,0.43968826526024163,-0.9495292805499913,-0.8186506574662569,-0.6741576406493737,-0.9072814820235986,-0.03305523021295165,0.7463330593052198,0.5140251620951246,-0.7273608606157687,0.49274904731128744,-0.9290604249774452,-0.9779024898529765,-0.8234917243303062,-0.40680577571751875,-0.4538546933735219,0.4400425949442073,-0.5834477828552975,-0.9525757172414866,-0.20989528849095662,-0.8057806112382888,-0.369154734327535,-0.6519543260088132,-0.5299905347490914,-0.4828649337091251,0.760688153016926,-0.5751892907995804,0.9463263442368439,-0.22783906664115805,0.2700244195753354,0.3461469508168056,0.451940264041796,0.7569266909501733,0.8877386733598089,0.017636449393040765,-0.0567740323810908,-0.20142202735294523,0.5726679372956538,0.4788740340098523,-0.30320269173658176,0.4328524297719123,-0.3816778771867426,0.5616066079207973,-0.4288194164896053,0.38023589161757054,-0.12951758758211085,0.14166535372241973,0.991886013712509,-0.2855409333710488,0.9134836748139203,0.07936540190396757,0.7811804338821706,-0.7690800227648955,0.6654448959422532,0.1687364288720694,0.9818703835418203,0.6065905006684107,0.8522032608164207,-0.8569146111232808,0.009380504313409421,-0.007600271710402229,-0.41131615229731877,-0.0012074411152938058,0.3378780255823841,0.4155822162775549,0.49022223051902225
0.16494152543138219,0.18306376038788486,-0.8035443747016127,0.060289328876168335,-0.7977252836278554,0.2930273173590143,-0.017847646889525004,-0.162534251007328,0.31247053083324183,-0.4022094708332753,0.07545878399796924,-0.37342847138710655,-0.8911357312255372,0.5783488461657127,0.49261290675200087,-0.9788354921183582,0.5302190163815883,0.5289810108076529,0.8095223617148346,-0.5824780526133864,0.9851415942216197,-0.12015293596668242,-0.9934449933619911,0.46401464738981124,-0.7976352863989382,-0.9011707935453168,0.5105663831106262,-0.47741666134666927,-0.7679611490404856,0.5840964351444722,0.6906359142929517,-0.5499133799358844,-0.8879663688154111,0.041486964983513674,0.8991489331502869,-0.4081266186054602,-0.9875229488533117,0.44134109079887707,-0.6304691635036954,0.2835457866805873,-0.8029092017835717,-0.6313883682605412,-0.4806689967523048,-0.02747114376813231,0.7209941036556158,-0.31572140366471824,0.3689065892267478,0.3642195214970929,0.5315505848160431,0.9541726698181738,0.45136473915071895,0.2743681376875564,0.5781265961447772,-0.8257508876508315,0.20747369486569345,-0.9852325899528083,0.6078437609192382,0.07190225123240168,0.4667329706825054,-0.07302873168360446,0.3614908021828911,0.848492494588432,-0.6923272372381715,0.2558763302501681,-0.004836402483335611,-0.634232626651845,-0.5019387092386831,0.8374073310721011,0.8099027547334292
-0.23891384500312451,0.46501285928095126,0.17060065715224715,-0.579270210301255,0.5674347317819752,-0.4285558137976022,0.5099239112966085,-0.4021715487618558,0.44479219936190395,0.46153320719041235,-0.5710861255338548,-0.983115458534878,0.0784703255879049,-0.9851800920149887,-0.48281938465375895,0.19797751473315373,0.16682621133215436,0.012086934308062292,0.7429705190519813,0.08781073110970072,-0.3726391199343768,-0.6181431348740993,-0.5892335712306385,-0.6168008715086637,0.8443087174012738,-0.07911661042911167,-0.5599399889356493,0.1686099611764611,0.27861594363677056,-0.5551741327997877,-0.36088591625799005,0.1869005358062854,0.7766398640482401,0.13083144070210517,0.6411466568002826,-0.5234286331288185,0.26631157478953305,-0.23840188143623497,0.7245594824294921,0.5739044571049761,-0.32948665920859965,-0.30734285530209915,0.35263941668338217,-0.16937233774512417,0.856345930726979,-0.734605709275526,0.26654051552275604,0.08559733667836511,0.16895381487818328,-0.2597866606272359,-0.028826668385255383,0.9841423339611264,-0.9702104928244957,0.859222458360265,-0.17593214422483539,-0.6286549346465082,-0.8343653446705657,-0.005811980489797808,0.05429845286117074,-0.29871210720440655,-0.4175597306958714,-0.2825946102222685,0.6243563560254464,-0.9239454392009903,-0.4551256825169163,-0.32889518346418156,-0.4985013956626225,0.733238129033525,0.49656749955554225
0.992636881472166,0.6152216857322914,-0.5118877782740365,-0.18269138361103776,0.44623090301562196,0.32456451988873125,0.37410485403325566,-0.04196536983401522,0.14606228750313344,0.18686693035891122,0.10001641546886031,-0.2861829457273659,-0.8888762886679109,0.6753136601255247,-0.6187840535739928,0.0566765384738237,-0.2427757508685715,-0.7554122899133286,-0.6852770607653647,-0.38522576077400683,0.9266427560099244,-0.30399054101774636,-0.3288833677681948,-0.782167755813407,-0.468733009595512,-0.7277981656058425,-0.26603919428389844,0.7570645069947408,-0.26292980636050167,0.5792725681726572,-0.41709886119518136,-0.9328513269695062,0.7145177322719922,0.00846785754219792,0.25425279710782167,-0.9625519289897935,0.3571364331937754,-0.3793842036301902,-0.34783764175240517,0.49025623160627063,0.6159242592437428,0.9347190229292364,0.5262834501706586,0.17440532163080236,-0.8226557140706865,-0.6735149751354306,0.6579095982112944,0.4842696394670054,-0.9264538402405229,0.8278367876749908,0.36228708243372276,-0.2889901309848062,0.2105038208923795,-0.8967008168046104,0.4687514925340972,0.07275658517295036,-0.14882423350743057,0.3808283481331942,-0.9704059598141739,0.27059664884438783,0.7333241937400996,-0.010426128914629018,-0.04006001015325977,-0.938149386454781,-0.5050718859845333,0.5073618198744696,-0.405669584866976,0.12024678908704733,-0.5433308417643943
-0.14455501008645033,-0.8222683374317417,-0.3413662745106052,0.4371825596303376,-0.19574512697400515,-0.18037166138393768,-0.6909752324268512,-0.06877999522736,0.8244826234228011,0.2186106756515469,-0.2416811100292935,-0.06880648137997736,0.7620323171947154,0.635060488318594,-0.38709181874045595,-0.7591906606723788,-0.1186733534157538,-0.07329810544361348,-0.29938804067108227,0.19803886486289235,0.5101466515107003,-0.19574744136620792,0.2637048603291383,0.5409220121544032,-0.21087624611236788,0.6486753978891686,0.5123698409593487,-0.6655639489896541,0.040217210771537726,-0.9445376721308547,0.2405620729353133,0.8024530139304686,0.2444542155157019,-0.5100252698919476,0.768891247828978,0.49868604397361427,0.5028492259340309,0.36160736838885277,0.014843647721955344,-0.5054087828044806,0.5083057696211128,0.7184892927894961,0.7779547231326283,0.4861308844036092,-0.779220718320883,0.3331385525049364,0.9569046091501578,0.40477080336739424,-0.5031695087624639,-0.8143416802508563,-0.6422075252083173,0.5920698904872996,-0.009856139717739465,-0.5755347524895682,0.5640348529907728,0.15721390270446545,-0.878212517862557,0.43425600479986337,0.17560593901301935,-0.6837824453958619,-0.691002601282364,0.029512987533998114,0.7198402857750006,-0.47745434643393403,-0.9756700237095748,-0.6401871627793738,0.40160558026043636,-0.4364463799400573,-0.8894299238245196
0.22425804530408366,-0.8909757918792511,0.28388754226390045,0.39312326392492913,0.6356407530339585,-0.7265433321771071,-0.8178693031618847,0.30890325689914677,0.06700541496146917,-0.4928011335599465,0.17403721185394194,0.6192389476884295,-0.9724196342057032,-0.5458932706995772,-0.8182371714472696,-0.5865569039640084,-0.3727370390516449,0.5046488287072457,-0.16371014132282835,-0.9513997860105547,-0.15096669857172218,-0.5394518116040992,0.7525057058481992,-0.2929776520603913,0.6326375369071111,0.6134942132111731,-0.05675288218778651,0.9390150948513669,0.2340728003903516,-0.7684979539620087,0.62168060225006,0.6075413153865554,-0.6476878408309565,-0.019050972395191046,-0.7752068568380031,-0.8273263703681448,-0.191068121871784,0.9024323935356293,-0.08110097378007519,-0.3546455791386638,0.04689510152347243,0.2948625577715691,-0.7304808703958445,0.060865613551224884,0.5940620567788641,0.03735302963589504,0.17758719231316866,0.28587541102861724,-0.8565638033098502,0.29453848378240965,-0.056491584941348316,0.5789307848259957,0.40178876200427394,0.6383690867024554,-0.0856544535753978,0.5383141061303307,0.09266769803912123,0.7758359872012557,-0.9062136651936528,-0.2337840985729449,-0.7086337152081146,-0.22656953572307525,0.2043842911401359,-0.7780757955198576,-0.5584546088865987,-0.1747659783423976,-0.7977322760122578,0.16371229433296342,-0.4467742299289901
-0.7381010788337661,-0.49661922317835283,0.3151726076546393,0.830313287584979,0.2708034518696316,0.9792792802876675,0.24722821805304362,-0.9900919041905252,0.6300649639545424,0.4487851421976756,0.8848563962641365,0.8278432959052409,0.2944942938973898,0.08186888655664193,-0.05462413741520655,-0.8028324993412783,0.26230889583024486,0.5581933430383075,-0.6542923473878053,-0.13486332127891854,-0.07959712599309632,-0.46514495056705396,-0.5260810429432872,0.7858897302302144,-0.6251400637424389,-0.34041870883741154,-0.12029846295105484,0.9083096816975649,0.8639192152757806,-0.9752439000481417,0.058453195737151686,-0.8038829378465113,0.1781996037286857,-0.5511917957842454,0.8544701985377177,-0.7286446164287044,-0.587634486866133,0.2742567350514671,0.5555190085303536,-0.8072465235599051,-0.2908585133786219,0.9679541555917546,0.8135398876435929,0.2259243128144519,-0.4652945706230174,-0.8334261803806191,-0.4198803806902036,0.6252905333539576,0.673439603126905,0.9518544060180409,-0.5016970804508498,-0.26970723140864417,0.4106836445984552,0.9366220072667202,0.9126732853201291,-0.6876497668580814,0.5163115156567768,0.08468255704665562,0.7536800741456215,0.0318857116580904,0.17236071699398714,-0.13603224924404222,-0.20123775513605202,0.5650527259167231,0.04145490918752093,0.3096044531501623,0.24687158973169043,0.8738641010449224,0.6291514990174856
0.7383842578860491,0.6266753887566168,0.3234385773839188,-0.8449536234211217,-0.7474711746476579,0.13143965242341804,-0.6032253014096236,0.4106971068477956,0.25492243265780856,0.17864233864467982,0.3000953416466918,-0.3652445729951601,0.46254373130465876,0.20578844082025394,0.11504539089861465,0.5190241109703688,-0.7490401378113332,0.8337892439353278,-0.142482425473768,-0.714751690933987,-0.5369074727824541,-0.12734804217653184,0.30941872704129025,0.5905331740827928,-0.6965878841798652,-0.25199962047476787,-0.890919596151796,0.11023801388546284,-0.04160354851407955,-0.11205644210056209,-0.1024844938559526,0.28525321427400563,-0.09940946270751416,0.3859246823007181,0.5478450870441556,0.48566240177869235,0.2817820452489306,0.8703658807864478,0.1532082238249135,0.42764479831575075,-0.69500457531586,0.7319225666387739,-0.4670526908294137,0.15780398313393396,0.9565743884938156,-0.010183725774339347,0.7233137681478619,-0.11135146989568545,-0.6731920331255334,0.023940829301351885,0.11443098815736485,0.2653794733662962,0.29176542250775994,-0.5272051580450352,-0.25668257478698076,-0.29898102952611705,-0.4918038320093916,-0.34410288777928955,0.26049152085981886,-0.7515383357422518,0.15264480606049213,-0.6284793668826849,-0.4385411224939404,0.2555614163344242,0.11853050413011701,0.5819549199213947,0.8342637409266105,0.10021821405368692,0.4293066152085163
0.7179858945451161,-0.962260967193451,0.5196017998825779,0.9165957771873263,0.20269481351467733,-0.898237088179489,0.0629755191304977,0.5239388702915333,-0.44062063507854154,-0.7676655264067858,0.630468534446291,0.6431690521781805,0.4537259705517118,0.8534092318202176,0.21823623938582393,-0.4437186313699777,0.10236732188101594,0.1730393942708508,-0.5785802261805553,-0.648613936965164,0.10215376746531768,0.6486494828258627,0.6096247021055239,-0.7028354084647315,-0.6404844277356927,-0.6328399211460063,0.41657306034950436,-0.1558376849426244,-0.8260647048912868,-0.3539118063618807,-0.4492028322859265,0.532196247914893,-0.7066290094103678,-0.19956670445897084,0.8778229507838409,-0.35592242717328904,-0.9298245445951852,-0.3812318893140534,0.42694487531692094,-0.6020810059555644,0.2745909335105332,0.009784862301226216,-0.28639037295347514,-0.6655572480747305,-0.2659088355705306,-0.4526966898460898,-0.7419803614869003,-0.30565343754519825,-0.5318305900819504,0.6761245437743837,0.8429211329434816,-0.07879698357476816,0.8965301063378919,-0.07811305884787001,-0.7188255988992094,-0.2368692002327375,0.398495466045784,-0.9883376911407167,-0.8646814229618469,-0.9598572275372754,0.3377001728655975,0.5753656764433059,0.35519910665214405,0.9701813445234315,0.3087578462477436,-0.35654977516973907,0.5430586521189553,-0.21972030231243256,0.8512112809010866
-0.5295226976075542,-0.8268451561373042,-0.3678490858339267,0.04651503683417357,0.9779004647688141,-0.756692742406673,-0.8461396055794101,-0.5510994323801126,-0.8681269555325593,0.6829106999953503,0.19054062709470299,-0.6862840490736042,-0.9741009360008592,0.03490082533012728,-0.8037205729184038,0.46264385164697597,-0.2798183657057136,-0.4535695310296015,0.6996142299567483,0.8973786039668594,0.586625503849082,0.9018922785813586,-0.03474124614643537,-0.4787989315491641,-0.9455932211113409,-0.7862634620749354,-0.5872837152498747,0.3156812902117907,0.992612805744622,-0.575816001876472,0.12142651729972953,0.8054693764607348,-0.8443745430170615,-0.6156524635774616,0.7410574149198936,0.5782411031076433,-0.6748679060811997,-0.48320172957031926,0.26662539326666845,-0.6236727520633305,0.5018647770937694,-0.13689374059302728,-0.6164489509581677,-0.8297495216042092,0.5336428880371409,-0.0754984425118812,0.6915097747356214,-0.3154025689944093,0.28812798435994114,-0.14429227956301238,0.45501281558794227,-0.03628468633384374,-0.2691248074254269,0.5304863518290985,0.2760800027462691,0.06660649111583394,-0.6694408456474401,0.20750920711949972,0.23169630492352544,-0.02236438046294742,0.9056537934735593,0.46225091883228053,0.49480371903147913,0.7373726213219631,-0.17635447175361518,0.6881655889937697,-0.13180002547210212,0.9485037631719273,0.9488199624788161
-0.9237652472702227,0.9145264279596652,0.517601010446181,-0.6221901115544659,-0.7582385515115164,-0.9275442368931781,-0.07043112976494803,-0.8289805559999559,-0.48070464302887017,0.6739745245125885,-0.9529296663093232,0.00523857268868877,-0.3956588635731819,-0.517415040522506,-0.2154291305264997,-0.2667885715037075,-0.31284298673036526,0.2755134763513105,0.5558854628113212,-0.9124906093822047,-0.6389122747485037,0.9911493266938141,0.7589710020938956,0.6547318576878931,0.45613298761053,0.05379872428268162,-0.14480466342417309,-0.6996453397994744,0.3822792176098364,-0.24736927863852176,-0.15835752527157032,-0.22959580204077445,-0.6013362798350588,-0.803346664698199,0.5333734601699429,0.5529699062661886,-0.0834983391300319,0.964521151849048,-0.7548350375184172,-0.9935014419587749,0.2952586092259224,-0.7518372481843363,0.3979835410955741,0.1434751699404957,-0.3411207170126245,-0.2452524410225776,0.7348894294848318,0.0209143837759711,-0.016655999820209377,-0.8223710413530818,-0.5982061305171475,-0.6774898777177563,-0.6976613057707906,0.9562757762704746,-0.577233451932089,-0.3637262151389098,0.3360054114015383,0.9824552137824119,0.3577621111887366,-0.5852305327497198,0.4858246138148763,0.8901161710075896,-0.5737983288126058,0.28518528966948486,-0.9305386913664091,-0.20353933524116274,-0.8468315332550262,-0.9319004452798585,-0.33440843636676565
0.1179086122867592,0.05308568648831091,0.008230678079950593,0.9131969485803069,-0.3923868692957455,0.06916614452292835,-0.3258249904234316,-0.22733288318251654,0.40099440616695636,-0.6267817042687795,-0.39560062922854233,-0.8276265896311712,-0.34629583415745113,0.15233991121962975,0.9463798862653732,0.1875739346636791,-0.8687072508909264,-0.49061221895607954,-0.9930814066551583,-0.39020636387310614,-0.5173141040869866,0.16096736983692206,-0.5014427463525319,-0.8481485422287665,0.08107848580142818,0.7639344992879114,0.4228840454644116,-0.020861712934258758,-0.9986796935413684,0.100123776976768,-0.6081727111875519,0.29309360294082176,0.6161793678332643,0.19030001818227227,0.02735432666385984,0.42435026902642137,0.659212037749864,-0.8225907973738082,-0.04822458645417882,-0.5068295995788163,0.6777991284186264,0.9517914853094491,-0.3245666012211108,-0.24876976035028453,0.4222614927599313,-0.6589502440185042,-0.9774164952308129,0.5983877187869944,0.8054692539791932,-0.9623953969438315,0.5962964521331817,0.9535159186811486,0.4815323792804531,0.09943045361481007,-0.22303983280345374,-0.5489507930477608,0.27824351371361145,-0.8178064463785573,-0.365906521959932,-0.8645651149495626,0.2826093153221825,-0.3871719405572951,0.5411888956804356,-0.15103512135669295,0.5952594264074147,0.13020235773063105,0.44216865259668325,-0.9994972159431794,0.8044159829368551
0.842652719557422,-0.9770648136398117,0.9583122378923061,0.5166780861022524,0.16263739607610694,0.9420632887627347,-0.8174789498351973,-0.5466749795608992,-0.8582988772367037,-0.6390784830973097,0.6604268442454879,-0.9607316964651123,0.664889336353023,-0.5710735153117823,0.4136806412372802,0.06427248459116863,0.05001239454721618,-0.45795976167187535,-0.30824688499029174,-0.33072764386568343,-0.2544195722485718,-0.4597379706010667,-0.138388680219798,-0.8458340610537423,-0.9563781629560415,-0.3198074490669327,0.5801737351301943,-0.6561055487949343,-0.026727577569388927,-0.23344802780029417,-0.40718719878765364,-0.4453982775521179,0.9126327508008618,0.3991688879643924,-0.691202504487052,-0.5314241693954151,0.6209982528432476,0.9416770468679474,-0.27653710130812414,-0.7355913650248116,-0.18934791039648702,0.2686626949045645,0.6214147268164754,0.8267880003782635,-0.603751048800313,0.5108536816463936,0.5593360003318322,0.06703781471538184,0.7594879744161038,0.027235649558607467,0.4312620321248304,-0.8948329498427594,-0.868428558095026,0.4942088409566543,-0.7105203213284306,-0.8313049808940027,0.012237657644645905,-0.9113704326942444,-0.10971209273757276,-0.4709062710744474,0.15221291577580254,0.542962293607332,0.9334608095667116,0.1431557801389427,0.9306374687051227,-0.6096454812520575,-0.42774383376016645,-0.9252331085781214,-0.8475564491515457
-0.17178125816753265,-0.7585070079993506,-0.6529515628875668,-0.32268711041267384,-0.5934580711059751,-0.07787754551284531,-0.41509733362716195,-0.5856888962152438,-0.8059383694512101,0.052747462864168426,-0.5323172257293405,0.07202051413935551,-0.9337733710315981,0.5988759539899382,0.39378794660911254,0.8853435412653328,0.6040113493699972,-0.11244100195265316,0.9946617336562289,-0.528197353943824,0.40992296398278705,-0.01973563370453424,0.2066082036072301,-0.13214345089555635,-0.2014052585304933,0.4243463317661522,-0.018864912820804713,-0.00022802914726205437,-0.5250011959074097,0.6297423570439196,0.030704849763204978,-0.8029218727882725,0.42890322877173315,-0.054161899628529575,-0.5413582962173964,0.2905318972023432,-0.7620967093984359,-0.968853575180769,-0.3143784017282283,0.3412548109426221,0.3338220373822818,0.5996179163423951,0.13035997209371764,-0.9384493696668283,0.6090774888089885,0.6765478803731046,-0.5149992706558097,0.7262948095484263,-0.2596044051409634,-0.8640897745105696,-0.8332164248021012,-0.53765436601138,0.23353041027603783,0.8884172602225628,0.7227188220733374,-0.7830744630137787,-0.11017758808665068,0.21167941380569077,-0.8176193331203891,0.4411229879375389,0.2709589669693291,0.4546291132552127,0.17581477444203442,0.8885191277276341,0.5152201092053326,0.767557166499919,0.5508002444332536,-0.7995233097811407,-0.2773355337995598
0.6598242626153941,0.02345403083848341,-0.9653312433299854,0.16261513638599356,0.6989258934999438,0.5000056819734073,-0.36851952646577346,-0.6457243829312367,0.21013882716997356,0.8504548323338414,0.38949326643594673,-0.3054025252936312,0.17510618198743555,-0.4692662170516768,0.7851584558126856,0.21762718600961328,-0.2877287127702366,0.5187336278110246,0.0011609058889601176,-0.05830310565305452,-0.6154115005395302,-0.8959090334948265,-0.22787343441881025,-0.8565946584025637,0.9112687999999476,0.6881660807150425,-0.7767167426452632,0.3514866214551928,-0.5050161963034678,-0.9979429664387429,-0.14289375968426898,0.06043376207177675,0.020820262180822224,0.9552915740286312,0.3106193487483848,-0.24565263981053298,0.2783774156885763,0.12233405292190347,-0.16064818219735222,-0.44811691871755976,0.5382563214074838,0.7376523308819489,-0.205670006470412,-0.299445361228031,-0.5818082164783169,-0.27370817780371937,0.8503301903993057,-0.6978364414401061,-0.46645758644846147,-0.9602170507247705,0.11418172538147098,0.4256929120090278,0.9494130891227519,-0.3761845320316437,-0.2838191189283439,-0.3846084181711751,0.3023016768770914,0.8331735560534186,0.669083391507348,0.6621382646440792,-0.9033462621628605,-0.728770080228355,0.28235485784032766,0.1480870608684901,0.4890791194539812,0.23942524839387191,0.7808163708599385,-0.5813970905426773,0.2434909165103747
0.5357500174951642,-0.2621062139067063,0.9830774963453144,-0.610654050775818,0.39214606845665423,-0.20661014401406952,0.5263347541424854,-0.949192430731095,0.0822360934812405,-0.5521381755193675,-0.7740518418822033,0.19962305569874128,0.9945594583975339,0.695672535134908,0.9470105982186168,-0.014902120798931273,0.10851134858718181,-0.7952293266788271,0.43573104252569594,-0.4973797775990476,0.7958146641647541,-0.5513871725999031,-0.8572169152765712,0.8017601653852819,-0.23587341603418177,-0.6346592440486292,0.4132962580730526,0.45455091568458017,0.18157015885369487,0.672744896888684,-0.9364967495151744,0.195276214500558,-0.5802155999867824,-0.48236526187626905,0.444530931337598,0.9765837900440575,0.23755794822032206,0.5376689784917215,0.8709457575411983,0.016430538093821445,0.5151617689346168,-0.29696407354139276,-0.3768677049859068,0.8900643111286914,0.3327746489915415,0.9690231992281049,-0.29158753224230516,0.3275256588623219,-0.6370248828349807,0.4012138970003949,-0.9371376862498695,0.6059729818619921,-0.4520850479425633,-0.5191182249362882,-0.5723223101670531,-0.8713898087441168,-0.2802682138846977,0.9102950441518682,-0.16141666441803548,-0.6483289967268644,-0.07342397979267279,-0.1024458473225709,0.800366014712812,-0.6211234835126636,-0.11798274917750984,-0.1390992169597567,-0.06646202178577121,-0.9335624038816277,-0.2593675105639486
-0.2580065010936652,-0.7024258663715257,0.9024874296903496,-0.8952665053433722,0.8997700335863281,0.5641399160012235,0.8513661637963494,-0.529169925101147,0.5774518965445181,-0.25513456407178614,-0.512181929513359,-0.9342135115712529,-0.42332137800227665,0.38468971059851964,-0.9400424662140039,-0.7364243016627854,-0.24754952310105582,-0.4919435900845932,0.7122426892176803,-0.6482640138066604,-0.8677671283857271,-0.6788590217712842,0.8426440060835907,0.678201629665065,-0.3468293466864356,-0.995926454414914,0.6164453526376179,-0.6378874073974141,-0.02959157902891607,-0.38299225854319263,-0.3960519340381896,0.0038111183403635174,0.32158980981884255,-0.16443523007724248,0.8204146402001793,0.42793335902602814,0.33647192131647574,0.038535279427942326,-0.8711784829030242,-0.9229401270189468,-0.6029740961689549,-0.8565034582785087,-0.2535614707903653,-0.9831962927268405,0.1156403379149662,-0.4284230851806061,0.024305357198213695,0.2710997760033875,0.9592983990835391,0.4911029716814137,0.4583160747643451,-0.5652991302406092,0.45393318248157155,0.9923686504759006,-0.24711143952629544,0.32515082019142794,-0.37816609556728564,0.05835747603701269,0.14480984471490665,0.8324962631917034,-0.39326696903315184,0.022001628134293627,-0.10528742892720899,0.4759654730974838,-0.13383227812657372,-0.03258523677171765,0.9801216585350043,0.6701719440198322,-0.49088158304077045
-0.5482514774918756,0.981337306444416,0.14621562930561116,-0.9670999202700374,0.712919345719689,0.9328023235893563,-0.5233838439004974,-0.9705180312542743,-0.4537710362539653,-0.41367494084975465,0.8257758466602712,0.16801742044622614,-0.4321236171731795,-0.6575551750886512,-0.6621251432493966,-0.26411735994469066,0.12873253155811137,-0.8543100420086125,-0.733546612158376,0.6888807436496283,-0.5510723550082932,0.25666830457685474,-0.42380383543716804,0.2674907483313387,-0.28642991953136776,-0.5016478540315266,0.0530482191505941,0.2287155314704461,0.642869367488677,-0.2851181569894996,-0.4592145872362685,0.5133558443544934,0.024546813050767113,0.9764537438103034,-0.32253628529761347,0.12211210470707079,0.6159954617303638,-0.08199318004937495,-0.6867569039883068,-0.8410357520937499,-0.7825186305139662,-0.08732537865975187,-0.8658866115397876,-0.9915866718617086,-0.7873383412498669,-0.6772801373828734,0.9890009859977882,0.31800446323593445,0.2130853561201378,0.5140327588688709,0.28286571648495196,-0.9835985625894241,0.6225390162219637,-0.31344067566722567,0.35556042562548273,-0.5408265381346951,-0.1372984959595709,0.8535155043043807,0.033325129666797126,-0.7118210895943424,0.9121954799902643,-0.8944515577591612,-0.3607505769842887,0.9865652355352721,0.2584734719334707,0.5843334868959247,-0.21716536423595656,-0.5168476690702417,0.2510161577147787
-0.011799682640850184,-0.2997987798075925,-0.7767911763263033,0.0930005860292431,0.3118597111955743,-0.1215250210452834,-0.3966944890454649,-0.3065230110700803,0.8527679697393149,-0.899336246515176,0.4518659263974396,0.9510011951507611,-0.6395864518662175,-0.9603959731446143,0.6675763302053155,0.9921573933823151,-0.03175571667341193,0.9064390489155276,-0.5990835806952779,-0.91177358814609,0.8311566474199008,0.2617021595076616,0.46869104926983907,-0.9438675415556044,0.8602280850003841,0.6593177697136638,0.7103365364341194,0.6757850126738507,-0.18099315715115072,-0.3962014714427702,-0.09444695168818495,0.008218202239222094,-0.6637435103371059,-0.7729258846510512,-0.8317826675364481,-0.48078948634229857,0.5704968010905429,0.32408103827233936,-0.2811120398354372,-0.22577344112892161,0.9258862671796557,0.6081958426677201,-0.8984456838163006,-0.6383070512331865,-0.20804164908724165,0.4916290997989785,0.6102824123858646,0.21484082789109316,0.8713520578387335,0.8652545623091312,-0.456890130585603,-0.763507985509976,0.4595173429847199,-0.44379332719580145,0.9544183698476398,0.6009691254329332,-0.17191732432474494,-0.9942548721428137,0.2829824721109808,0.9503815618534182,-0.09402050888134905,0.9214246078334523,-0.5933819542242693,0.866582583447113,0.5182840041353509,0.30641917873436575,-0.9518419138059497,-0.7722227449495793,-0.2772859501510181
-0.8337029726013097,-0.2108933646364619,0.9833715940050891,0.09972256629150933,0.2131518488255315,0.9673546247046978,0.1590105178610126,-0.7594855186194711,-0.6897926067511928,-0.016605770559158017,0.13177438884060755,-0.019417397112705403,-0.277387612894346,0.557406113925256,-0.12210720409398856,0.17441173298050416,-0.16097873478782931,-0.6176649820396489,0.020250623377127352,0.9879743861228714,0.9421775657197295,0.270154146706183,-0.35364522232526285,0.8735406565035708,-0.010311122666075923,-0.26102253608719606,-0.5367182932604031,0.9273726516662246,0.40468275009458154,-0.559455609043066,-0.35284778926956695,0.48815436012000135,-0.5909684930351982,-0.6340934871522239,0.5436045513969148,-0.6352803033683398,0.9136460444672629,-0.1999555829615287,-0.755255269495777,-0.565156869769003,-0.5351583145122725,0.7504574863787197,-0.2723330479946475,0.2361136968618296,0.8760755758083274,0.6197056079264247,-0.7909848215552098,0.2443300703372706,-0.8736432809366461,-0.7157041440516492,-0.8261648610450978,0.22976798519126906,-0.23827209031916086,0.7850086551247915,-0.5521199680350617,-0.21140473689502715,0.08346653024597184,-0.6179313931100754,-0.5865639085984076,-0.22364678988184328,-0.5914565869507737,0.17508690440607255,-0.9764434408850933,-0.9600577410605327,-0.8481644487400952,0.6407140015163557,0.5409619912136052,0.8397521963376151,0.7393664341961639
-0.5848610881287044,0.38847363226175324,-0.1274209685267269,-0.04148950554543518,-0.6510103787587624,-0.37905039448409705,-0.4358849726947911,-0.9212644100609579,0.5340145094821689,0.4295890943592455,-0.9833016931789411,0.08075333724565814,0.8334898269890811,0.9862384982083083,-0.4407121771161604,-0.03950093259278664,0.42938755510590654,-0.5050092235197146,0.30586009833978234,0.5264225267947875,-0.5333016948402507,-0.29591598642749917,0.34465201349374075,0.4302378341894124,0.8917720390623174,0.055759817735606454,-0.6006278725602421,0.47008815068383725,0.6117311358008328,-0.010033519532294477,0.6209194600822989,0.9410853620346109,-0.41785500748804916,0.8471165154402445,-0.04316639873839412,0.27482535500539873,0.7365215132629446,-0.6460211616595153,-0.5133448436148709,0.35776910414523666,-0.9893846783692062,-0.022791350801932397,0.8934137992029412,-0.23806744076239195,0.6817490943612328,0.7648533301115228,0.7675154581421451,-0.8228580456993277,-0.2767672487291539,0.7636630232181503,-0.6670296007674994,-0.37784436817194966,0.9929223308051733,-0.9189081674713686,0.8504993463276955,-0.24511897427049445,0.0921614178540755,0.9090005371362602,-0.307456350832064,0.4385388335380733,0.02774626970540872,-0.16478053887550148,-0.3766850741012633,0.24218913080544868,-0.06829818000389953,0.004111550592741375,-0.8037660780223377,0.8706768296171543,-0.7222981558986064
