NewLayer
0.731874086180,0.080790963432,0.484322755351,0.453728324907,-0.297759833193,0.400392617813,0.696248250626,0.651193245861,0.624875127985,0.779931743180,0.384599469593,0.427264920327,-0.371083812602,0.549631905910,-0.174495297475,0.203693975323,-0.356548893454,0.953630104122,0.291595556241,-0.152372646602,0.402551548241,-0.051088616733,0.116626535318,-0.989010135922,0.108015083441,0.311828565727,-0.228482808539,0.613840396898,0.277546154295,0.856675292795,0.799636878312,-0.112228910004,-0.278478654347,0.425673063784,0.674647033446,0.290196343414,-0.778570947360,0.989251517950,0.761011984706,-0.735043613497,0.029044324056,0.187788780553,0.772547721886,-0.040547574294,-0.779520128298,-0.210229810195,0.304676055942,0.144229370270,0.880649569000,-0.496787929955,-0.330601951680,-0.476315884782,0.330199552149,-0.087494326525,0.137042173002,-0.905025740129,-0.512593547865,-0.937723408526,0.661573909485,-0.884810742465,-0.004306482548,-0.027431851302,-0.502333531882,-0.503346443152,-0.838634498906,0.485450870140,-0.985487571910,-0.792061307288,-0.771020892367
0.201311402320,-0.975890980054,0.477182532721,-0.057446037448,0.632854192705,0.548583985265,0.507468391103,0.044208708824,-0.245499924794,0.871153784410,0.623044824424,-0.981656009823,-0.470484659100,-0.562581353242,-0.338566567375,0.310614909798,0.477168693643,0.313812567787,-0.047476911974,-0.050396901397,0.231078748880,-0.014255899370,-0.333366131272,-0.731601583543,-0.452548194201,-0.037007133726,0.395945306776,-0.071208486740,0.060574734236,-0.328095548552,0.874328198757,-0.614568290328,0.688246238086,0.685718965936,0.295674706868,-0.747017412391,-0.588410493302,-0.100270118961,-0.920367962067,-0.066938628921,-0.605704716443,-0.525945881077,0.485125386480,0.427644672144,0.442524956451,-0.217871731353,0.820998333297,-0.328473861973,0.239144339885,-0.145608363687,-0.572387778651,-0.729485032958,0.798889196107,-0.698892621574,-0.475352475023,-0.262737767684,-0.872343799877,0.767572922578,0.604261639053,0.250474213295,0.309982632365,0.973435783533,-0.381820306837,0.884234191467,-0.277015568245,0.988893962107,0.787670218793,-0.880010119229,-0.598118284533
0.328642986005,0.610307042140,-0.800974173184,-0.154015669495,-0.185835323916,-0.485636381570,-0.709488121123,0.318070909050,-0.211254469264,-0.945817905844,0.653703960697,-0.080547328891,0.844111629266,0.262731439885,-0.480373477410,0.971004659522,-0.257344931148,0.973752883507,0.862883320849,0.661098626901,-0.173966739630,0.175411286326,0.538128316472,0.475322579791,0.984091939952,0.146635772737,0.093359829390,0.648073093114,-0.933540157670,0.501374697104,0.464983500428,-0.053168844733,-0.895794273446,0.063657937635,-0.473690916355,-0.559569278367,0.222714165646,0.372097519142,0.875100855500,0.975062813069,0.402244053228,0.694153840215,0.877272913412,-0.720607727460,0.467431765683,-0.770896356384,0.778401977683,-0.319392912427,0.878388366524,-0.416864651331,0.844719467856,-0.146780576792,0.859344417207,-0.402127560460,-0.807911273707,0.424756339116,0.245184706714,-0.181807246495,0.276955219208,0.235507666358,0.493682028240,-0.931322665110,-0.578896371793,0.753337666070,-0.771570385204,0.744477037014,-0.141973941312,0.334735761967,0.570721267352
0.726371362143,0.433658376900,-0.877064341963,0.305383213497,0.869760265887,-0.973366767901,-0.918896719515,-0.045529801181,0.437605674657,0.205721536263,0.816149230746,-0.608772270005,0.793487591676,0.933448817834,0.133985093411,0.811070986253,-0.793500699192,-0.489220198170,0.357660138154,0.137000523714,0.349974659382,0.958198551294,-0.667283758742,-0.602140414910,0.424277816153,-0.193600661899,-0.252475422894,0.079630685204,0.192378645812,0.089200712722,-0.885395296341,0.007282652478,0.404324231480,0.293325621443,0.824269289822,0.721883338813,-0.490812688030,0.114476631732,-0.877260416869,0.612599930508,-0.358492912673,-0.779619311341,0.683506937280,0.288988813008,-0.439436470646,0.672276755416,0.537623300708,-0.444690870140,-0.118335761021,0.469612168951,0.364257368660,0.029562530669,0.544753634119,0.042988676746,0.617238563172,-0.526648249726,-0.086929915445,-0.287983791369,0.677491539313,0.869243904710,-0.185771604013,0.130910950054,0.362253993258,-0.065961228284,-0.425857037549,0.743981496480,0.578197922823,0.577448245257,-0.036253217206
0.341842366762,0.895177830765,0.536981078726,0.400363539654,0.220082364256,0.424577281563,0.613790366432,0.506146362112,0.032326373315,-0.101542973438,-0.941579586707,0.749646761005,-0.286786523565,0.823210280368,0.950968478867,-0.624894943403,-0.832520234236,-0.979807264712,-0.488637699577,-0.939966136841,-0.095831795027,0.958715074911,0.047784608192,-0.299676164129,-0.037803967244,0.555368285843,0.224471048085,-0.499254189449,0.526027993002,-0.703064296520,0.561683946633,0.854130697748,0.143227140888,0.045556232152,0.394784731030,0.287384853909,0.374265389444,-0.633280854644,-0.490355047287,0.868775319560,0.620120615866,0.505068380402,0.859438390176,-0.535578487650,-0.766208369754,-0.364159526991,-0.253110396412,-0.521509456708,-0.705967599295,-0.273470422695,-0.479838874932,0.913026721072,0.389510940371,0.648156931483,-0.688312245446,0.346068319532,-0.122495857351,0.863758132971,0.805671006804,0.184621323524,0.478827226744,0.685985429499,0.324219829007,-0.936627330085,0.787560248893,0.462921040657,0.034756288599,0.520356898043,0.602868656440
-0.176655869641,-0.398609579155,-0.600618394804,0.531966256679,-0.256159761855,-0.336306476392,-0.172582782315,-0.311443506022,0.081441101458,0.441650678131,0.839530845642,0.713507428758,-0.403129745227,0.630494941175,-0.974287517883,0.762389427534,-0.206626557544,-0.412873738053,0.112350731415,0.822953412284,0.593074109068,-0.672313610006,0.265373570422,-0.834297551378,-0.569227276640,-0.040915841896,0.721227256496,0.212352835904,0.788158782189,-0.570402752277,-0.284851508805,-0.497260401163,0.344838755213,-0.485338657866,-0.988804356586,-0.470876823694,-0.436221330419,0.535605432353,0.727620974540,0.105115771242,-0.562573012283,0.245610238407,-0.320289416852,0.759985837947,-0.594312246765,0.771685583556,0.238396948863,0.269989646714,0.253818570639,0.509184741722,0.762011198670,0.759222670893,-0.727391059699,-0.851558209920,0.986167809976,-0.300543169514,-0.979240277611,0.380602014497,0.836964173810,0.178213822597,0.609687224398,-0.281568485047,0.404274084802,0.153149272474,0.659125515429,-0.755297249102,0.435988730047,0.523542346248,-0.219810854122
-0.346001908822,0.226762941739,0.265180002792,-0.155932338793,0.637404880285,0.864030654252,-0.064698166564,0.193456877179,-0.020989698129,-0.937253160789,-0.106642034735,0.678614716747,0.324054194462,0.457764984828,-0.034996296563,0.299887606628,0.999494532467,0.315171221020,-0.017525704055,0.961083453908,-0.264684958968,0.813626239678,-0.352697534066,-0.125891701392,-0.163323619603,0.419990358517,-0.244845510071,-0.449571933132,0.118236443518,-0.460493280057,0.595727092288,-0.026691618840,0.206992651122,0.408246269348,-0.394158546894,-0.869976612910,-0.178566364848,0.894855491844,-0.086050669062,0.921700286021,-0.804635251501,0.705058804317,-0.948819095477,0.094076479327,-0.928577440049,0.673062659956,-0.898073646168,0.385233733979,-0.519666759579,0.347350269789,-0.363304996880,-0.666078456816,-0.940151402841,-0.828998372379,0.447945377500,-0.782731169950,0.093787623977,-0.828851366187,-0.136737325649,0.951795472718,0.771748158770,0.938808800951,-0.903340966268,-0.991213605576,-0.649198243524,-0.242499600055,-0.248274379800,-0.933185707145,-0.490895374895
-0.044284578812,0.545896011905,-0.594836419842,0.772515965580,0.359386618114,-0.909263059211,0.635437095705,0.554183108005,0.668327531554,-0.085054369534,-0.599012043839,0.498616639316,-0.353053671054,-0.366536509185,-0.231759990002,0.964407243429,-0.336536692655,0.429321613908,0.227484601526,0.939421798773,-0.046070599547,-0.667542394367,-0.744947127081,0.503659317635,-0.065482078409,-0.344981342413,-0.760282550494,-0.370859339070,-0.575736976228,0.795433688358,0.730720423267,0.213747870859,-0.016239194244,0.706370455583,-0.017547543584,0.273429531748,-0.856990974989,-0.695382285657,0.186985617405,0.931981508751,-0.003917040807,-0.704845816012,-0.928015126155,0.357912404659,-0.491790730918,0.265884813675,-0.075471885169,-0.436546332429,-0.875085012983,0.565202769768,0.784788749650,0.513173977206,0.098335250908,-0.761116006621,-0.676472399099,-0.082040911114,0.992073858507,-0.492870187127,-0.684782238511,-0.225397961921,0.430586132505,-0.737996037179,-0.400880428132,-0.511419127817,0.560928880709,0.620596121340,0.500118387198,-0.021975368024,0.575268807312
-0.013128076267,-0.535632352651,0.112126004830,0.413046866097,0.738148255222,-0.797664722814,0.931129954028,-0.552708689783,0.382677077731,-0.624322598496,-0.006674402777,0.416966079755,-0.403936120011,-0.417756093129,-0.386533498313,0.941381753003,-0.905515587282,0.536724683332,-0.911160640216,-0.081590328697,0.343484428055,0.367571258056,0.596424486163,0.738496158196,-0.708240041090,-0.855719336504,0.304505865450,0.776112928134,-0.855422596399,0.521148340488,-0.761563317425,-0.541634830031,0.107216920687,0.710963255625,-0.704837936390,0.147245852430,0.292988664071,0.868593367445,-0.464142727360,0.915101999993,0.327937317767,-0.419597325206,-0.979606312226,0.300147512049,0.840262352294,-0.179420124336,0.526942015099,0.503749643326,-0.903997035533,-0.816848205627,-0.836315687375,-0.372252645543,-0.197016997904,-0.733069939713,0.879083962605,-0.671693997516,0.181977124627,0.736212566996,0.436347845085,-0.761093348016,-0.812302953992,0.165141977461,0.419989849341,0.149164291577,-0.648722985526,-0.659782963873,0.790207711653,-0.189190489824,0.421083927040
-0.905344198756,-0.021556158672,0.207694723290,-0.988113223111,0.875528216652,0.288628482304,0.194745868831,0.521263018388,0.606664943331,-0.160673251112,-0.904351737660,-0.356363552043,-0.245241426465,-0.722393089477,-0.274283320364,0.544866606207,-0.033015077488,0.520869924208,-0.866809842490,-0.400442522374,0.176063905545,-0.238260133713,-0.866073616974,0.160176679790,0.054496784572,0.986902927242,-0.713877187902,-0.556809596197,-0.013222546720,-0.842917097377,0.092623210260,-0.900456303943,0.893154386522,-0.123064401273,-0.534901404027,-0.776303691238,-0.408930095806,-0.011283950655,-0.314762955675,-0.864964420288,-0.880432856603,-0.685697511831,0.405200734466,-0.599738070707,0.819411361767,0.209141337914,-0.872006906763,-0.536309492176,0.382047096404,-0.007084852832,0.951731206972,-0.142607205786,0.523799239629,0.463576840571,0.034367377759,-0.832202531107,0.267455005770,0.689103141813,-0.564085248580,0.290709349168,0.402298338917,-0.254035246486,-0.176737738550,-0.996076293469,-0.840534023135,-0.065603413369,-0.039707661034,-0.063708421367,-0.952731930623
-0.711732165709,0.566551444173,0.032453375807,0.057829334226,0.945568067899,0.465049636886,0.437030747643,-0.276930273953,-0.740996247945,-0.305957929703,-0.518148280067,-0.548397040195,-0.696648890180,0.948231635611,-0.097886133847,-0.486142671909,-0.693734834045,0.454824286169,-0.868850751578,0.689618709701,-0.161659259082,0.999641974521,0.857458246497,-0.522153440547,0.703411818147,0.986520294299,0.983791352796,-0.967251595653,0.271058631696,0.760143331222,-0.460229411892,0.576754793225,-0.158789416114,-0.747935159984,-0.373299383303,0.974556251011,-0.401284610282,0.751012644902,-0.661974477935,-0.805395894927,-0.590359198554,0.926008421020,0.197719741908,0.294061326270,0.012956166742,0.647613834251,-0.390085304866,0.210187978282,-0.466094734644,-0.931592631562,-0.360732456205,0.725630809032,0.957766815686,0.131860123453,0.421310405867,0.332529752385,0.504082924966,-0.111668941167,0.500386408221,0.871196152498,-0.935572949270,-0.248375027603,-0.869431289113,0.361806199466,-0.110840064620,0.127821096154,0.697477566718,-0.738496838081,-0.156778353808
0.142757925254,0.256030765304,-0.735408471028,0.266923458789,0.033236628663,0.720404679084,0.271642687883,0.846242618749,0.017245654956,0.714013724793,-0.914969589395,0.142315676049,0.296886373830,0.810628803982,0.767786057218,-0.368562701154,0.404996547320,0.940576411197,0.178241156381,0.569154896610,-0.203600720022,0.436912359200,-0.318503056803,-0.491313883110,-0.241041723096,0.330962481529,-0.912879787039,-0.280075834002,0.086282991374,0.948272762450,-0.534152213511,-0.530829160091,-0.372773283821,-0.399861656483,0.883341632622,-0.285639221414,0.923216460695,-0.581738637182,0.248682556314,-0.446714813920,0.352611249968,0.670301249976,-0.339844994684,-0.176658638982,0.297188372803,-0.882091701130,0.151481121864,-0.683407273088,0.567462495147,0.844092532360,-0.845532386722,0.143237816549,0.167631436393,-0.021609066079,0.418909088639,0.808475949197,-0.031286722668,0.138972885796,0.673472672909,-0.599644672512,0.080384300507,0.041985411924,-0.653353363159,-0.402699098540,0.585474257682,0.551223536847,-0.844934158038,-0.478731090763,0.570855886334
0.085496493791,-0.416603044225,0.360688859618,0.772027430046,-0.490859763769,-0.183539977098,0.462678849562,-0.040411519420,0.614100744866,0.252994957321,0.628436429890,-0.604502803561,0.923636866857,-0.970016915322,-0.928950792249,-0.476014104047,-0.414789803747,0.596011729469,0.351335417268,-0.886897980020,0.427352275107,0.162219444621,0.313561291117,-0.979529840606,-0.281580268583,-0.221476713876,-0.089479127591,-0.022665655652,0.625733113618,-0.881688614848,-0.028425073111,-0.450727664251,-0.652115082119,0.710543988079,0.546344719548,0.010742698717,0.280744106639,-0.197834278391,-0.064218271810,0.509830533899,0.836479040527,-0.499838497126,-0.110929565365,-0.167167508230,-0.937754587032,-0.629577274351,0.731848461616,0.385759723861,-0.256504467646,-0.820522823308,-0.658709676612,-0.335966212386,-0.047997388243,-0.620129346931,-0.706243606939,0.483582106732,-0.113371977679,-0.521642391986,0.408237623914,-0.949101800011,0.551591892981,-0.221784926027,0.153568505608,0.351776987842,0.453046252858,-0.627306605784,0.200137043478,-0.674026312748,-0.141020911881
0.175204516358,0.470935149040,0.921408109154,-0.029786774458,-0.704768364104,-0.417874122164,0.791616828876,-0.674927027149,-0.471332794257,-0.331838965271,-0.788907276208,0.166349440604,-0.611830662588,0.885353379409,0.048906739412,0.670683947968,-0.948195213481,0.943951790878,0.714223045493,-0.044326766935,0.947124048504,0.435082334892,-0.746439939557,-0.592870082911,0.923805135947,-0.196317698565,0.886836794900,0.790944296499,-0.699201403461,0.912436672962,0.103592413066,-0.648457360767,-0.065844779338,-0.960216832666,-0.629434087812,0.631900035890,0.072779195096,0.172444869075,0.898061315922,0.861870411108,-0.465868806552,-0.530854347696,0.281239791380,0.627491376642,-0.988155988500,-0.653651608557,0.809189346179,-0.305561364437,0.989314116715,0.740247196795,0.659529995561,-0.939152385047,0.595201371874,0.688737605203,0.157586122689,-0.157238718769,-0.537445293591,-0.844124125744,-0.946908579156,-0.492105807825,-0.640180933581,0.075714270813,-0.346479475119,0.274650585201,0.337129505866,0.226246344723,0.670612711609,0.836656427778,-0.475893901597
0.024299365307,-0.371286630034,-0.994734708478,-0.475387670510,-0.210415718373,0.071111207038,0.047930174193,0.516103651884,-0.917045954801,0.120705047311,-0.928497256479,-0.925598938333,0.805151153540,0.486751512908,-0.062865969631,0.503304917191,-0.273369516960,-0.195970016178,-0.377953816652,-0.011410053196,0.091607072437,0.983410364911,-0.321578219623,-0.080123379794,-0.331222453824,0.571170667228,-0.764297754690,0.108526882746,0.272447490954,0.195452320081,-0.918089541535,0.109915717629,-0.473607768486,-0.775680640576,0.775947101072,-0.696727640769,-0.891330687559,-0.710198233904,0.912617614846,-0.677861748857,0.949269284360,-0.940403687515,0.888736424460,-0.332431120302,-0.458895003803,0.918746221991,0.503337245453,-0.222387053943,0.225606525829,0.939287373282,-0.021791806979,-0.846984989600,-0.047841423739,0.510396910504,-0.284588311858,-0.871605740404,0.813789869195,0.353296642756,-0.935587132524,0.725535947418,0.878201000462,0.015847676599,0.363649699343,-0.448712089881,0.196709986078,0.218731713109,0.498794251395,-0.145231261081,0.859024265704
-0.103576120158,0.589880250604,-0.990427531496,0.276345453994,-0.236734226542,0.684778983946,-0.980953306259,0.953197366070,-0.562528756559,0.084384663615,-0.090351951554,0.467821076116,0.927909573454,0.719359729587,-0.038912188493,-0.578454520575,0.524207123626,-0.442127718059,-0.251207422510,0.037665059379,-0.916746048648,0.927140180930,-0.135527374266,-0.130896538607,0.042046881234,-0.235126127993,-0.132517626941,-0.736592741640,-0.288914389480,0.929983328016,0.782718616137,-0.810424192686,0.190799299065,-0.712473826355,-0.775867958509,-0.418108567366,0.552363264696,-0.696545977414,-0.128553686869,-0.031147919027,-0.107198597646,0.517266630971,0.991513212993,0.776984870154,0.531291039660,0.597578262592,0.828990306898,0.184801296452,-0.429342729119,-0.696171047912,0.575427709020,0.892435776676,0.453270955051,-0.145267500871,0.428117962297,-0.415485023521,0.199331917132,-0.717322257559,-0.690156170888,0.040226851683,0.479575398539,0.828197528136,-0.791896120853,-0.415849242782,0.437212252379,0.738694613040,0.291449890422,0.534987273959,-0.567110084131
-0.068717510341,-0.907974304351,0.778565731794,0.916335388990,0.093717412450,-0.239093373028,-0.205674251135,0.954342235744,-0.339636356744,0.857357658276,-0.992157376874,-0.476264160361,0.088786723370,0.672807895978,0.971851105923,-0.558736134448,-0.289754505618,0.376884021377,0.890821553514,-0.129476591104,0.849596968124,0.511998919731,0.551990557832,0.344710166652,0.207099123861,-0.893333909172,0.954642421369,0.179763630407,0.664280137003,-0.463669273685,-0.306899787372,-0.687801292908,0.844471980587,-0.761505786890,0.730703914406,-0.591931729171,0.521269233130,-0.473870067567,0.678587801608,0.687112904267,0.348230460912,0.769694192432,0.904324750817,-0.563350013225,0.157084655433,-0.882107386136,-0.759210777990,0.762958018075,-0.536013618175,0.526586717883,0.760689797402,-0.000986743124,0.867706102071,-0.512660734324,-0.929354093340,-0.177768724541,0.137238827738,0.599557515745,0.222518916816,-0.478245430728,0.239900105268,-0.237267688896,0.385787376050,0.286581372608,0.600250939185,-0.083257639363,-0.767478870650,0.172547865434,-0.578253675392
0.880966942721,-0.493132877447,0.561081351313,0.031406179932,0.950516233988,-0.477630349749,0.455926248114,0.610979481792,0.930773826796,0.510534096645,0.711203930711,-0.735195687235,-0.218247005766,0.351719930891,0.973594589810,-0.893482251559,0.233320173016,0.325077887805,-0.322006507184,0.562341170269,0.666828379256,-0.291309353966,0.058384711592,0.912602087422,-0.327187003683,0.514714124711,-0.325578405086,0.819254729071,0.508614476316,0.670430279313,-0.375564865017,-0.447555155083,-0.162480245394,-0.503989415985,-0.992636599826,0.085750902172,0.468341980163,-0.202871795179,0.468968190629,0.900722513329,0.962843759501,0.923087972829,-0.638987825010,-0.240593766416,0.442634128411,-0.354524484186,0.439107843073,-0.409197439704,0.953169450587,0.069790554763,0.365206864230,0.500306035736,-0.461526224781,-0.030519583390,0.556652162584,-0.168441632906,0.222594804089,-0.357092926023,0.680548097589,0.572073106931,0.026664722207,-0.622970095120,-0.282618107457,0.116295036197,0.467094501991,0.018066742115,-0.204457136027,0.239339795549,-0.107239907419
-0.239323805649,0.750702604414,0.065521227970,-0.977473149536,0.884682227730,-0.548829947335,0.500590831624,0.116718896859,-0.488809779916,0.053145382778,0.881075905800,0.994461010600,-0.112856119521,0.147305889751,0.468705940089,-0.237944502490,0.391668129556,0.653371064843,-0.597464034355,-0.422094888442,-0.649916701157,0.687125327337,-0.030252888571,0.633077040064,-0.732675339338,0.649442461765,-0.916559815793,-0.963628091193,-0.432770684591,-0.292268963423,0.039703547957,-0.243264744713,-0.287548940371,-0.481151046663,0.871861704621,-0.269038964112,-0.097249304266,-0.176259197628,-0.153322408147,0.768841598801,0.577424485135,0.558812026581,0.119380392354,0.702177014835,0.139303066787,-0.608725913090,-0.998546488294,0.011365047102,-0.363318284177,-0.768537313762,0.369138093687,0.364092495769,0.193309652788,0.520091479401,-0.379219765308,0.944588588275,-0.261262521689,0.654212669539,0.072161925796,-0.218918020217,-0.231573338117,0.241039830975,0.370111267994,-0.874217942413,0.024411108497,-0.325991683580,-0.657602879679,0.398326090632,0.115960911369
-0.826293855469,-0.638219711134,0.487853516202,0.110632428761,0.127621951957,-0.593404345811,-0.146212522413,0.129021179391,-0.971910763488,0.503339961596,0.502539172452,0.198264218503,-0.375432702521,0.180794208951,-0.277725814130,0.226216427908,-0.723442985109,0.161389913838,-0.947840348432,-0.166953626507,0.429289800757,-0.463260442597,-0.078182386234,-0.464232329151,-0.903318789756,0.138666048742,0.761835947555,0.406614127767,-0.076441049110,-0.777410085236,-0.514351674420,0.101026272055,-0.120081612984,-0.725723514503,0.435924540321,0.948465313409,-0.209145960024,0.568982100889,-0.984048452211,0.286505492866,-0.748384337691,-0.645646624616,-0.927677703042,-0.545690743214,-0.611392916602,0.468383648958,-0.215691538735,0.758079023462,-0.278382777501,-0.009071370208,-0.125058906993,-0.962277446857,-0.010790595566,-0.257554378865,0.222333890662,0.865533440672,-0.986164722625,0.582688127807,0.446368785631,0.224348353667,-0.724560280910,-0.511400395638,0.733921773736,0.949631454437,0.456347064959,-0.993317429411,-0.635711308562,-0.282550777302,-0.605938445755
-0.405901704923,-0.527454825751,0.617872155084,-0.103982055818,0.706889642853,-0.800869807992,0.216557017173,-0.329295680974,0.584389672142,0.877663053477,0.982970315154,0.818860262070,-0.284228217268,-0.754913201795,-0.217258753102,-0.382337922903,-0.733064522028,-0.958017684370,-0.068219766298,-0.455597291867,0.603117339202,-0.796902517254,0.031275692008,-0.417896362941,-0.236789381134,-0.986682267371,-0.231869663252,0.760280875684,-0.222393817107,0.283934686135,0.667957838963,0.096967924633,0.729152868017,-0.777825328019,0.212800153236,0.456282455912,-0.369306469624,-0.083637325526,0.867481425884,0.818097480417,0.212165846615,0.508880816025,0.236860296253,-0.905782835552,0.886640257350,0.665649188160,-0.080987256309,0.961658608590,-0.399189937194,0.406646217491,-0.695655349423,0.978079500745,0.093735675234,-0.912286727200,0.619440045277,0.901977613272,-0.999400137070,0.884695947810,-0.804744259297,0.630012744151,0.840667639112,0.552605675357,-0.641656377024,0.489408457335,0.612856793067,0.870585040503,-0.097215286294,0.571955663702,-0.533843191388
-0.282900527557,-0.830809678459,0.816306874434,0.468647586755,-0.739593813308,0.602043926372,0.677889175622,-0.344119569873,-0.969116143630,-0.402550719215,-0.708574931935,-0.487439054870,-0.153406525405,0.622258230715,-0.986030320541,0.148208931139,-0.992576661732,-0.918701771233,-0.884382138657,0.342324178457,0.501253970693,0.802302700097,-0.224561453157,-0.639744928302,0.230413437973,0.358389125184,0.024973514510,0.392421279472,0.491528374519,-0.812413879557,-0.537570257651,-0.314638352207,-0.330204125242,0.305247321775,-0.127749238090,0.902647264798,-0.527811772871,0.795017306848,-0.375912359518,0.717168852761,-0.495027033524,-0.131627787304,-0.369861648663,0.899547742696,0.654649063941,-0.969023116907,-0.945509296619,-0.670826186460,-0.978091205508,0.997296651262,0.327237845502,0.456416318522,-0.789572984563,0.070154587734,-0.556289652007,-0.124130103526,0.478647771770,-0.802610404538,0.825443126849,0.628610928941,-0.856141716094,0.639842165812,0.460302828629,-0.465759778018,-0.668615471859,-0.481398877087,-0.246194795614,-0.922193461176,0.157767095442
-0.749862770145,-0.574506512287,0.235986360941,0.454543140264,-0.878256940732,-0.863660228072,0.310702202767,-0.650140080017,0.376277808119,-0.440681311495,0.064857637885,-0.528088336305,0.665258450030,-0.515730759731,0.973372868579,-0.126188388949,0.522696241102,0.814390222212,0.110776834234,-0.107837027549,0.294724701852,0.979310603845,-0.311245985259,-0.102386700146,-0.961900562143,-0.913714113615,0.009171087797,0.934374984178,0.260007013522,-0.531158813948,-0.891648230499,-0.754014023600,0.464676915864,0.517242706357,0.564486440467,-0.090515678791,0.904195312543,0.007259720132,0.463810303572,0.465869168631,-0.651750847190,0.685789066921,0.882528968859,-0.733118511681,0.308932940077,0.364682089688,0.299876099240,-0.896452540444,-0.876257495465,0.554014111398,-0.727301597047,-0.551701279865,-0.338487308174,0.032201581884,-0.573115976991,-0.048650244880,-0.492240010924,-0.864511063797,-0.930206246255,0.034656254392,0.759633643866,0.948141113499,0.496828713297,-0.534077146804,-0.367222090796,-0.631478303033,0.567498928346,0.539301150114,-0.050252404231
-0.429288776333,0.099336371194,0.642338444434,-0.157499591507,0.718130982846,0.374854009168,0.166383096215,0.045371060381,-0.645888402670,0.255584638102,0.577665600484,-0.020847920665,0.057390092994,-0.884781842707,-0.179790330278,-0.174862337724,0.788445621063,0.627455608538,0.803895969137,0.380308910535,0.852647870532,-0.066739237236,-0.293176606967,0.716670937823,-0.809903781829,0.574242333070,0.376023924053,-0.651186321498,0.902244983405,-0.366618734456,0.300553047742,0.821069969258,-0.070984429345,-0.156632039857,0.002496249793,-0.791724293568,0.305538167253,0.645941087116,-0.141992776968,-0.633761142361,-0.001511113730,-0.978668231386,0.059331400773,0.424471484539,-0.870905238226,-0.278945568509,0.471047235060,0.978461703625,-0.898481549006,0.330681498559,-0.732719961833,0.779528465835,-0.582118379281,-0.706709930624,-0.397257046076,-0.422646606898,0.398194127202,0.891700549559,-0.117108164796,-0.087031140544,-0.167684838241,-0.614998256301,-0.483561378689,-0.775213241050,-0.494709510382,0.533120859983,-0.585897926071,-0.197003801092,0.666379305401
0.627507223666,-0.464465650833,-0.598693701709,-0.758829582873,0.288214012125,-0.229356382821,0.476340539231,0.314872004377,-0.530111601729,0.015253456617,-0.346047275359,0.236835769124,0.662187819341,-0.462126668407,-0.415339436402,0.826923541406,0.984974260790,0.320481442390,-0.597460350954,-0.776205934265,0.290775019421,-0.617919132003,-0.995702204639,-0.191630519995,-0.918001652158,-0.719722834652,-0.815421847744,-0.553819306924,0.821108424451,-0.077530901337,-0.386192143335,-0.394684454620,0.207049840272,-0.124320465683,0.950184689769,0.702001128860,0.723892759453,0.882631102837,-0.321611200245,-0.275145875539,0.997184442334,-0.853211221838,0.143459853846,0.067894171673,-0.410098018999,0.972067196511,0.770456289086,0.780769387279,-0.703010418947,0.942851610809,0.095490029612,0.819851111219,0.677522652018,0.685586235359,-0.807744119700,0.049356792158,-0.771375690345,-0.908437471509,0.026164071028,-0.745690888257,-0.362729163146,0.161772756648,0.674471890101,0.210372447451,-0.343277852660,-0.728788105060,0.697252884137,-0.983590404118,0.013308541202
0.522441896692,0.547302341584,-0.513718554358,0.983855475559,0.289568751114,0.807821685229,-0.226680414853,-0.473442992308,-0.388121114377,-0.481121917490,-0.437179444739,0.839087863273,-0.147763982428,0.499103295372,0.832985182497,-0.673339991052,0.602724934010,0.700990186877,-0.545186177443,-0.840492273756,-0.730731956686,0.762868290286,0.835242281872,0.750645220774,0.689346690189,0.855460950338,-0.140823927556,-0.633461848430,-0.746334570946,0.313750319112,-0.837909643572,-0.066497312651,-0.728469946755,0.461940899507,0.506616907534,-0.830659369225,0.677074380473,-0.363680345116,0.754817697081,-0.531105317020,0.568563295182,-0.950014783128,0.901675117673,-0.756706610882,-0.755735732115,0.957573631968,0.333764280804,-0.025317124177,0.995704137255,0.774564317101,-0.585034285673,0.858368718749,0.999170329664,-0.198829173741,0.945814449132,-0.124328655450,-0.565859420768,0.622133240356,-0.290465551126,-0.522447490702,-0.675044632111,0.368843446931,-0.290791186126,-0.127747545555,-0.320329758743,-0.453676293233,-0.050044801969,-0.991762505332,0.602415188697
0.560682330193,0.194375539382,0.426803598483,-0.002053913232,0.995308489870,0.058036824370,0.561709057458,-0.978681251299,0.512862984056,-0.965327104544,-0.939537010885,0.295759101389,0.208734535265,0.150294728647,0.987258113062,0.451894134640,0.395863492718,-0.106454303167,0.724368734288,0.399296923210,0.463118631982,0.327811080667,0.829417235446,-0.946257538190,-0.075506175806,0.184453137227,-0.615924996869,-0.550932640452,-0.127339604617,-0.174902227897,0.635792402859,0.704637256350,-0.858416860013,0.338453098388,0.994350709412,0.861777734245,-0.144548648429,0.940897683411,-0.716923818311,-0.629408671035,-0.845574422385,-0.742908232811,-0.227540312548,0.046810870954,0.035098685447,0.280512696389,-0.618194976134,0.971158713988,0.652592910481,-0.175532023906,0.807923526992,-0.261861091163,0.551727441831,-0.419955686376,-0.302534742820,-0.151452945373,-0.616435934029,0.658851828789,-0.180813576521,-0.454373916889,-0.764352839382,0.566852577752,-0.092921418810,0.449004500088,0.010956341644,0.295441823980,-0.790509613895,0.318913697701,-0.877448162717
-0.393614836368,-0.367849250491,-0.984638486599,0.320033348865,-0.948181761426,0.862625366326,0.429865812318,0.852108076379,-0.500142025232,0.579681832848,-0.054595222708,-0.320623647642,0.081484420251,0.384819608021,-0.742722238081,0.350192971712,-0.185559503789,-0.127560870490,0.697583841308,0.118753249982,-0.463764532611,0.095367325813,0.058932335325,0.074727514178,-0.040819756511,-0.673162418991,-0.183168661414,-0.249206961850,-0.165532825706,0.683506575819,0.479826511726,0.724513140944,-0.988983848055,-0.220293811855,0.878393294881,-0.576814899834,-0.365513775260,-0.989632907617,0.584453305454,-0.762159543193,0.842361209025,-0.708997783492,-0.150403313789,0.125925355306,-0.521682622674,0.796259939727,0.414544455927,0.900118268791,-0.342740778816,0.880397417085,0.373825301266,0.272498656508,-0.075018492393,-0.873765831557,-0.782423279800,-0.162581941281,0.814536122507,-0.451691068260,-0.351005042398,0.091977178151,-0.386561777487,-0.164018414148,-0.303734561960,0.493897534133,-0.548245099074,-0.116243517191,0.855499130646,-0.381536954149,0.783701577079
-0.186739886163,0.366123416660,-0.988972761244,0.595679980145,0.053358504719,0.556144330875,-0.082050373232,-0.719390751902,-0.189865795284,0.779262634860,-0.452852051320,0.866673356608,0.411076227128,-0.747237876069,-0.007531766885,0.591500683874,0.215275648551,0.900503620349,0.882027708533,-0.178582738095,-0.518302896086,0.830141210121,0.062047613848,-0.224007540239,-0.488137221645,0.942174220427,0.660997213632,0.832694960943,0.448527871190,-0.772371824102,-0.621807424298,0.281747056691,0.502788010079,0.818561039209,0.767092390418,0.172357374834,0.012720735422,0.346767150279,0.154155170304,0.205005341315,0.112373236767,0.571560595713,-0.462854629928,0.076949136814,0.104413951094,0.041666991406,0.519314838967,0.615103468411,-0.260799974091,-0.771845083180,0.937086586376,-0.475525386447,-0.770037882811,0.898345280208,-0.681817272056,-0.084880491148,-0.607239759093,0.818014412497,-0.168933214316,-0.467992822968,0.751068675701,0.478412196836,0.925535403942,-0.136736207684,-0.970724413164,0.490278089334,0.278265254262,-0.978895125565,0.156027434163
0.015699777304,-0.571795648550,-0.154436453621,-0.828759927105,0.784369955906,-0.761683974002,0.285851690083,0.840121740664,0.622247665359,0.924966605724,0.772089993284,-0.338906527392,0.193776402158,-0.553954841772,-0.166551139949,0.604805706359,-0.158902171860,0.934681770646,0.995475016321,0.423938365430,-0.656991707621,0.916830652402,0.593375068849,0.848168356156,0.446662725759,-0.224146986800,0.611587359083,-0.741452003866,-0.782080503217,-0.551108508926,-0.548935557362,0.328784191770,-0.961583868274,0.636360693879,0.716685923853,-0.238028422564,-0.408498632662,-0.090739960115,-0.723515345482,0.439344344764,-0.131294686774,0.331212594491,-0.040568334968,-0.837423661878,0.271100443819,-0.063779330698,-0.492622139098,0.658571024456,-0.614261727570,0.201281446979,-0.167983901027,0.631460674060,0.617696306936,-0.669678991289,0.305374850097,0.201499542582,-0.768772662943,0.335618789226,0.403254958159,0.270763359225,0.154704902534,-0.548305169651,0.443867576494,0.615655382462,0.259097519785,0.063673519617,-0.015359823945,-0.718648034593,-0.273131598479
0.591040485012,0.722130564317,0.599489016052,-0.323303402829,0.378843269470,0.221535167724,0.123121138777,0.726675101365,-0.681269082394,0.452091090672,-0.036971441265,0.124339360045,-0.413313236218,-0.373161311235,0.839148234670,-0.490036476658,0.891326387844,0.909264410573,0.970410142296,-0.127794532144,0.403321120422,0.547606759962,-0.763523449254,0.220710027314,0.150161727849,-0.943997386594,-0.134102284416,0.995393424328,-0.002240022993,-0.312194351469,-0.761845912949,-0.261475624662,-0.301931659428,0.963850317582,-0.318281434721,-0.459299326763,-0.429567530862,0.012879454544,-0.290040805392,0.395493311318,0.504316445993,0.671116743200,0.149548225397,0.987450160045,0.197718416484,-0.564877760661,0.300544294608,-0.991426409300,0.101068767041,-0.111828796522,-0.222138806978,0.731460710140,-0.227865104716,0.240386543832,-0.960531721855,-0.625020385124,0.148737303722,-0.042982246756,-0.657487075936,0.358288277602,0.154197529343,-0.856506330703,0.639046240322,0.682153546272,-0.252539779540,0.041319983043,-0.701514501688,-0.125806678267,-0.066713198688
-0.587232512744,0.824751694822,0.706456105365,-0.444550799778,-0.173322923407,0.944640441672,-0.886884325467,0.250732848713,0.559084304254,-0.429724196981,-0.233079429762,0.625761682667,0.420520729837,0.483747721054,-0.462807192667,0.542781689136,-0.726219482297,-0.455030096653,-0.766213854112,-0.816190056635,-0.314085328284,-0.596029319608,0.521303041087,-0.967964026663,0.788709942170,-0.991481693793,-0.068815625158,0.902648390341,0.466175598455,0.885218462012,0.504659261463,-0.096391548124,-0.416861116049,-0.434383553188,-0.728178238780,0.581818609647,0.164838406711,-0.896019641463,-0.189511814934,-0.357670383012,0.943174534804,-0.123684476864,0.102179605267,0.288083522318,-0.080555569383,-0.774273497260,0.985156948617,0.323647212103,0.660240326965,0.432174816052,-0.832779067372,0.587247052604,-0.319305313298,0.242010474914,0.467247268996,0.031663302170,-0.351814372077,-0.538434838276,0.498108884246,-0.690070074501,-0.876806097059,0.810525892186,-0.972068438772,-0.593766135129,0.561111001709,-0.890704726599,0.014642829531,0.819361174220,-0.347169700901
0.876211724612,0.711432130890,-0.298279192774,0.488290056247,-0.442443246621,0.029802113979,-0.641837981170,-0.829195368088,-0.198163272401,-0.096099340277,-0.420044728921,0.209463968332,0.005164377871,0.093422820775,-0.498616337490,0.825431551773,-0.259118029619,-0.333541565520,0.176203062908,-0.018241134828,0.489515054371,0.492635923881,-0.505484243476,0.096893454718,0.870780219896,0.967025078273,0.706314807841,0.998160301496,-0.481253673119,0.806469894049,-0.719589170730,-0.969221117581,-0.122064006927,0.408969236829,0.434859780298,0.833949565236,0.126557449327,0.173197817405,-0.960724634238,0.641945512589,-0.046061266147,-0.164338749270,-0.901981444338,0.999523894254,0.619213425782,0.167482355081,-0.112455812359,0.076629852282,0.542263960820,-0.827438172987,-0.545972116055,0.197509045347,0.563770726941,-0.758901164915,-0.775080855927,0.894061417275,-0.200931518302,-0.764967898958,0.520042164082,-0.827276094116,0.046582603554,0.234870304533,0.753192338396,0.645412087467,-0.232827125052,-0.315692147707,-0.231870772259,-0.630059470931,0.879048119884
0.342634156767,-0.987872926141,-0.336974347992,-0.274701022231,0.139933927725,-0.827529620008,-0.551100664745,0.595182205603,-0.468052127565,-0.730467176941,-0.959343193700,-0.394872120965,0.926769332073,0.439339198698,-0.020499924093,0.929787914196,-0.097089520791,-0.709791189545,-0.022117770399,0.178780427846,0.087554815802,0.150096863835,-0.372202521223,0.372818069133,-0.050501375759,-0.629462997668,0.554230450114,0.590633931037,-0.781237205913,-0.060060180916,0.621601411999,-0.917169028160,-0.438354355157,0.964844461995,0.267185203623,-0.288668068112,-0.981118165486,0.030534097160,0.929941364360,-0.903389625121,-0.799119177700,-0.103629509845,0.848343268890,-0.213143283809,-0.033824734099,-0.962886661148,0.666272969675,-0.703788516488,0.238409324484,0.898702368260,0.384750389700,-0.803042791719,0.392720572521,-0.924394066039,0.138845545889,0.081086806383,-0.443571353462,0.206812225602,0.679793898768,-0.664834345291,-0.724478024220,0.969143017137,-0.703940267853,0.606544356258,0.238353361008,0.556425464756,-0.339314814736,-0.175907091697,-0.029140655881
-0.605384905095,0.633523813440,-0.994553922828,-0.552657146154,-0.122700982231,0.213878613236,0.856454883377,0.987753379161,-0.518454260837,0.205744124839,-0.074093046533,-0.014224317219,0.998521932231,-0.245277521278,0.230363967268,-0.559724379153,-0.258503153679,0.099428570893,-0.731886876724,-0.637377490305,-0.302936560867,-0.480265778040,-0.383917306862,-0.914100500507,0.475867093260,-0.873877064524,0.764771839748,-0.443182060428,-0.946284930553,-0.514457765089,-0.312431524491,0.160195064456,-0.314621408787,-0.649891310220,0.595100904733,0.799115056268,-0.408369696014,0.337802352205,0.016345659349,0.698822137449,0.863558501187,0.212703504026,-0.384388148444,0.765361220655,-0.426215056024,0.575356748894,-0.920524095674,0.711321658895,0.050858618060,0.115473469976,-0.868720615341,0.104574196308,-0.607216060601,0.872976848556,-0.098710316088,-0.337919397296,-0.004987578890,0.248814472669,0.259773295091,-0.336956995679,-0.980152304574,-0.733808266481,-0.785839695752,-0.745093069942,0.040607643827,0.771828331318,0.945292894092,-0.588245816405,-0.734377832611
-0.393423990598,0.902365821905,-0.994388633365,-0.935972254250,-0.368507781945,0.314342517147,0.308185102804,0.655979879204,0.004325323994,-0.476569564134,0.627935616753,0.964902879213,0.899973515432,-0.167019205971,0.043560533423,0.717080151098,-0.112366759651,0.184645868540,-0.622939182516,-0.379523265184,0.841475058706,0.646213555354,0.502464360679,0.359089564912,0.919331656753,-0.483599939041,-0.187310369926,0.340197968971,-0.023145577839,0.396704582765,0.062457290932,-0.489205033453,-0.272737481820,0.961698113634,-0.013127323384,-0.253401094586,0.040877554777,0.069804234599,-0.396265421102,0.894042544777,-0.713763341879,0.515069560233,0.094807196601,0.298099127405,0.353899379334,0.965050247800,-0.877566197419,0.726405049177,-0.344881951683,0.173266820479,0.330845747873,0.010051998051,-0.293536532622,0.649234709523,0.266681802054,-0.693319463321,-0.687468016694,-0.268160339644,-0.064808967681,0.711450387118,-0.973863665828,0.999740967186,0.785113511718,-0.350581521247,-0.104299585361,0.326147652455,0.945732071044,-0.594665920731,-0.648898748579
-0.535276177879,-0.336459572663,0.948376535140,-0.891529895494,0.275608677675,0.692137053372,0.528906061152,-0.561237986945,0.449396484847,-0.095530573843,0.423292133705,-0.533027125047,-0.756743102831,0.485999329063,-0.770401885587,-0.990857378264,0.688044489419,0.234893657769,-0.975691796722,-0.282910376890,-0.009276900538,-0.473422393213,0.091856828029,0.107300093141,0.695931025435,-0.331248324719,0.279805486762,0.686616065130,0.971359297876,0.173692257546,-0.544079647099,-0.559063795961,0.768204219186,-0.866995317095,-0.034029924526,0.810449847242,0.816222339752,-0.278917138474,0.490544279117,0.441962453489,-0.639668131950,0.072584820642,-0.244630943539,-0.056157479101,-0.063323440321,0.934132404065,0.019041561728,0.937579701660,-0.983235052626,0.957629435229,0.184721893304,-0.029874785120,-0.773202594589,-0.269770992007,-0.859915347988,0.344795700412,-0.734989410076,-0.749044148820,-0.161735246002,0.548843141546,-0.448121225760,-0.916885677186,0.533318913768,0.890115794600,-0.854509844523,0.779221063940,0.393200450126,0.476770902936,0.723169516871
0.391071203381,-0.731369021047,0.630818511369,0.444584532659,-0.842865370927,-0.671939917633,0.887223152599,-0.855522764682,-0.514308379326,-0.727836377798,-0.559991491306,-0.268367257236,-0.548456941633,0.376754669056,0.426250718190,0.890829087441,0.891925863273,-0.642392369926,-0.301822592492,-0.322070686326,-0.260681929468,0.791252622433,-0.587840510268,0.896847275378,0.276419943146,-0.052823106292,-0.018286749117,0.425015091631,0.899385957910,0.686309246269,0.866361683158,0.039679764392,-0.209822822866,-0.802941564850,-0.492013780654,-0.563580143967,0.310599811182,-0.994085252777,0.097847500090,-0.125440289780,-0.183608674970,0.161596453568,0.319326604082,0.665461763352,0.700519660639,-0.429098039187,-0.968463862585,-0.306921239538,-0.686843066150,0.331168287286,-0.080491277067,-0.759158732328,0.896806210487,0.940416727417,0.077166607857,0.303239223859,0.652297436039,0.792561582236,-0.047987559022,0.465956561605,0.783472239526,-0.407598101870,0.782300751345,-0.182858731888,-0.332444855659,-0.696063894208,-0.210996009115,0.941072368586,0.614548790446
-0.322737319641,0.788537884288,0.119489545679,0.545481302966,0.896231599018,0.481652003960,-0.118880654571,-0.351142360887,-0.478867047585,0.289963424946,-0.471139203343,-0.625585321234,0.528323870595,-0.532121132947,0.169321332883,0.384885725301,0.272120765389,-0.873880939579,0.086607329350,-0.068098407803,0.588807374278,0.813846370072,0.580798493685,-0.933396029782,0.344939636800,-0.809451008021,-0.512819074676,-0.308989890515,0.361945189128,0.667129498253,-0.766960321829,0.094389137428,-0.275507284284,-0.774372027284,-0.499497216446,0.283052602138,0.062723374738,0.922598678852,-0.072935629126,-0.457750932981,-0.477594308799,0.885229092502,0.328892295939,0.170547425023,0.137520924053,-0.501627711506,0.616716359046,-0.164172414485,-0.002719274915,-0.790312745480,-0.965635462581,-0.790519327117,-0.687786534854,-0.264947500759,0.484210406754,-0.581240436975,-0.461548941781,0.168539026639,0.143444273647,0.987414277499,-0.285823943895,-0.823336346619,0.365669229195,0.498292331782,0.804021484136,0.454228372130,-0.510828535174,-0.744096737880,0.461668830361
0.243487278319,-0.326016949820,0.196279527576,0.291813693667,0.271402915520,-0.571260296497,0.172615545876,-0.570678046368,0.900126336421,-0.937326425353,-0.995211138901,0.204082342539,0.282102726248,-0.768518803776,-0.164334379999,-0.795996175963,-0.864423188824,0.488308207375,-0.435155675321,-0.670636750743,-0.603641839892,-0.535912127923,-0.454963271892,0.425415652660,0.384240857477,-0.738269815744,0.157125539428,0.558126014590,-0.193038562034,-0.648257285705,0.269228163788,-0.334400701284,-0.372544178526,0.256305413444,-0.807519202311,-0.803524960730,0.343387712380,0.386126775700,-0.750963842657,0.560118981380,0.014726975726,0.764373636360,-0.450268922331,-0.499849622904,0.497721809102,0.363011301854,0.527298215707,0.603715365629,0.305543314888,0.998417463502,-0.533578835189,0.994317019950,0.027501209081,-0.802225563464,0.018938349361,-0.639396318724,0.758115038179,0.015674557422,0.630854245835,0.193559311264,-0.283820689027,0.367049601109,-0.720440441941,-0.511374797551,-0.285231149967,0.903002720368,-0.000155052845,-0.011580748951,0.307557632607
0.215048597311,-0.691827872906,0.730379422678,-0.309785493840,-0.043383317802,-0.427957255124,-0.748755808829,-0.143259583822,0.162898216954,0.276670310532,-0.178127327645,-0.286620465092,0.039078980102,0.565352154153,-0.789679753319,0.907334098655,0.424727785796,-0.955256151604,-0.573098645021,0.047291904798,0.859153362154,0.352442346796,0.411962147278,-0.820095492712,0.074565357443,-0.740097755950,-0.635048402837,0.031016358803,0.841713182620,-0.910256354224,-0.461272839802,-0.872761800736,-0.470891947854,0.504902083981,-0.241904774357,-0.502035264764,0.862462028781,0.729527063292,0.225146158927,0.894792827279,0.828971947681,0.502996460260,-0.304288126447,0.707502352867,0.041195355853,0.180298717039,-0.629043369208,-0.529587422405,0.430799261619,0.858220863179,-0.706095335815,-0.711557529102,0.632947750466,0.721371297965,-0.005365750751,0.309490318830,-0.644447644115,0.387185970157,-0.414054315672,-0.375720306510,-0.312437805036,-0.597099590416,-0.330774424664,0.764527192466,0.159131615698,0.718084409605,0.145585714746,-0.491201247489,0.915306350283
-0.994891035310,0.194646708888,0.289814082348,0.994042680274,-0.849593477155,0.675249073559,-0.376621149501,-0.367563751811,-0.935676348640,-0.823976136579,-0.203090350668,0.481485206285,-0.676867807061,0.645541943721,0.534445947935,-0.340310865866,-0.807794202965,-0.030497601220,-0.936920643143,-0.714932296134,-0.092852580458,-0.756449850944,-0.366986850860,-0.499678819377,0.467388382506,-0.892281635459,0.339157910909,0.945411545863,0.998327489871,0.282590311939,-0.130785557331,0.089415695404,0.940635528160,0.262555352911,0.430446200138,-0.632414922562,-0.199753159829,-0.519240895988,0.503361827065,0.778783404195,-0.095654327509,0.285897316778,0.089878743760,-0.438384526637,-0.137657301355,0.289353490123,0.131014557650,0.744719325028,-0.007602894112,-0.925924576055,0.528715520250,-0.990776100159,0.591063633559,-0.708363571830,-0.245429926642,0.776957657802,-0.663842989635,-0.411166297472,0.836190629015,0.074978087399,-0.987464878114,0.122058718823,-0.830662618948,-0.287800080043,0.235158512573,-0.377753828109,-0.260258840642,0.160340039412,-0.824739862193
NewLayer
-0.188850293451,0.517458446280,0.494533643447,-0.480826416710,0.500093728110,-0.273910424880,0.287622461619,0.082954198188,0.151377986316,-0.214960910665,0.607442051633,-0.988273069808,0.754517024861,0.246188601736,-0.970697354840,-0.640446031504,-0.030280698979,0.959114597079,-0.063908032063,-0.380777168173,-0.474543619287,-0.988935208970,-0.834704702779,0.654057257630,-0.533979062934,-0.879658966223,-0.489128270408,0.210733722905,0.523407456515,0.230877275953,0.523295828615,0.639432655481,-0.282798911081,0.399349144772,-0.610251284405,0.991614146147,0.628155677625,-0.549403239515,-0.947269242559,-0.439713350673,0.364963776865,0.005384305813
0.125120265932,-0.274775301989,-0.655867990095,0.230708027772,0.461679271805,0.237637982556,-0.805027092440,0.312990682367,0.848808943443,0.178855984432,0.414456011586,-0.470220271369,-0.177786561268,-0.732672532370,-0.589540767293,-0.972194133304,-0.931612808954,0.288781189977,0.490000985387,0.965426268205,-0.851447052025,0.897435779138,0.158739019801,0.414432786997,-0.965311498223,-0.452336219252,0.204127534424,-0.739803190815,-0.029129855253,-0.622060032737,0.549947781909,-0.957932008169,-0.354551161972,0.048946793281,0.955739447787,-0.766243643520,-0.563284013731,-0.672099544259,0.309127839106,0.040898009514,-0.396151867899,-0.490136960146
-0.863595847447,0.082279704631,-0.392538443935,-0.577170102912,0.181596563520,-0.975120777452,-0.307719152487,-0.656268104275,0.095525196117,0.515067928751,-0.049085781206,-0.089970376802,-0.786657265073,-0.217408978444,-0.481064583653,-0.708591638905,-0.189665561160,0.600548414125,0.113150074216,0.001608945385,0.474620224008,0.390233021880,0.467662372949,-0.528716465813,0.206229542382,0.195946111999,-0.524661108833,-0.512061131683,0.838471122723,-0.343844822524,0.097733384201,-0.587848706577,0.740672931518,-0.710678811374,0.390813898362,-0.937355761657,0.543092236834,0.499276066674,-0.427233175237,-0.809206531642,0.107684001269,-0.318892890348
0.446447957048,0.409034420902,0.942192988793,0.156763251238,0.854303315241,0.184471096156,0.327997128897,-0.957650902403,0.293150897012,-0.375032576799,0.988510253600,-0.593215722410,0.058425218396,-0.970654171330,-0.573181302880,0.670541637242,-0.442025400062,0.268718118186,0.377650002015,-0.215411264456,-0.243572836390,-0.145253973182,-0.208385860573,0.520358348912,-0.350906847406,0.970035625524,-0.048990268633,-0.494041262915,-0.017431937000,0.591570370951,-0.330470787812,0.790345643414,-0.248258234574,0.592851397715,-0.703955299280,-0.842377818363,-0.384769372359,0.295887707189,-0.167242428409,0.604889835265,-0.765202692444,-0.536762763245
-0.381827532714,0.120766801570,-0.189376449054,-0.320852742067,0.115921693064,-0.842412469734,-0.237697878221,0.403561422909,0.722505401150,0.505628086991,0.324402565149,-0.677792606814,0.145330088607,-0.361895571029,0.473322893544,-0.379166054556,0.553852901166,-0.636895331012,0.659012047015,-0.017077919581,0.412833345160,0.430672080167,-0.214439029805,-0.852848758212,0.136484362659,0.245237915962,-0.697522339313,0.816100945026,0.111518271424,0.244774333512,0.437033193153,-0.322692079807,-0.477973638506,-0.754577731282,-0.902761890926,0.823083707459,-0.431542634275,-0.110487082932,0.675796882698,0.856843078208,-0.505724361475,0.914719157487
-0.665645012230,0.487884123959,0.706359344815,0.787142279666,0.995198804854,-0.278458560441,0.321055320309,-0.083207534443,-0.427971267995,-0.473922837770,0.011294729103,0.154812238035,-0.813657445983,0.055294075194,-0.930505505963,-0.317046689874,0.813017152276,0.210939835000,-0.594768727836,0.538488067403,-0.604762200277,-0.862998343433,0.519626685779,-0.232904238659,0.407395321434,0.112410058739,0.215075054854,-0.476510717601,0.622559504164,-0.640874874289,-0.810949148210,-0.398229985811,0.887533160670,0.114448805632,-0.470244698559,0.556907817574,0.121423634576,-0.125557789254,0.514282118383,-0.930611818217,0.988530757158,-0.639749426617
0.418352274159,-0.223651026170,0.879621255177,0.922759528987,0.007110919881,-0.766572425637,0.265772741079,-0.504682369092,-0.525858917192,0.747874961742,-0.466953925568,-0.688465263438,-0.283434965107,-0.493002793745,-0.183815166413,0.408856795378,-0.720809903250,-0.134034011770,0.431673937043,0.491540184819,-0.452004867305,0.953087465623,0.675967621357,0.403243694513,-0.057219297754,-0.879614761074,-0.177581096026,0.757390917896,0.247857990555,-0.342909790070,-0.652910294782,0.738737100879,0.599807221235,0.553339518991,-0.712763273576,-0.277925397329,-0.605897767280,0.498035564821,0.301228089181,0.131960642555,-0.587195342802,-0.249838014833
-0.302758367925,0.943031932519,0.250286962877,-0.548578731936,0.364008181032,0.098855364644,-0.625653559159,-0.122765106394,0.899124185094,0.208150040198,-0.122756667549,0.812564707384,-0.039699510593,-0.079174331536,-0.555162817729,-0.201211878715,-0.636390488792,0.062919823606,0.042503484761,0.470237884718,-0.085923733286,-0.988318012984,-0.283267172653,-0.520024832988,-0.773427157379,0.944913903421,0.518068257982,0.872852281249,-0.610565848653,0.559202188595,0.670906588997,0.891018389576,0.167864039560,0.388061531867,0.595163519789,-0.641077090137,-0.213541500035,-0.405531232913,0.031786368817,0.436092494652,0.717581415769,0.153390921157
0.969916958428,0.951310911376,-0.212390204145,-0.664435446249,-0.010918374379,0.692255251021,0.252385841527,0.216356858698,-0.220911541818,0.075286448771,0.888534214983,-0.204649596331,0.913326951008,-0.934738870394,0.114580663008,-0.229338050858,-0.119226565639,-0.710870029703,0.028948160663,0.321022926541,-0.475515415188,0.372007330266,-0.164332963188,0.982949488797,0.788841397063,-0.290275374097,0.132469161237,0.156638957903,0.377603883083,-0.565456094249,0.582353325128,0.773654701569,-0.369089017806,0.588767787732,0.945077268290,0.414358718941,-0.577009018526,-0.625361931060,0.279279087135,-0.270765708967,0.936257115143,-0.599977312949
0.651155749468,0.516024923462,0.727362102710,-0.347935368345,-0.213197723805,0.407762754745,-0.211109513510,-0.421889680159,-0.861468059749,0.828840637935,-0.970208030425,-0.721080463369,-0.213040418821,0.313214074768,-0.134967902651,-0.950213749545,0.091787532111,0.198824814449,-0.244837830853,0.653516763855,-0.434065033264,0.360455448291,-0.565421849966,-0.712853420153,0.909144249056,0.943862589848,0.381698989226,0.674425213482,-0.700347989624,0.391157546909,-0.581709438992,0.364306749698,0.864557297268,-0.831489292584,-0.621355583576,-0.182887371460,0.186091037992,0.313165879296,0.680820474443,-0.484351568809,0.473945656721,-0.139123425951
-0.041396538893,-0.383021194399,-0.596518325972,-0.728496820730,0.504542046814,0.044770949498,0.073350031728,-0.298573862398,0.959873823398,0.749899294252,-0.920596803759,-0.843091541509,-0.231867202195,0.512350632441,0.045424232714,0.200916687471,-0.701949134126,-0.118021989356,-0.015756882075,0.868802271548,-0.003760681920,0.003949174150,-0.405453859621,0.044049860924,0.266043015259,0.791587198740,0.378022973025,0.957101657711,0.252470942984,-0.911179316190,0.105742333824,-0.079486198448,0.226050906226,0.805527936797,0.862750184309,0.373192449040,0.293429811899,-0.063451735709,0.125139355269,-0.597245166585,-0.427103707162,-0.115694387116
-0.649331103560,-0.447280817406,0.999461445153,0.057155230548,-0.186502075320,0.509577474859,-0.196401327664,-0.649302271235,-0.962089464853,0.275336451219,0.680441035078,-0.109845678857,-0.133351445710,0.237689129850,-0.694349899232,0.693882928079,0.038587928208,-0.554528361823,0.462171398469,-0.954926868031,0.372629252296,0.756795318371,-0.527588735339,0.109061561191,-0.836782197465,-0.048167427862,-0.762762261036,0.973173184635,-0.811890645062,0.397145754653,0.071556560370,0.484134875700,-0.735176359735,0.560878969668,-0.657525258557,0.852139056137,-0.496148707868,0.783239865963,0.968063000833,0.748110955310,0.698706597439,-0.820199764151
-0.824220151478,0.541124010246,0.993149140321,0.973985537228,-0.094206543698,0.727008224659,0.746809130648,0.786342465478,0.084215861513,0.470842043331,0.937153216897,0.039614680641,0.438976675581,0.299072280912,0.766761266840,0.867176713494,0.600836722336,-0.332512359170,-0.215616023898,-0.389717189485,-0.395965179242,0.303503702773,-0.383692020296,0.952498645278,0.060053134674,-0.223034987734,0.128658431341,-0.453302674559,0.721369428755,0.125018642140,-0.538204656120,-0.312934136949,-0.956876254238,0.151359012145,0.787886257004,0.546021233128,-0.596727279717,0.962956277570,0.816320753550,0.647591368320,0.429663307299,0.927685828796
-0.347113129296,-0.689868857554,0.956065626523,0.718990303313,0.174666132129,-0.314254517778,-0.172088374765,0.103201332606,-0.919215704260,-0.254404491373,-0.864590942653,-0.658009550155,-0.854196673820,0.817504536708,0.196458394380,0.521738431633,-0.257101602525,0.078150237793,-0.380081738402,0.053058482043,0.032055221871,0.063105745540,0.941985367889,0.029389998600,0.735124840043,0.272734378874,0.294672038675,0.173262622763,0.633619069939,0.183053581046,0.778586208701,0.630750901898,0.480880693662,0.043554651138,0.566441779263,0.910348544949,-0.638507339362,-0.717805555859,-0.123134892145,-0.340574492996,-0.177555836198,-0.979287949997
-0.271273874292,-0.653601934050,-0.094916063691,-0.314215524164,0.239297442675,-0.194054545305,-0.914694900977,-0.186373705077,0.572135732491,0.566993811695,0.852673200397,-0.668925606192,0.622735783216,0.923632384003,0.909721834031,0.311485549951,0.736568554388,-0.633640077759,0.109297965154,-0.815503396494,0.250001396503,0.111925703924,0.807946308583,-0.867228783060,-0.158193462117,0.422805497625,0.569947553391,-0.927601400665,0.009602800894,0.224783780675,-0.075763200368,-0.086755905646,-0.033924315463,0.569843887358,-0.610862125505,-0.023071041619,0.431860240924,0.665995424077,-0.540771022430,0.771514713273,0.708654157756,-0.528349311424
0.713828696404,-0.443834446426,-0.210924113081,0.227896583871,-0.137349443154,0.312087086863,-0.979738208512,0.739449579603,-0.728046078272,-0.194904666851,-0.693377150883,0.885787846845,0.939948336091,-0.213644194293,0.509951435082,0.307550685228,0.265817621106,-0.613657627150,-0.040301483917,-0.048046460327,0.501120293677,-0.999049639449,-0.859833938026,-0.850854166346,-0.283031210234,-0.333754677577,-0.047656120430,-0.410286816988,-0.917005816743,-0.518367602900,0.720517971599,0.982743178477,0.403516879166,0.732503801514,-0.122055909088,0.294973218394,-0.419118953493,-0.520838200041,-0.727412308532,-0.815733178953,0.254936457394,-0.506104434175
0.391958149106,-0.879482399636,-0.274954653617,-0.310649855861,-0.745069963014,-0.364911456526,-0.823804975975,0.805673570599,-0.932404583466,0.138496300615,0.701026334317,0.497392534975,0.034169326324,-0.821004127910,-0.158816484105,0.677197230609,-0.904780354011,-0.299688764091,0.379626005345,-0.199293583071,0.424072394606,-0.763796225277,0.495926961551,0.857753331220,-0.356692493079,-0.706234118690,0.855729680174,0.224465497451,0.880586760587,-0.683621359828,-0.468717372957,0.135241486581,0.711888198232,-0.157204929153,-0.408173621834,0.347984960226,-0.791215714753,0.805972558900,0.154324455809,0.095289294751,0.757277071787,-0.575809425788
0.249070631098,0.211804992123,-0.185930468825,0.852919241335,-0.201942531375,-0.151188676045,0.418757858606,-0.644653677207,0.890489566180,-0.744166333333,0.135895272820,-0.029861091854,-0.782587174074,-0.641865765571,0.165169827478,0.006187332176,-0.136232844165,-0.651935861436,0.765121014017,0.183508998228,-0.827971233686,-0.430073207683,0.699460452285,0.202874601454,0.732677166536,0.630440207026,0.045205023558,0.462591992281,0.090925732764,-0.419348813339,-0.951327629404,-0.045089460405,0.430107847472,0.286088862166,0.484824173212,0.197467580421,0.434327318757,0.895053424890,0.907070062358,-0.550903037664,-0.961412827312,0.575613650444
-0.646431077297,0.631053498554,-0.685338914552,-0.919477886726,0.480788318342,0.404713561427,0.761256367663,-0.232486088710,0.499286655255,0.866220595960,0.996521173825,-0.766089784218,-0.126059671839,0.182222327605,0.965997064679,-0.436937206346,0.803662643407,0.652324951677,-0.762802567552,-0.747915682110,-0.072503532349,0.087426430142,-0.174219930294,-0.763914719047,0.521201337628,0.725802159687,-0.123426987367,-0.858309726105,0.982835893536,-0.823195220334,-0.470529902219,0.510778295553,0.656257806456,0.695956906134,0.475243979585,-0.674027719895,-0.228358326856,-0.950173857609,-0.806048246425,-0.118884020135,0.188359602040,0.813487864051
0.659083281392,0.962375474677,0.574993605392,0.427181863527,0.561153277919,0.926945461169,-0.932441580449,-0.454684294417,0.892249256588,0.707263498071,0.759674933624,-0.608792263356,-0.081589558762,0.676125997129,0.373387197082,0.237960730010,0.235234791170,0.864558138447,-0.769716063498,0.849496290810,-0.790925910452,0.974747680450,0.796111073575,-0.136949751903,-0.011331242005,0.175835480905,0.250012807746,-0.619564847134,0.309813501830,0.492808326946,-0.384931525590,-0.187247004469,-0.381160314546,-0.099552169184,0.829632981685,0.745223906614,0.432961875407,0.014080852272,-0.212358987406,-0.417600264469,0.477663519876,0.394932259010
0.479282989592,-0.081628118075,0.637420071338,-0.256682079123,0.409897008878,0.231120487254,0.212681427250,0.490522011926,-0.419163739158,-0.701378303428,-0.661037940048,-0.700516195777,-0.301271364625,0.032256983359,0.526653923874,0.744985970549,0.105602882166,-0.591121448410,0.396325362519,-0.881328759048,-0.375514187698,-0.580451584645,-0.162461133281,0.276983095297,0.953167105619,0.504562206533,-0.346297290217,-0.785015022794,-0.089684065630,0.671937985720,0.548426275149,-0.622647435468,-0.644153987203,-0.249042389267,-0.304701817077,-0.150298649014,0.606457157773,0.433262819137,0.110151903429,0.718020481107,0.077582053547,-0.507221557384
0.861520596874,0.442374834593,0.836533667877,0.417276588528,-0.026367653390,0.210669450482,-0.698274401671,0.500787219005,-0.508010118757,-0.606520249879,-0.437946315614,-0.061321956184,-0.011364458207,0.793034858845,0.677020485968,-0.074091502399,0.799478182584,0.998403399464,-0.495285052961,0.398665193217,0.733568658464,0.745914182226,-0.199893029042,-0.625890993639,0.671346488177,0.627914905691,-0.062632915989,0.798581217244,0.072577682794,0.638735463465,-0.426293588714,-0.710476686946,-0.127277473477,0.491659943442,0.323897959223,-0.174547912501,-0.717474017267,0.079269902817,-0.574672223239,0.846051931421,-0.474068710042,-0.867856587948
-0.105138214271,0.863181206884,0.797284793241,-0.579021902001,-0.999112249121,-0.085341786622,0.367583558210,-0.470997748116,0.223545527984,-0.504301224947,0.726874183988,0.757307667012,-0.990613972409,0.083248547781,0.867999145754,-0.669144673437,0.153211895596,-0.740694663803,0.389163106190,-0.224124882532,-0.867134810238,0.246579625162,0.239298022658,0.935534585629,0.578266673974,-0.024213098852,0.769928892009,-0.227504578600,0.498671324923,0.902012261485,-0.681764444516,0.973256501809,-0.325275160061,0.831357697690,0.835049182290,0.493275697097,-0.242182653843,-0.197574900855,-0.517473046959,-0.569241655760,0.081915878013,0.242866612147
0.365722212394,-0.492296458233,-0.369853796974,-0.625251709207,0.073722661986,-0.788374195899,-0.426891389144,0.568945411927,0.074077005992,0.289181485854,0.301026774704,0.623137424224,0.380913249817,0.909692032667,0.091050353975,0.777444418706,0.997915645686,0.740963599099,-0.642893310900,0.204285144675,0.474831786248,-0.141104765993,0.632635746384,-0.769118773557,0.850291626352,0.365679591484,-0.342809532091,0.925789565540,-0.974839743990,0.096735548201,-0.700106513031,0.536356795604,-0.049026072400,-0.707737224490,-0.970271521858,-0.934817236047,0.907461421125,-0.406784768030,-0.039304298208,0.487789182324,0.344942400533,0.282399647006
-0.148100990851,0.939529334802,0.843972357417,-0.241686318791,-0.476052082383,-0.394403553845,-0.347669032577,0.842042424282,-0.010065380932,-0.857062149805,-0.120973079377,-0.244316490533,0.182777685448,-0.483182425938,0.178469762373,-0.737379269163,-0.851349807870,-0.664312222888,-0.419190176099,-0.245401632028,0.066070785061,0.449714631419,-0.515394408372,-0.677843075045,-0.986524859779,-0.135233511736,-0.855948374091,-0.989801971667,0.267941759333,-0.369717435902,-0.655925878823,0.442746493586,0.964609146492,-0.871107118085,-0.880954170912,0.998173014856,-0.071214176792,-0.178796453604,0.826086384396,0.306961843514,0.092531313700,-0.077618766872
-0.636170647919,0.447630068853,0.713251926926,-0.726456945168,-0.537246093933,-0.694388319312,-0.147110418224,0.464435237390,-0.553821358223,-0.923668016471,-0.403694781114,-0.863553037152,0.901125988749,0.184940435076,-0.718000437039,0.875923872391,-0.981406421182,-0.710963278026,0.836942902412,0.560821023641,0.113164471187,-0.999914193228,-0.781473025517,-0.709717058064,0.050984692726,0.741985681800,-0.163389286061,-0.537197093025,-0.423171339323,-0.817177556106,-0.100929589516,0.536540854811,0.120464626084,-0.790627396212,-0.374739503470,0.770545792635,-0.905312177601,0.632189877308,0.294482110101,-0.917644921337,-0.299639656017,-0.544186989971
0.162203477681,0.364208863601,-0.487902319082,0.989043605817,0.024998815553,-0.869912872753,0.754242285677,-0.280663936874,0.635362979637,-0.527640712375,-0.364186575025,0.437992291260,0.969813827225,0.733549435416,0.484104781136,-0.543191770832,-0.587685935648,0.693382450113,-0.399300600956,-0.343383565935,0.218832231778,-0.117939642887,-0.869332693840,0.932356290215,0.979091491319,-0.477838020711,-0.360789045112,-0.753045074271,0.599429392739,-0.934354565727,-0.247298039044,0.150293991850,-0.019923913419,-0.782005719323,-0.372134466025,0.477781445344,-0.504380221621,-0.289473518773,-0.519293514277,-0.606667095540,0.405779794798,-0.973575953533
-0.907673075353,-0.143452800443,-0.658526616911,0.164476172391,-0.804049530230,0.629325886289,0.303481896380,-0.473065753518,-0.084504159410,-0.363087967735,0.016314541543,-0.143105651899,-0.798648871877,0.873125162149,-0.287548535625,0.092163750599,-0.087026597585,0.629113958402,0.346872701299,-0.141670572421,0.173835129765,-0.857880052142,0.507602302710,-0.375431172747,0.286920236700,-0.477217762369,0.948870893319,-0.297109163338,-0.699733944719,0.542188293252,-0.190077608978,-0.394058388419,-0.166412927751,-0.646972539301,-0.710870732053,-0.383703756881,0.922707834388,0.902232294186,0.084277299041,-0.633601190656,-0.181607449129,-0.833648206071
-0.015620447096,0.262987316726,0.331647385159,-0.575000902636,0.339674860682,-0.681950223025,0.071535186858,0.710098143174,-0.212368597158,-0.422680946034,-0.553499533393,-0.376099758532,0.740517446134,-0.301553743738,0.425126357144,-0.331499032751,0.257189061193,-0.430290726014,0.830871287676,-0.388500732275,0.323894514574,-0.693463011485,0.689024236428,0.811236728564,-0.417271041944,-0.285114216222,0.906615630214,-0.968371867523,-0.028440963321,0.090273847571,-0.596515880782,0.899689033602,0.838426868036,0.239396785429,0.233255257246,-0.919941859673,0.940258911910,-0.482253595302,-0.447106581120,0.288779764272,-0.447202703653,0.385217983050
-0.997901843367,-0.835404209967,-0.295366917294,0.279587092172,-0.809835552603,-0.884265943954,0.572576875253,0.682413616750,-0.748376475590,0.438041637248,-0.122314137655,0.511724604764,-0.599736401561,0.880743557233,0.398423790334,-0.977423336427,-0.105356342855,-0.904632235952,-0.100141367207,0.404971858030,-0.283045288297,0.585089675380,0.476581624918,0.709890511391,0.844369204752,0.187889674119,0.267756699408,0.920581402424,0.331705535300,0.328317887476,0.104008533200,0.168960769099,0.054100214123,0.227274163918,-0.932417028423,-0.987148333134,0.302551338859,-0.457376349923,-0.126985992660,0.508968711799,-0.016390893181,0.410738280381
0.446975840661,0.270782254633,-0.870142938448,0.942779513179,0.359694789621,-0.979397657454,0.395818957852,0.915208622946,-0.249629550152,0.146347248160,-0.213609775301,0.904282629466,-0.186407083324,0.418396537412,0.015091801219,0.205070426394,-0.005483656438,0.529524433704,0.937066184155,0.173006573299,-0.378094063157,0.581977901150,-0.726499831095,0.916769967914,0.894521355181,0.042697018888,-0.150022770945,0.371171489826,0.823779605054,0.425426202462,-0.920873847786,0.650876830426,0.788659854842,-0.386231496276,-0.008880362871,-0.869675445990,0.731990891754,-0.742697415736,0.262040283374,-0.104787622604,-0.453841588344,0.350152542824
-0.024352873770,-0.224139657492,-0.691926296488,0.439200586385,-0.071700519934,0.642467876898,0.294190709110,-0.625293512561,0.555278191430,0.496091406009,-0.120035573438,-0.046850063853,-0.619268039923,0.563442151774,0.842781783092,0.547346378284,-0.694793894998,0.436687722313,-0.686283604955,-0.727962534263,-0.634053390024,0.483121456354,0.086925164804,0.444330111064,-0.517887824014,-0.938698849295,-0.065753213282,0.823893508549,0.674365320983,0.275309626790,0.737204474943,-0.183971086932,0.699997946047,0.802269795276,0.843581506224,0.437818343829,0.140661022342,-0.954062268068,-0.158842088060,-0.090628809146,0.891969580062,0.714185883116
-0.404552762968,-0.453618109103,0.215325042346,0.787272461088,0.278404816286,-0.053237089690,-0.340571412842,0.540505972269,-0.303371584516,-0.359344210438,-0.865097015377,-0.236490754915,0.724539321177,0.769399017539,0.256655922703,-0.188644216291,-0.608950390832,0.569853323568,0.823623539660,-0.344317926058,-0.968891127109,-0.015803509527,-0.781721015536,-0.723787003197,0.473190728798,0.579405761255,-0.281929456236,-0.188032799051,-0.852947620841,-0.276785445513,-0.576885071121,-0.119607990673,0.874588767221,-0.435285955283,0.672918201684,0.761180988650,0.761760452412,0.262688003965,-0.497518137245,-0.440996003177,-0.577213087237,-0.607396882823
-0.120134781355,0.024131584638,-0.606595539599,0.253560400743,0.074053456169,-0.594037782679,-0.442430821561,-0.114262221342,0.144832683276,-0.321656224711,-0.548454173229,-0.562174610502,-0.763087185586,0.452690996596,0.898404582407,0.125007199365,0.965773194743,-0.451544900477,-0.688225429000,-0.109734076752,-0.161547615537,-0.476884373160,0.855355339895,0.354772348059,0.670697799661,-0.083373609816,-0.985745656166,0.200825533798,0.626925688201,0.340783935201,0.741339535175,-0.213724894705,0.475274586005,-0.319191490104,-0.008295144707,-0.210742123495,0.375120756775,-0.157407553264,0.234094678083,-0.574144331172,0.391908724985,-0.805866081350
-0.383786147009,0.571753936451,0.246892251319,-0.403189950879,0.644944453405,0.537748168824,-0.181924868369,0.597087116863,0.794717026549,-0.462695775057,-0.270386728668,-0.071245415885,0.840986830628,-0.185615515400,-0.729998166941,0.955125048874,0.224750211561,-0.090104057596,-0.208289194121,0.227646376860,0.818842769442,0.103752955366,0.549337594886,-0.792596516760,0.392991937037,-0.091868272593,-0.932152441543,-0.528472376814,0.891843785949,0.748831615143,0.212040949230,-0.272698951186,0.296895767211,0.108455635266,-0.485784497082,-0.145473986311,-0.846613908508,-0.055250539297,0.392356023277,-0.382889922672,0.869694048706,0.611238313918
-0.462747982566,0.512016288192,-0.223154104459,-0.477992952043,-0.137873513894,0.908296424299,-0.009048306847,-0.970239697463,0.271848982423,0.261488965301,0.138661238893,-0.531515018873,-0.456128567414,-0.887040518949,0.671425194995,-0.702713098378,0.429170080740,-0.756752195834,-0.818006699339,-0.139341233819,-0.466920256617,0.582715182589,0.134215447944,0.194270522041,-0.187961477730,0.191539661605,-0.720337388993,-0.989050797114,0.298257619814,-0.862768274384,-0.818514261137,0.423303938601,-0.951976849447,-0.166005123457,-0.554578631350,0.115764451628,-0.587362594491,0.245257870243,0.688890992266,0.083202123854,-0.920574776314,0.773888090231
-0.249257963565,0.087745925443,0.466557068276,-0.040492448167,-0.299048869757,0.176036828112,0.770352271006,0.937603092649,0.078699126338,0.781765261630,-0.402241030877,-0.192953441107,0.015340654474,0.147574071397,-0.667585592865,0.988418674888,0.836172813209,-0.441429597135,-0.563063619059,0.937765661004,-0.549729121186,0.746495173547,-0.135688139376,-0.713823745895,-0.383670285804,-0.550789469941,-0.399965377510,-0.484505762293,0.894889184278,-0.716426303074,-0.608991552543,-0.073837334852,-0.537785827827,0.638380500219,-0.994025498938,-0.387706143552,0.899705315747,0.898230514544,0.605547776630,0.495272657168,0.853689283196,-0.751773147540
0.265596138339,-0.838174550342,-0.444734244071,0.277155293206,-0.673922791127,-0.637878790276,-0.568312864521,0.484434716388,-0.819041260171,0.768841134484,-0.658274555888,0.903273329707,-0.077400550509,-0.517182284492,0.173135618096,0.674958818427,-0.656458427705,0.020959300937,0.710130099970,-0.226450289021,-0.979877079259,-0.128861038098,0.400662826090,-0.813884889369,0.700574579537,-0.214993320563,0.032847757118,-0.337122782403,0.301795338724,-0.349118573667,0.472528382202,0.926972406562,-0.760899525830,0.355065128606,0.276725121915,0.355303461563,-0.959818839724,-0.727993136573,-0.064640955160,-0.396790188928,0.469761013858,-0.753997003539
-0.200469418202,-0.043542755031,-0.828553709897,-0.339369377635,-0.027438621132,0.624458090875,-0.503209077638,-0.199874720192,0.351507323694,-0.022027532970,-0.329608596531,-0.776891400908,-0.172373210744,0.215514784136,-0.274026281322,-0.646014557816,0.467365218420,-0.875480674977,0.115001661613,0.171724787677,0.564154163374,-0.763985789080,-0.579133234686,-0.689015535003,-0.905079174539,-0.998421892987,-0.085935524062,-0.245414097852,-0.146168042322,-0.768126585091,-0.996643459506,0.452642084928,-0.717226475643,-0.430273084399,-0.846628666664,-0.709160035821,-0.314441414538,0.157769579186,0.547325525372,-0.495983128891,0.124166899521,-0.251465966991
-0.449902413146,0.260083365335,-0.420304380531,-0.350560488186,-0.320413735042,0.078228208081,-0.305046148935,0.905564355072,0.946699348918,-0.304953022578,0.547415552587,-0.848483032147,-0.399072771994,0.851189477608,0.683504907915,0.419897202953,-0.375628751233,0.162950227047,0.768686526438,-0.578779807519,0.139212985442,-0.628704179764,-0.579382603969,-0.328536031379,0.877438824027,0.527506723588,-0.688407496330,0.022176481018,-0.680641421576,0.567006440371,0.269507054354,-0.483797002045,-0.755157008215,-0.281800344934,-0.113965109774,-0.319130639228,0.741080503838,-0.061306081642,0.226448789090,-0.016726027534,0.738144604040,-0.769318058299
-0.298978173878,0.693353257309,-0.596304433308,-0.025476299258,0.410459631061,-0.655286035229,-0.549203771767,-0.636253973387,0.893021151040,0.000897676331,-0.326976947975,-0.603010870104,0.998467792696,0.474759917057,-0.472579464030,0.458618307370,0.959144321651,0.626226494580,0.963499324074,-0.797646306239,0.267991329854,-0.836913207827,0.815144259055,0.935466300490,-0.513171698005,-0.228125842970,0.080417411274,-0.251872253564,0.101904082808,0.360787870840,-0.272816053902,-0.945271190392,-0.096416977445,-0.882058525723,0.507136502727,-0.388761783062,-0.716643393874,-0.353012718408,-0.546501182188,-0.124708599275,0.043348713917,0.551181548098
-0.026911140115,0.757183968866,-0.979619980175,-0.969652461296,0.467343784638,-0.148824421263,-0.886153802585,0.147419214421,-0.055026282232,0.702637244750,0.178220893760,0.190513843257,-0.727028924370,-0.767431733615,0.982951873811,-0.205202106471,-0.555644187609,-0.029756806182,-0.574128849760,0.213395999632,0.423126660431,-0.604331886123,0.035373639871,-0.273798367395,0.179207698949,-0.408921248664,-0.486426094838,0.515206936273,-0.025065815203,-0.549808698169,-0.979273043865,-0.879260616544,-0.515895965076,0.941391608937,-0.759624569388,-0.188017594684,0.881108680438,0.108317261851,0.504855876560,0.800400712165,0.616162120185,0.891831495645
0.603155428457,-0.103460758076,-0.110826189449,-0.143709126261,0.441825813719,0.967631601090,-0.619175182020,0.643548782367,0.795676671604,0.328403643266,-0.207846754915,0.911829688896,0.981035263113,-0.159898019564,0.853025854488,0.333295930478,0.390623546865,0.613951554048,0.414883145161,0.795971734775,-0.648149919188,0.416904087614,0.423029683689,-0.303338146553,0.238362447026,0.346707123719,-0.651134819889,-0.095185909002,0.850055329465,0.871981011361,0.609154786787,-0.512714466054,0.967888003887,-0.107683929866,-0.228372456355,-0.481073760889,-0.573385655289,0.320970487548,-0.033282078890,-0.623281987313,-0.847498448886,-0.565841274421
-0.874267217453,0.523866922051,0.295661402914,0.066613390527,-0.538713867191,0.808998804795,0.209950588008,0.574441019839,0.564149343375,-0.775040933301,0.991022242641,-0.871173897267,-0.930650056108,-0.570187105275,-0.723952420991,-0.310191038586,-0.190528875537,-0.183487757011,-0.977798596087,0.272800728842,0.459622147099,-0.463373645760,-0.437102155181,0.089224833504,0.502462642527,0.503779624203,-0.795498840968,-0.127300234256,-0.886320566289,-0.927188421879,-0.726410885065,-0.435188986197,0.752041744365,0.653450137931,0.596175934184,-0.743681680021,-0.255379032341,-0.981442804749,-0.495154609476,0.849756275498,0.248968723836,-0.998411784906
-0.976931004842,0.921675062625,-0.246651415366,0.399710215805,-0.326629303311,0.427337465063,0.178593501726,-0.298887592953,-0.002848651026,0.329282171234,0.942818678119,-0.943784060297,0.387771770465,0.253160072634,-0.237210232535,-0.513033666858,0.295757938080,-0.088019434295,0.002130503216,-0.168586464509,-0.268184127527,0.970300494176,0.327993019144,-0.599145691424,0.750440695757,-0.972087688998,0.887829148754,0.328524867578,-0.500442933516,-0.688125687333,-0.443256752177,0.422345626592,0.255821540481,0.808896063108,-0.787563251737,0.873160645964,-0.630487868296,0.716007411287,-0.176803593730,-0.917143677227,0.711421981422,0.500899456536
-0.763510018941,0.472846656491,-0.881448539334,-0.704745869566,-0.264458217555,0.073855244556,0.702065618785,-0.473246947263,0.904120698869,0.939939227343,0.741746353682,-0.766595199666,-0.466193334892,0.957784109628,0.684679191052,-0.938501284100,0.895606624178,0.215118522792,0.134837636165,-0.452246861847,0.665867650344,0.415896675988,-0.337081660400,-0.810840871984,0.945410507565,0.131763708243,0.010659011405,0.389463956717,0.040884760749,0.567784147410,-0.242986594979,-0.794556493799,-0.793871140415,-0.544527531960,0.457329347465,0.060302480490,-0.487924352798,0.099043014321,0.165664866258,0.983865142497,0.766444558192,0.790849723525
-0.430427200730,-0.617655733255,0.066030376695,-0.277720067134,0.977116604764,0.272294970663,-0.652611091674,0.230605884191,-0.057764330625,0.446570335824,-0.052344486788,0.779815884604,-0.625246221823,0.499718900462,0.345094718541,-0.486876372791,-0.101904805323,0.008025887931,0.300155725789,-0.365874538042,0.587067352456,-0.598253521058,0.722059244326,0.628230456335,-0.742098036452,0.858199016607,0.405956515230,-0.593863088238,-0.066369914792,-0.829149305942,-0.152950927056,0.775933124098,0.464675904872,0.272590696114,-0.493952832556,-0.109135333173,-0.863157851549,-0.345441304864,0.553372362376,-0.569457072479,-0.540563174776,-0.273392922933
0.700389182242,-0.001776742202,-0.809260703573,0.293630814890,-0.707199913412,0.550099071952,-0.064748252287,0.891265358564,0.113372394292,-0.142800765409,0.995789208903,0.928577707194,-0.584948925869,0.397220092381,-0.213707153574,-0.948870527879,-0.038822819927,-0.892427005595,0.955727980855,-0.694662372684,0.102644855521,0.144167332472,-0.499528950997,0.989748237117,-0.202033737083,0.147904126584,-0.064636335936,0.526481563859,-0.317337458624,-0.674797530357,-0.313459621603,0.976605768573,-0.804312516404,0.339655579086,-0.868294396248,-0.287487711734,-0.036163447492,0.292336131257,0.123579500542,-0.786321331537,0.109924245685,0.093999928207
-0.501093638432,-0.098641837065,0.585333216725,0.184778652366,0.894475354009,-0.611178553180,0.136355467450,0.017956386322,-0.858576024381,-0.418627691610,0.417340024402,-0.355320646857,-0.142177335256,-0.021363109403,-0.872366182900,-0.459367080538,-0.513028490285,0.437780472293,0.875689626024,-0.490240624274,0.993374252541,-0.363589677725,0.631401007958,-0.957860053589,-0.549122505017,-0.968984940602,-0.196530447312,0.098902582945,0.636854311307,-0.730366047217,0.061255107222,-0.508693131418,-0.444888470377,0.884941241611,0.234400032022,-0.908022517354,0.650831572446,-0.351146810830,0.676545004549,-0.130608508583,-0.923440271318,-0.536217693434
-0.646981524363,-0.528653348340,0.032419614451,0.931400204257,0.136622682766,-0.346047655459,0.207853882993,0.682441347027,-0.984814477097,0.272043442385,0.443752378700,-0.127318343500,0.263041042954,0.724244834689,-0.871319702410,0.337778986812,0.346691188674,-0.380049158952,-0.515078048720,-0.241100100135,0.273108000853,0.879960532230,-0.250671802552,0.798491118193,0.819166385858,0.261753894340,0.818599516477,-0.946644041271,0.306722054657,-0.592699666486,-0.789059016305,0.712937614077,0.938982738867,0.404767065589,0.139226144563,0.753284859316,0.687686088848,-0.070280233482,-0.008044847932,-0.626951280259,0.508402772088,-0.279864960424
0.159976128539,0.418773400837,0.902772824765,0.919072921079,0.672769485601,-0.965608918242,-0.862959423999,0.682609975748,0.470160585871,-0.136591242756,0.254505046324,-0.363643686420,0.847348955209,-0.573004543623,-0.077107280591,-0.981506987987,0.946564940298,-0.949791498560,0.265271618725,0.553855538156,-0.421161949228,-0.366983743149,0.206054124105,0.742002961327,-0.829579252443,-0.078385996387,0.173980516613,0.164845068976,-0.328303945236,0.900504490356,-0.774424678581,-0.368041537111,-0.438813790285,0.808046388738,0.731029871960,0.277072357539,-0.118335911942,-0.256315940821,0.089601323077,-0.747514321936,-0.319195253775,0.035241244499
-0.025852811543,-0.189909103588,-0.917978584930,0.921506759676,-0.591787494886,-0.551126977300,-0.136616520281,0.523694781934,0.339452361767,-0.707023183456,0.751928262848,-0.974050571888,-0.165078653242,-0.068896667454,-0.930628882358,0.139813476523,0.175811845833,0.659762345171,0.889013144271,-0.173327797215,0.098514999948,0.006365401880,0.245896689873,-0.124310785893,0.875286624944,0.156051075260,-0.800742858683,-0.184236326996,-0.722889150440,-0.510291567116,-0.429406331561,0.451414213513,0.490551235240,0.892001766683,0.117981694058,-0.682435673726,-0.475580374974,0.447574931833,0.971882312119,-0.424279880729,0.840138145233,-0.095182622026
0.802302820940,0.552461517760,-0.941083692985,0.782972716594,-0.617099709837,0.829667329508,0.301915032642,-0.413383941987,-0.656458212745,-0.505790798550,0.420159249932,-0.682925612796,0.058535329575,0.324256663752,0.837498463175,-0.145905379144,-0.189673619599,-0.450334360140,0.820937253640,-0.691705971840,-0.665645951517,-0.817881799428,0.032437959724,0.970451594852,-0.438259653134,-0.816544911153,-0.571745211074,0.374356747891,0.272522346031,0.161315687850,0.264071681092,-0.978552289096,0.246885921972,-0.644581893239,-0.913048043446,0.054378094571,0.624615704466,-0.089287736548,0.233814506492,-0.580198548891,0.098444569320,-0.900195737854
0.990619948642,0.480362623497,0.135543228797,0.551921504177,-0.099842443328,-0.316437866432,-0.462900116424,-0.961413076128,-0.927691864737,0.466505354488,-0.551777537065,-0.087419717656,-0.684893807719,-0.497693198816,-0.009013218098,0.277858677439,0.142072482581,-0.879886014581,0.783802957312,-0.579861390803,-0.096056754352,0.641628849399,-0.476535707499,-0.260525354097,-0.560543162836,0.811863768111,-0.850707175642,0.787127525332,-0.103552594250,0.225917267752,0.913672172066,0.299759894723,0.848675605120,-0.053971269062,0.654199878110,-0.669784180698,0.333585688755,-0.605681156396,0.684238558603,0.262232822728,0.354343559469,0.255262920468
0.287148394498,-0.990116351085,0.317582308924,0.110176932262,-0.856164516370,-0.134504614628,-0.933972260664,-0.573764106746,0.911630150387,-0.409952464584,-0.152908303074,0.356884402606,-0.815850585246,0.930523862073,0.929838891432,0.463574860332,0.667081938842,-0.095527313425,-0.953834059758,0.312248777114,-0.176647785558,-0.888159299480,0.883612602995,0.466169970450,0.668655905071,-0.851995463917,0.248364505421,0.814287053340,-0.650711061785,-0.019752192296,-0.572595020928,0.222968222025,0.566505297007,0.514224010388,-0.938295502297,0.865745545490,-0.188208151154,-0.910567008251,-0.200197765398,-0.372822122896,0.417444595171,0.427414419734
-0.123388918087,0.514797317635,-0.792845951995,0.357262232265,-0.463360444933,-0.015762810791,-0.207861173547,-0.746032099273,0.575575088926,-0.202092342368,-0.277784656546,-0.362927950234,0.290330432215,-0.971844904869,0.858662734706,0.279667426855,0.406649535363,0.362015010800,-0.911245183038,-0.590333504983,0.102480377381,-0.111728304348,0.607759796959,0.245710868311,0.028888173568,0.615746527726,0.079307012448,0.895400558066,0.789793731007,-0.676406249001,0.778538927012,-0.349081585101,-0.378171081128,0.676551827329,0.451715725389,0.686873527991,-0.569516617009,-0.552134465772,-0.304070774175,0.829119578642,0.168850795344,-0.942422397205
-0.924529940326,-0.975031963732,0.053539566411,-0.590116534326,-0.590707653288,0.804677895168,0.420166711030,-0.623917231837,-0.910819928164,-0.903124546239,-0.273603758551,-0.512889330530,-0.458558610933,-0.798401924311,-0.052178725930,-0.130057542409,0.662485148527,-0.612815343732,-0.837270539619,-0.048339348119,-0.340825165337,-0.995468849028,-0.918837866441,0.355864244748,0.444943116388,0.223744609964,-0.409885087421,0.802530648896,0.458775172322,0.796519556901,-0.863145976964,0.593242453446,0.391198995437,-0.525575415621,-0.475179434315,0.082005165746,0.389561440593,-0.220181441020,-0.569935966218,0.899074783341,-0.528515012727,-0.039559920565
0.089036754734,-0.525840799803,-0.758058673817,-0.605245981854,-0.403583346902,0.005240421167,-0.254392340134,0.048142587420,0.608849342438,0.377506957396,-0.105564732615,0.937469420272,-0.538215190187,-0.780576944750,0.818629715718,-0.337810282841,0.132659532237,0.574400262529,-0.749907615844,0.928584606310,-0.428948794985,-0.245421322875,0.854837269803,0.696878758709,-0.774012369716,0.490398485108,0.412384378450,0.264242284903,0.828950806835,-0.432770924387,-0.846490352646,0.573295546370,0.997170990372,-0.266378443912,0.463596571536,0.960754274768,0.712906188846,-0.360996408785,0.817211170730,-0.156773815847,0.362438076123,0.933977758088
0.446624985961,-0.004689859542,0.087392667818,0.246541879199,0.530677683488,-0.917063126507,0.871892259321,-0.899019073886,-0.632983851179,0.387966289860,-0.027560925041,-0.085464398750,0.595613164621,-0.634797766514,0.698552947093,-0.078929443445,0.792515800199,-0.588061149499,0.343467157105,0.532974080353,0.701193878305,-0.731891865617,-0.317807263010,0.897535147802,-0.166938441764,0.942983171419,0.810733805850,0.850362050610,-0.527072205157,-0.339794580771,-0.841526213835,-0.853240404628,-0.283627886523,-0.549855670475,-0.504054300170,0.915827513314,0.366422543264,0.864242243089,-0.523294647000,-0.541245586142,-0.577705915185,-0.825551109270
-0.346586582991,-0.317239931435,0.528884305136,0.971564157609,-0.179559878243,-0.396562142284,0.992026134506,0.234869811657,0.607877578990,0.294968486284,-0.415276192954,-0.116051921461,0.280596707710,0.741420992635,0.548199742255,-0.245225792998,0.837112365125,0.668633844057,0.791400202420,-0.644542052529,-0.682155294103,0.291506648241,-0.100507913416,0.241782247515,-0.247438622090,-0.063269340243,0.398480286836,-0.683300899412,0.277389960255,0.154749291878,-0.155776036918,-0.708401974662,0.423306643592,-0.510933211508,-0.389013139062,0.862875255337,-0.189326494231,0.012459255623,0.591990580500,-0.479002741252,-0.455312273726,0.600666024208
0.253868796392,0.772869339486,-0.314610611767,0.029707877614,0.199932132745,0.456251771996,-0.806781109524,0.369502362419,0.124230772458,0.671815767427,0.723259455784,0.090575135672,0.828882520483,-0.153947923256,-0.362682762327,-0.258123741107,-0.921547316462,0.659467231075,-0.838565555671,0.409735331753,0.343252579891,0.275989313879,-0.655292022966,0.946421990316,0.304039447381,-0.585278335691,0.038705649595,0.314545431577,-0.678842912143,0.392622937787,0.593078508005,0.108812132379,-0.995389748571,0.967162952137,0.329139610881,0.022790146248,0.597929229282,0.950933041296,-0.312048982871,-0.752939645535,0.654216140030,0.810945180743
-0.826983583538,0.034201820839,0.821075413869,0.882150160606,-0.957028858263,0.405864534167,-0.681087299539,0.578489788095,-0.531761240983,0.889510336497,-0.975449159783,0.402377743987,-0.589395960343,-0.997650894196,0.539324259641,-0.440527959950,0.495178211521,-0.880349624524,-0.269845275276,-0.026577981857,-0.006307653461,-0.096977257188,-0.439847918976,-0.007608680121,0.855724850754,-0.850450969861,0.168108502559,-0.013897259307,0.994193969848,-0.540383242463,-0.898024082278,-0.305854165150,-0.249236319622,-0.583105880086,-0.375266879149,-0.652205341946,0.631570487057,-0.388564955419,0.026531702771,-0.325016960464,0.173592835540,-0.919708205561
0.940272033119,0.447606548839,0.113254770260,0.983549013446,-0.623679460101,-0.996202250678,0.424301562868,-0.336825353233,-0.281619137589,0.156214875687,-0.351105325910,0.700988003609,0.066000435011,-0.861952635363,-0.285063297751,0.474318712820,0.922122211021,-0.782271453194,-0.990211070798,0.570548337990,-0.940316095509,0.680772970137,0.491322994778,0.014689121853,0.740608780647,0.068376849676,0.591782971999,0.170618831509,-0.541010366393,0.722086587210,-0.940662793558,0.385691825763,-0.108031133944,-0.568544434578,-0.063506819044,0.591137164430,0.017066861191,0.523629998716,-0.533990068390,-0.515962293312,-0.411808852525,0.508502877707
0.860432383604,0.544047658787,-0.098950057290,0.470096416403,-0.089360922955,-0.998233053560,-0.617776295742,-0.907800843267,-0.220733290615,-0.563861892121,0.771444662882,0.746662904368,0.388931752099,-0.079287875416,-0.905984496464,-0.605656779988,-0.420155605848,-0.574860488089,0.225943945414,0.237243328190,-0.783745179214,0.175292042461,-0.982491068891,0.938229875974,0.589777415479,-0.203092611078,0.792527485069,0.879301441465,0.049029940994,0.086586439924,0.652815465882,-0.583074769066,-0.541008718897,-0.680194649558,0.544428899810,0.480738091607,-0.091779800865,0.942541780048,0.412351752551,-0.147209205795,0.406282269557,-0.335168853227
0.107231109127,-0.800258629550,-0.633647930186,-0.857983021703,0.504615628199,0.437153717190,-0.446926377884,-0.065370966321,-0.455457075322,-0.929237919424,-0.096778126796,0.876962655378,0.453171630402,0.745950828440,0.989697712858,0.551176421531,-0.183915057794,-0.341146383522,0.798508101894,-0.908519209182,0.260059718104,0.379902075422,-0.220200714911,-0.956884695387,-0.983324585088,-0.544244975609,-0.476688208166,0.606364531742,0.704305605947,0.508156480179,-0.186698318811,0.399389564224,-0.738184331912,-0.742398341783,-0.459434890543,0.364879511617,0.031891750073,0.272578434543,-0.021934744662,-0.185980053847,0.451790717158,-0.019415621476
0.551156869731,0.260345036485,0.778378342343,0.194675770145,0.372994749641,0.442192639104,-0.436584614670,-0.770267696110,-0.209790239190,0.164929455962,-0.658444832399,-0.343957165497,-0.144185006591,-0.085443383723,0.577416765976,-0.284914075472,-0.667797803953,0.942690366732,-0.976583754515,-0.142281298276,0.422930491792,0.869642629772,0.722506568351,-0.076847933376,-0.959443028646,-0.019148294028,-0.940307704642,0.274676760441,-0.093009192566,-0.825540463782,-0.245539490922,-0.593008512485,0.103873964956,-0.154859495034,0.820163055226,0.332319631840,-0.918227483493,0.123124286101,0.899693551682,-0.371096386826,-0.084906490203,-0.596802366534
0.395110304753,-0.033394051205,-0.560899388887,0.271104934375,0.856389057465,0.127412348636,0.961581691848,-0.668927744672,0.195446023683,-0.876537438704,0.084849047878,-0.206898090357,0.928283574043,0.508719554876,0.265689935352,-0.788983343726,0.885626097872,-0.368249390382,0.188003080593,0.795932936948,0.879559215590,-0.371311745095,-0.235340712378,-0.676223801598,-0.001450335905,0.581924916490,0.365965047350,0.046283271478,0.913015464916,0.044321706252,-0.882332392058,0.415539652499,-0.516415031625,0.829811548275,-0.032875803017,-0.695691626440,0.826139665905,0.745616108955,0.576083208573,0.036386202564,-0.221358518061,0.215574820323
-0.157283729450,0.803682323044,-0.336155668060,0.034655412967,-0.264617607958,-0.530226939276,0.729886977904,-0.840359087159,0.827912042136,-0.184417807359,0.685537216733,-0.488274099223,-0.392027719780,0.098903664504,-0.392627425531,-0.805631880153,-0.565409572623,-0.878341875462,0.017284580855,-0.801383357137,-0.975497809205,0.448659768556,-0.334326311353,0.462365896933,0.497051581117,0.603488927711,-0.564140732324,0.214364348819,0.775857267644,-0.688186240619,-0.382673611722,-0.514422540241,0.624244289854,-0.341544742533,0.521827341028,0.658191435720,-0.088671746456,0.523859335725,0.788507710830,0.009084928850,-0.957702276999,0.228825184809
0.621554565628,0.434623771009,0.395732858999,0.927904596597,-0.358081146503,-0.195151390894,-0.388289398376,0.444499261521,-0.398817216129,0.717788047931,-0.532211477307,0.182442865170,0.055221794330,0.253328208948,-0.028608663518,0.341049791185,-0.355850936508,-0.525396591192,0.131562366580,-0.140349107178,-0.972485838185,0.744394257256,-0.135380701244,-0.043620176122,0.041389287485,-0.376334093515,-0.384200627902,-0.481530284155,0.889620719258,-0.598876745108,0.038209878287,0.018397174688,-0.810024236865,0.112533464097,-0.975643060448,0.928968007107,-0.269815891610,-0.216657507930,0.285457862455,-0.679376336358,-0.889200023105,-0.545407950248
NewLayer
-0.875925071033
-0.970674839081
-0.284509047641
-0.663619372243
-0.417772593352
-0.405654051148
0.329948214924
-0.574064761120
-0.525408144417
0.124670623641
0.679121092114
-0.121941018754
0.334597742848
-0.001603112539
-0.342040663946
0.148163431653
0.182039416554
-0.093517177966
0.294157818782
-0.348697798690
-0.894211692479
-0.407277444415
-0.117922289841
-0.108793134925
0.485017305224
-0.888454651838
0.013484484547
-0.830079654748
0.550680415736
-0.864134300139
-0.832608602901
-0.091553899246
0.869847519018
-0.020339677103
0.021647063163
0.795148465863
0.758847043841
-0.991889052553
-0.462909046148
-0.401137533317
0.103941605542
-0.174735068694
End