NewLayer
-0.4798759279268887,0.3998621688997548,0.7442297537448646,0.3057506664003431,0.06221193257370228,-0.019747875698248762,-0.1216106985348191,0.8273867043655669,-0.1119673132644079,-0.07362726507370332,-0.6190158552533738,0.17740380147906376,0.5283996138841915,0.08855475958627279,-0.35523331247955303,-0.1336262186661279,0.0542160040248687,0.08969025075777748,-0.28402131436247857,-0.28879283523997046,-0.5846076066761798,0.5976376877696048,-0.6586634408008079,-0.7095890674221914,0.1269665961663864,0.700422544314595,-0.7391072787335511,0.616832851781477,0.3221622749154385,0.4163304578635727,0.21155950207186613,0.3168848428845823,0.7990080463543094,0.7349564147633116,-0.15064333513955086,-0.8082158592391031,0.2530787206458447,0.06576088604734665,-0.7847700356362926,-0.016770876706309723,-0.7589974764525862,-0.4380364301155135,0.9969842382909544,0.22605682324085397,0.22376595606017102,0.1369090575884644,0.897024417036282,-0.21636579313982462,-0.984370677050407,0.5762220291375884,-0.6400322193843233,-0.6094179911439894,0.8383978757408117,-0.5158726528463895,0.8673984207704319,-0.872294727186024,-0.8289920293290269,0.5853375182147964,0.18427741579814327,0.9838961621110425,-0.536413213785937,-0.6119149601321807,-0.6692785061435287,0.8607304525053558,-0.7248842417552397,0.2878121948151977,-0.6504789647397315,0.3648425365914827,-0.7267669196536763
-0.784414639148745,-0.9467696141285562,0.5352947590341224,-0.33993956004767445,0.32116310247121715,-0.9498113428816148,-0.4207583645717745,-0.766725552354883,0.7169260632653092,-0.10837504745723536,0.6750009309535139,0.7865985434189822,0.7922124013299501,-0.0823231027177318,0.588093025855658,-0.7601807960181297,-0.3114109867284671,-0.6792740721539656,-0.3557777319687425,-0.010120520426267099,0.16846039989780204,-0.09741356833402492,-0.6402045930275584,0.30403534176990354,0.5960288164433367,-0.12955849287214782,-0.013842464856197667,-0.6686170529799285,0.05341346380457668,-0.7955876891684186,-0.45503592166076734,-0.4757740906382575,0.04674507357779634,-0.8240960724773181,0.1248364083253295,-0.07782070039553757,0.828866768557535,-0.4841570051767692,0.4093307425367996,-0.933038353751636,-0.7211426752666783,-0.3548155454989166,0.7116795626634902,0.0016827118636448812,-0.618717257029715,0.786194305434043,0.04023179867884363,-0.4786691880071219,-0.24276581618054172,0.7940100777626062,0.9929988530228975,-0.9806758301637319,0.08478276217771996,0.32651246413439394,-0.027528311468492106,-0.5560975844104796,0.1307691969411755,0.05256347472232625,-0.11613578984256812,0.931421921435925,-0.2907413680465092,0.7033176570107422,0.9139439638190461,-0.5834561404201526,0.28084829452569404,0.7365302271608596,-0.39524691868946604,-0.32913628167348463,0.9418470181873144
0.37156407398206426,0.9814514938770285,-0.6493938600667188,0.4440885770435208,-0.11751602814382367,-0.8742272626794236,-0.8821756586187435,-0.6336489318607839,0.7157017632087981,0.06607187512016055,-0.36216795527823487,0.15627469489177104,-0.10856409163667702,-0.43088001829891565,-0.2656037614330522,-0.030123903585575373,-0.33916521746347206,-0.13493809014220082,-0.1314086304812736,0.8252347676030507,-0.0666540660526298,0.20288786243052725,-0.8977718976605582,-0.35226642809709063,-0.28460040461023595,0.14051256605365214,-0.023106596001412516,-0.14812350467743118,-0.15561932117337807,0.26047582252483603,-0.9862814041056707,0.563214832905051,0.8525745413389656,0.4030457044477611,0.8303619711665837,0.11146177978730543,0.7956347854092589,-0.3125301441914363,0.08748618751440018,-0.42301114080719704,-0.6835727802212725,-0.02300140880368562,-0.8175617092641891,0.08333886616386454,-0.14934674161102368,0.08293982739265848,-0.08871092936831171,0.020008996126751555,0.21407831502355013,-0.12878180195691202,0.10408198162083959,-0.414617378511587,-0.11247884972432987,0.9583899111940934,-0.8545991633740768,-0.7022100053130775,-0.05975761124812928,-0.6658961630664604,-0.830203690612487,-0.7933476424464021,-0.9744818570882117,0.962108533414884,-0.24376819418904416,-0.032017838213600935,-0.5669107164995693,-0.10747669201870358,0.6959650293781434,0.23360911124367578,0.21923772020989074
0.5672430662207704,-0.9980900269325137,0.6156718750060874,0.7111695090611645,-0.977275772392455,0.24706964320986313,-0.8008635726898288,-0.7196667983903491,-0.6994240959395881,0.17347196110786722,-0.8920552809909823,-0.8089852172353662,0.6353980699234094,0.17875063658934764,-0.5907296612324491,0.8079146484052908,-0.25535140011688084,0.7737651635123615,0.6088787973648238,0.8136213396449812,-0.46203860270295416,0.8431888974941373,-0.4339834459198242,0.9361982711642933,-0.7063539708326072,0.9789668678610051,0.8789211936940038,-0.1721908401716199,-0.18984233685652896,0.9348845071878382,-0.1148007552160002,0.1310678087747743,0.48933266466655034,0.6371370510716441,0.03171767818215865,-0.6769373596790544,-0.7505964659466837,-0.9038449499468029,-0.18713173564440932,-0.3391372875290728,-0.5449940436812244,0.41811567647961545,0.7755265404186422,0.21909251949014075,0.7970302536685681,-0.13696153069600148,0.04093600101874939,-0.3889034157170135,-0.034409503516592777,-0.3163764665929092,-0.17775477931598216,0.0017503537684313564,-0.11330916998253215,0.6612075812547591,-0.4466260531412958,-0.5437596287987778,0.16381896816723596,0.01579636313567101,-0.793721641514217,-0.5957942344041596,0.4870801151892914,0.6589552878308831,0.5091873015961306,-0.988052172385419,-0.007557675182308987,-0.41358789549720143,0.4497712834306502,0.4120919614586964,0.15826786258878522
0.1863511276360117,0.4366273282838822,0.5867937760599347,-0.6574033913671735,0.26443832988601024,0.7597654655018371,-0.8169221085618614,-0.2656297191258563,0.3001560240420895,-0.37311037460177543,-0.2590090921491599,0.952693013177236,0.7987038719005606,-0.35588195689741764,-0.5622505372499065,-0.8606104146159235,0.11540022276119344,-0.5356671622809439,0.8980618543312464,0.8449874227784904,-0.7663665186644091,0.7072299835309108,-0.3239892387295882,0.8270067926571241,0.7156872371535397,-0.9726082777746952,0.44022661985668465,0.6220286184298667,-0.6910819958529573,0.5908005571532962,0.2837934676984126,-0.06697433351148874,0.009187317910468673,-0.8521124295286218,0.6358799902805861,-0.15933385793928778,0.23909520940403217,-0.6777345244150716,-0.4916750827562737,0.809375638155436,-0.49609976687586066,-0.35594069629763614,-0.9867003075153358,0.23868837838186896,-0.5189213740608924,0.6676906145715475,-0.6945996442949136,0.4769763244134133,-0.42234263270484007,-0.7435818954144888,0.3942350799601846,0.5688384595557092,0.9693107983834912,0.1599564926673751,-0.45671407759013327,0.9141035666532416,-0.4284505153096787,-0.7647301975057459,0.7281647649919918,-0.26023131679948586,-0.41485473374951676,-0.2353392304387365,0.5635594167301359,0.7597517282330011,0.713777529259044,0.49758364468110106,-0.9675500922480695,-0.4446568246123024,-0.9442456981531364
-0.8369662665654056,0.21539322443800768,-0.9211496934035452,0.17989829784831324,-0.3249641333371578,0.6557750686085408,-0.474741764097353,0.8675069498526697,-0.0022726592553510283,0.08684598530146959,0.9539421014300165,0.6200149294276107,0.648158063045891,0.3205921670697356,0.08806176084747563,0.6695904183725985,0.11249749220377803,-0.6847286331427866,0.7045255037048226,0.04833683295289659,0.09819593822755746,-0.6227169222757589,0.8537033661746534,-0.7236255502988425,-0.0832230661192308,0.3078978905852179,0.05218801644318338,0.80330693528554,-0.7760443964359269,0.07648737549432805,0.023325039096867783,0.03161487066079394,0.6122225123673388,0.9670461732800644,-0.0664153983303124,-0.23421802533443237,-0.2892064898637223,0.5693660708621671,-0.42409176756034306,0.3635039302445877,-0.1684855513432575,0.5210560794236927,0.005604768506966895,-0.3679808750234095,0.9213925216181775,0.5526968438020519,0.32228533725101327,0.5849821165110523,-0.8739196101064528,0.9279772968834297,-0.7021585273146254,0.9156176830475178,-0.9034085240824732,0.9715476318383705,-0.12200912262113595,0.4345791095062219,0.289470469817916,-0.11723568383082483,0.829295074739866,-0.7334046919521366,0.40754523564066103,-0.6208109474152965,-0.2735393715428207,0.8604809641431397,0.5868128335531158,-0.32397163511488536,-0.5501577637801858,-0.22008520491312566,-0.7340697090707502
0.785540660903747,0.39488685098648313,-0.6839979962724838,0.9458642051340942,0.45078538633650633,0.3443213022148488,-0.1981899902099198,-0.4956768856282354,0.8328235654903049,-0.09424105121490722,-0.7594852056309556,-0.12383203997485115,-0.7018407880483317,-0.5846485060494053,0.9573998550833576,0.21096276903176836,0.7655279059475266,0.7099513832868882,-0.02206328444256811,-0.9041637320235525,0.7641869860571839,0.8757996400711425,0.9941056303870228,0.3093940935406785,0.21317376534230847,0.9773945365241714,-0.7742256978779531,-0.7694893046612776,-0.5244393475453699,0.12650759399847122,0.1604709851457664,-0.9840108623434141,0.589941034918771,-0.9196945277350057,-0.3601987156000439,0.5888979899377116,-0.2351101144415042,-0.5987592791279526,-0.8560450657967742,0.1683194452619483,-0.8752741232807697,0.6621777886692333,-0.6390575505183502,-0.473134764209717,-0.43758019182620966,-0.9167086817826386,0.45620704229567166,-0.41730195585877117,0.5782171553266695,0.8577409384594241,0.2801124481941899,-0.8971675981043319,0.911464195760701,0.6366237972598994,-0.7391055521031262,0.28106630421676404,0.1774792610326239,0.21376952548944872,0.7732648975876901,-0.5555557504567024,-0.47127073779333495,-0.25719259773465963,0.8925086026613163,0.35730829550582777,0.14345025134604006,0.49612723418690474,0.5189174275016195,-0.6285412913931856,0.7142147676444108
0.41273514433985725,0.8506415946713348,-0.11919791993595297,-0.07929993761836251,0.8416940983176122,0.530749637412226,-0.7695899099162962,-0.09047862076791335,0.43683808649440103,-0.8892347722472562,-0.8296274019463126,0.309038719427452,0.28267087501240096,-0.47766086225742477,-0.5400086098594465,0.8672851677825377,0.9454039958572649,0.9105295741330819,0.16219388597199846,-0.6161994300066913,0.14969850807297647,-0.8367001506589042,-0.708793229361953,-0.6631235390778782,0.4207189323947844,-0.6050552931348738,0.03537961873178319,-0.3725960683526808,-0.5277845165291293,0.6505834602814298,0.05669941920189525,0.2448442579873944,0.5274453643973118,-0.9520939530063468,0.8164333321015012,-0.28823150618532356,-0.2802402719245982,-0.7288417067495878,0.6750056012228727,0.9956422251905674,0.9019042771407413,-0.5187744547167035,-0.646007151110698,0.3584889199857435,-0.5332691699186438,0.8135766943658105,-0.9887832331150364,0.6398889407626174,-0.6046446775157908,-0.2362527748188552,0.8748649854272472,-0.4258777064829049,-0.8557613777246411,0.5468199008387786,-0.1498759444249862,-0.07242469243868443,-0.4624003367049281,0.4946974154849155,0.4866593741335701,0.26882794857901837,-0.32855513210355314,0.5908864940172327,-0.6750258052013924,-0.580190432653382,-0.4213784478010987,-0.7523915575034816,0.48855650336112455,0.02895927230174422,0.525184945843721
0.5622442233876073,0.5073041905385431,-0.7885415801509004,0.44840582119846584,0.4998922985051266,-0.5889310960448431,0.5695198093821923,0.843358206577939,0.6351140234238788,0.5707508462768109,0.4790002847364849,-0.12569625824538666,-0.7323256425533742,-0.32161250578224787,-0.8734104433832219,0.15397910796120007,-0.009856035977157562,0.49871391536308196,-0.505517730378773,0.8475870896621189,0.8950685515742969,0.05053685124296181,-0.36919812268863494,0.3423079177215551,-0.6995249840488427,0.6890071119028696,-0.7140572937035794,0.018534166425233423,0.9755599445682865,0.9671219081145135,-0.12355155088110581,-0.43929867772860676,0.053103135795242284,0.1791410415239798,-0.43534941726521437,0.6588609281213942,0.2601026196552916,0.9228787813130042,0.8656534728705589,-0.17198660932382692,0.1872812654619398,0.7020192005331753,0.9649766370747281,-0.5620039366705338,0.05573519940233185,0.09910043354217524,0.49596523577449814,-0.1399112184759541,-0.2694789453657507,-0.6792300078351428,-0.23098965170831298,0.3311800748316167,0.5701828743292199,0.4518553492233306,0.7542120145924207,0.9423547546863653,-0.08055686636959636,0.3597631895743183,-0.2552327634402616,-0.7675030630997643,0.47281977627721283,0.15032939659486977,0.9504531091665882,0.8303068923531363,-0.9425925127863914,-0.19056527585596705,0.47793394333992123,0.4233334130084119,-0.06102151405593359
0.2915284589070375,-0.9260619374324102,0.8537178500529659,0.5921663294573782,-0.6022811736547626,0.12406311023612537,-0.7728105902657538,-0.22312833684706113,-0.5306810423651913,-0.9074444051808219,-0.11131898228351167,0.7956304479810523,-0.6737786175983929,0.5062669327605027,0.531108668591314,-0.3879102470981408,0.7756232128379688,-0.9785401074947642,-0.5230176996177793,0.3936246282543965,0.5577929066971505,0.20074545936624366,0.22396287065371512,0.9094194746942017,0.42163731437755403,0.7109976311735058,0.7961368541678147,-0.7794224796925517,0.34508740535584326,-0.8830067655570368,-0.06985126206676573,0.336345888994827,0.1808762030819726,-0.5990746579978194,-0.359006537036501,0.7236739289688756,-0.9308010231610693,-0.09359399790701195,-0.4347567767432634,0.39734034123639606,0.6538273198286992,0.775509065049738,-0.8107149662564537,-0.9351013720248473,0.42603406524327925,0.6751588844151497,-0.32714908803445963,-0.4324399560453711,-0.7305195308604664,-0.6397760994969475,-0.2969378609957991,-0.40964340433561075,-0.6080610268592626,0.4438696229045973,0.8237186230627198,0.14791007228539255,-0.6895809880281412,0.8114102853794187,0.2283886912975981,0.20466291912623702,-0.08944568676545162,-0.6385095251413142,-0.13045507019887004,-0.03931630006216502,0.7744722536639703,-0.9280997147563665,-0.3251669704392772,0.8675058799798485,-0.37622154166986066
-0.23037690062353278,-0.6761233443804631,0.002921074763929221,-0.7379319183838553,0.43419690491876084,0.5111838089037253,-0.5926450540160562,-0.5141916980206787,-0.9939097476007837,-0.05363254040883425,0.22013696665882088,-0.28001390855854313,0.4928937056786262,-0.20294937500042987,0.5516979976714194,0.4035658445015802,-0.9535194023425866,-0.5040094930405323,-0.2790826700380591,0.24311917569048935,0.32177511152254334,0.3287540186411124,0.8567240386781314,0.7028481984653148,0.7042859342035535,-0.671691555086821,-0.9725055047045252,0.803618692383065,0.20449066518926862,0.9319331378491953,0.7127443535658888,-0.4947283855779463,0.9830175288713243,-0.6391938065753804,0.5036693658108797,-0.071394334589852,-0.13250868013456518,0.6057526761028464,-0.2965395363086676,-0.7108028463881291,-0.47185379840388375,-0.12097752791167382,0.16472985942933382,0.6189637258911764,0.7622475186970434,-0.652547365175911,-0.4077728457359613,0.8369733811588431,0.9929263953433294,0.8799127926969064,-0.3815913411437075,0.8519768843606117,-0.5970581969699962,0.17816029316993776,-0.3535685548342975,-0.23072408523851928,0.6397655729645413,-0.3503294597008786,-0.7803215931227228,0.33587321320804064,0.16836821055885487,0.49437962788565226,0.07564983564421102,-0.575513393737769,0.3731363484263803,-0.6350407390031545,0.16592729823873764,0.4320613153403139,-0.013428360939311768
-0.04827570655209157,0.6686124509086011,-0.2110717970273135,-0.09131790255049932,-0.22735101410643144,-0.25677709631366574,-0.37814327419522065,-0.8112479266779258,0.4346935625125261,-0.2718805793411534,0.6507330136887803,-0.8243281625803072,-0.9718472254200179,-0.026621009903361692,-0.32790548971409983,-0.1761125997845452,-0.5058883644454018,-0.5070011145613187,0.10084514036320713,-0.05774967741361836,-0.1032523425241394,-0.05544451600106082,-0.3613283046395781,-0.3137372306998918,-0.8308507610038698,0.6587640117258826,0.6783252540241038,-0.48335067254870134,0.10449984612490337,7.051472213492893e-05,-0.40280323966231935,-0.8810127501651772,-0.9027984844704653,0.8042332495226918,-0.31084261232138344,0.29432128355379183,0.16162680973688603,-0.778728033991327,-0.847483022226891,-0.5937110227821758,-0.5135928729348695,-0.12440583689500073,-0.19005641894324476,0.9876989753829613,0.48578071083474894,-0.7989890252583229,-0.2636858307299361,0.8980853816140195,0.3135970959421934,0.5931027257089014,-0.6761896695931124,0.18726144972487857,0.9822297891456513,-0.6298867167039925,0.4248289982983213,-0.9259537245928102,0.903732415855482,-0.35851590780911224,-0.6971472753213033,0.5506675337143385,0.9364817883031307,-0.6692717452228463,-0.2287077042328438,-0.037756582709753905,-0.9453157130618328,0.5382306794434342,-0.04979855664459665,-0.7256186525181134,-0.37876274209994754
-0.18974718686245784,-0.8435050305375629,0.09494897096075228,-0.711790768695117,-0.36911546638661497,0.6187408264600054,0.8889966020360796,0.8973259786249905,0.4354007406902436,0.8072588390781796,-0.8209794186904715,0.9834368899732873,0.6946469997263021,0.8362095305098423,-0.6295324224010441,-0.9324888555742357,0.6938955417556671,-0.1692750766154616,0.1829433357905772,-0.3301131579579426,0.6825696203998743,-0.5516600326856533,-0.1724718494819475,0.5111065492346152,0.19205564590246693,0.1691067102821262,-0.9405106625060207,-0.24897066013473412,-0.4934870410570227,0.3184982619146688,-0.07720889800109587,-0.3482950229392119,-0.18498615408374297,-0.8248970372552913,0.27650819865480414,-0.5982341188220259,-0.6951168414913917,0.9870006422081146,-0.26073881593447457,-0.8976879547709773,0.17652938070983604,-0.3599482007641439,0.2902505641250466,-0.9864854221315025,-0.3996122194470251,0.8017344684438386,-0.9543258160997348,-0.042802780487946945,0.25554177643859166,0.24704746635570873,0.8245599958645269,-0.013573707635545329,0.024909613124726837,0.29582975591272587,0.9758114642279965,0.4689429190015859,0.4624126932656889,-0.9737971514560284,0.18193124479550749,0.785748003170962,0.4168415097411391,0.9351562380167038,0.8653322246839834,-0.5795470224363841,-0.6310459961205372,0.4201570499844136,-0.10734684887068524,-0.8992179569314358,-0.8471960430319296
-0.18971634194150888,0.6360434409479625,0.9598437379163569,-0.3817288115691382,0.10207272871669004,0.3029354261074342,0.8332645212679641,-0.7952881921606385,0.21794990017519789,-0.387961808681178,-0.3072604375244945,-0.5206239262436507,0.0889615035122433,0.0039342123654766414,-0.8805138151069842,0.6534178153009778,-0.6630774411506037,0.9203033183024885,0.06208519676079116,0.4935612122706772,0.8594615603807776,-0.18117110078966325,-0.2723960721830547,-0.1573547568910334,-0.612455193329849,-0.9795065702798271,0.5876885549820929,-0.5675187787761973,0.0645437219577587,-0.57929264689097,-0.6507884346784227,-0.8333793105848273,-0.4265863615728256,-0.44544827696253275,-0.9208465541801754,0.7431171875641986,0.4188940979848714,0.8093206822783252,0.2220254947703164,-0.8595489721790903,-0.8674503850330624,-0.4682288166693498,0.7423173396702969,-0.9115603060275554,-0.9865544127745185,-0.8282536387268709,0.24640471121006913,-0.3695716521911685,0.36805875002022304,0.922437678394159,-0.06736944550235058,0.002671396455312669,-0.8823785487100542,0.29837653867877845,0.3159612303463222,0.9352633108249093,-0.34390306037152985,-0.4577507854242253,-0.11371497162637878,-0.943294162535371,-0.9982257938037644,-0.5651434842057479,-0.10485910127819964,-0.7623484638798776,0.9370717339327712,-0.15623061169699892,-0.9816122831897256,0.45783273243014366,-0.3280236906238756
-0.5151357161720216,0.38079988155378963,-0.976680165972498,0.7916089264177812,-0.11498412870332264,0.7548536483379753,-0.05826338449633761,-0.8746261974861471,-0.5986170467755385,0.7729906263776967,-0.1826051118133356,-0.7185486745758274,0.5442192530882488,-0.5602438632508888,0.5523332291380749,-0.9927283224900703,-0.794004098622314,-0.0006361929898390795,0.6198459790472022,-0.9260482482202659,-0.5945361828082507,0.11915289570506715,0.2652219594923675,0.7691479738332834,-0.14114519975798823,-0.5411610788918848,0.44828094548134567,-0.3906835825033439,-0.14652544662068734,0.7848817867583657,-0.30783377999311545,0.0007956639679460586,-0.4838560471209612,-0.840817036800674,-0.5356162013604497,-0.17675157462221258,0.11558908079347607,-0.019095849423295785,-0.18345546704381133,-0.6398441253775247,0.8173220040790314,-0.2773753609122127,0.3012240093210412,0.4738995256622722,0.1839282271094771,-0.38531209874491057,0.14280242374813845,0.43919490770179115,-0.1331022009634919,-0.41894948898790907,0.757820164053784,-0.21791492271602642,0.9904879751517783,-0.7904014766234964,0.006889083299448595,-0.39033468286046036,0.07973904398470588,-0.04161200526730324,0.8393502373951649,0.14060174357492716,0.30215449703963615,0.9615222424313852,0.6337527262415756,0.9410224521228903,-0.9477209330204819,0.6277928576209462,0.2641331811684784,0.018347107657643136,-0.622839320237174
0.3745288763185599,0.7442759056808173,-0.1750652013604359,-0.11538825277687992,-0.10266187155138029,-0.885713770548552,-0.6835312000040972,-0.009604524749292409,0.08686768246548704,0.4606914695366666,0.35309513733787745,-0.7746369655001779,-0.17505533845693333,-0.2677189659666599,-0.05279496538876072,-0.6466008227538926,-0.3124151287911743,0.2635331930637612,-0.400715948259188,0.7710492408337273,-0.3779898547947409,-0.7028190624723216,0.37061943988440094,0.023177375274419987,-0.241271976040895,-0.3804524668292939,0.6891624471748587,-0.060990195948874115,0.048672421092825324,-0.7227352545018093,0.3331224103882755,0.5990316630606685,0.7691561908220965,-0.5094836991706369,0.5055849836970678,0.5417885869275756,-0.1400932189560411,0.7204686421371354,-0.14348964247338114,0.21665543139956833,0.5881100496461367,-0.21628801655776142,-0.15302562073036108,-0.03813044705991153,0.45814756727736916,-0.20980355652991522,0.9974436418254908,-0.5440856416548183,-0.004994939777066998,-0.2954531887839329,0.8045082887527524,0.03581040077940978,-0.7948639078968736,0.8041928527859756,-0.32468366698995355,-0.9259354065572787,0.2229066331464835,-0.21398127403699574,-0.5601807007770623,0.8320086523850676,0.5190079837755253,-0.21597803022498252,0.2184801538484975,-0.5676476608318961,0.3036960303016416,0.7611984900695858,0.6145089780713209,-0.1613172925565063,0.847746069042292
-0.9740354322606521,0.5214438341423822,0.026610309072808036,0.8593377901449695,0.5381518363222897,0.40360744912736957,0.3407028997516819,-0.6999177840008373,-0.9408308970528225,0.14917149430483523,0.5239027970376249,0.5408976072872094,-0.04855544469955175,-0.3140043061415756,0.1505642355564647,-0.0644335323755787,-0.8881945251414787,-0.4660377298603242,0.9930766488334708,0.40499570064547097,-0.43541324619182675,0.8834407329061829,-0.8238117019292348,-0.5605226949868767,0.5978846479010136,-0.7357917168933379,-0.8141222874784593,-0.49935852828608907,-0.5279797413113472,0.25522218739343194,0.3413458182302047,0.8747339788483013,0.2876734262492493,-0.9692596673216991,-0.01813185565094444,0.09356106221429505,0.23691032892254205,0.7138427212865681,0.7484342630984466,0.7551651329965541,-0.386243333888761,0.24597359115624395,-0.7313435593606041,0.17469048771722062,-0.9390433790363915,-0.7649009238649085,-0.4000966864192155,-0.38702323463359645,-0.5340129332507997,0.024205363892089826,-0.07715669970212291,-0.6582544449516219,-0.8622855993632343,0.5193286039222453,0.23263735728910162,0.01762917374248807,0.2825668657568918,0.5539772361733031,-0.37863248360277746,0.9956813819326704,-0.10053652379445621,0.024829419227791583,0.6784566254149285,-0.6625596232106161,-0.9527997578961667,-0.7999560206745897,-0.40029536193092397,-0.3528939706470289,0.7402905910515194
0.9535243212023905,-0.03839934277491652,0.7701914254611157,0.4582004176586898,0.6037180730265692,0.8022839061882858,-0.6010958779364668,-0.12164886944999154,0.36596975603041715,0.6002617056525428,0.15252797857974976,-0.4740550270247228,-0.8559390670671838,0.48133158207961824,-0.7193571067627773,-0.1743365798336194,0.33035560746611736,-0.9256692840495013,0.8498616329055941,-0.07078562916612707,0.7986572573937727,-0.017668918829367497,-0.9687256178407169,0.9542390315174665,0.3887200585300825,-0.48976542958566527,0.29986874853544676,0.6820703600464382,0.7289914052559752,-0.7023168770655184,0.2834332147648426,0.8178665248364181,-0.7299713056986501,0.8855010314974059,-0.6434209862013323,0.9843192564821364,-0.4970618476466835,0.007361192681594186,0.8085820973438436,-0.775132737155739,0.7113390645788507,-0.4036766129573961,-0.305556540026904,0.2266698106639451,0.30008745793723945,0.7740894937846003,0.8539674867861411,-0.6890544564689924,0.2024145347049242,0.7027369937590289,-0.172352871098584,-0.02569518846136809,-0.1308768403182723,0.47798012011195623,-0.3387568312315623,0.6436803394297077,-0.090538543787553,-0.26879801811539017,0.14370716461044553,0.09508814954382205,-0.4392774844282459,-0.5828020900747584,0.8323700891855892,-0.9700423301710246,0.0931765658375503,-0.26109145572658,0.06533294534241407,0.5745816308545377,-0.4254455613287007
-0.590173220623643,0.8123805848943655,0.5147325859786029,-0.355481309029517,0.4322317747837794,0.5720047652573761,0.7719182529624631,0.26279967459078635,-0.4292812470163443,0.4774674524231619,-0.6653770730986353,-0.8406628280803825,-0.39514866467910936,-0.5004294125001905,-0.1344321082284059,0.30352017757418936,-0.6047087808700524,0.8007880496824742,0.4636104198252309,-0.20280968211567352,-0.30560012664932645,0.7920519658105025,0.1910457604163318,-0.15586943157410116,0.5979358554281184,-0.08286218024964898,0.6322016600536149,-0.16669791654875388,-0.35653101328767955,-0.2959466563676172,-0.5870842663496947,0.09843117232872012,0.059562255735585046,-0.8092738086178717,-0.06711162551711247,0.633369321557899,0.8196777818728969,-0.7035520370726036,-0.415423953315494,-0.047216530269461154,0.28160363862522253,0.9415092737401991,-0.4547123633428847,-0.824930839357578,0.05518592171443171,-0.2071693950995468,0.4071389553764022,-0.7235325635147027,0.6334785427120468,0.9749893389121611,0.49984035851770314,-0.8040673674213523,-0.18238883207836953,-0.9435415663791413,0.007974727921100877,0.7441143317476546,0.5026997357819778,0.014820166777157029,-0.8639953902878545,-0.6874784599972945,-0.23777287717690943,-0.19730655533901742,-0.9908305688275132,0.5507095075054136,0.6475307813027975,-0.38553324597730576,-0.2832643408239366,0.3296589309353526,0.09558452843187903
-0.6299731318518971,0.11737824661328533,0.7488756563190706,-0.9171806136852969,0.4637211028009116,0.8869698264095369,-0.6928682056110818,0.9274961202262331,-0.8761563582347467,-0.8437311877005078,0.3760495838674649,0.11556995915984847,0.7906470805903478,0.05684714324338813,0.5186373209647226,0.9490117287700912,-0.2953163964374008,-0.9441982169553598,-0.9412693203613152,-0.8116632823503636,-0.7968263149002588,-0.28964531545309447,-0.8460855644439196,-0.15814121135303782,-0.7413784746119412,-0.08156639562206913,0.48031477244998233,-0.6794811216203935,-0.44540533952966666,0.2992064745405498,-0.23309702516645325,0.707804709729732,0.07548748937888727,0.5072695948802934,-0.23536149478402302,-0.6861551063326061,0.26619243623944766,-0.018680756612302174,-0.9622755394583573,0.5162411581212101,0.27886151547438875,0.6131305365528907,-0.9025841886979247,0.6514295430849402,-0.13066328681743422,0.15302090662851908,-0.994330116098618,0.32011916954345976,0.8758113081845904,0.4638720685220685,0.5803873879965302,-0.5614591822394415,0.8178675236395434,-0.7024266044189345,-0.15534351843933347,-0.8180963564659383,0.06626456455444552,-0.34124311380009775,-0.578224420537699,-0.17610487669004993,-0.795819185247804,0.2966605932734516,0.33268647607914104,-0.3802757482522032,-0.06703689236218535,0.42440735074017844,-0.7963324251731321,-0.2936327365975706,-0.7684350924708288
0.7050637248738436,0.4917295562201558,0.8827105846409153,0.014130001689171223,-0.3602798279174235,-0.6712563099207249,0.20709687393599752,-0.28035911395916013,-0.7913264134465143,-0.18789680338400383,-0.976065417469336,0.563468110280845,0.5780640182304626,-0.9552606688860026,-0.8240653714062776,-0.3121609577318438,-0.7049686606187866,0.2029390053809199,0.4171574681559711,0.21442801709173165,0.12746745329899856,-0.1589799387044375,-0.6846635599842976,0.5032808860700271,-0.7123425214574619,-0.49924952733400385,-0.6227507411046744,-0.16249505252482388,0.8818995996922714,0.1846315441254236,-0.57605117584474,0.2574117734754142,-0.8204369329384669,-0.0013851489142306939,-0.6216252114172496,-0.7745268107944216,-0.8656776758952309,0.2700140818397063,-0.3222682225548872,0.5620186833966203,-0.9922875211992412,-0.432186850215307,0.4747862127834219,0.247652032876859,-0.13865198681430768,0.30534582451160697,-0.8177202110719444,0.8969393246004955,0.6521069136972837,-0.15541413397361437,0.6214415588324191,-0.515615222346848,-0.8851124983444092,-0.4679980466554099,-0.6798367643603325,-0.03572184563062564,-0.9177737772881849,-0.019405636711833152,-0.45565633830576635,0.12046062436258143,-0.38978775761699547,-0.8832058406983758,0.4626954566368444,-0.9259901029098643,-0.7277675175437739,0.8258575368303047,0.6395013612435383,0.3367485638331795,0.027402414545361964
-0.60452154902775,-0.03134524374822778,0.21699296258120793,0.15081223484901574,0.5686990371803333,-0.8806296292630804,0.28556047096659,-0.8504987194509852,0.8566757282844315,0.6591344314706837,0.3691119850987634,0.09207095341972726,0.7436983040350187,-0.578782688435018,0.441445592750465,0.6680402632804425,-0.6123942007066985,-0.10711685534476967,0.17770533847592795,0.17888026175256355,-0.5743101259680166,0.21705498158325964,-0.837503369310187,-0.373824902591404,-0.25702160726014256,-0.5079668824183861,0.8811005284557951,-0.9440290061961876,-0.41463929812942024,-0.19368207001356352,0.1485532803704981,0.44475537741055327,0.9775001876964096,-0.6042198081409969,0.3021334217481757,0.27598743058858166,0.26688282055619483,0.11151861820830522,0.4961182089092251,-0.01034483168232847,-0.47589808052595517,-0.3098029124135935,-0.28354080328483455,-0.029077857420704456,-0.9929149947784863,-0.18377741708315942,-0.456805725903608,0.26777669636261514,-0.7033426983808815,-0.4453665549476995,-0.9448902728039419,-0.4557554715609038,-0.962414294844556,0.8077347688400396,0.5816914830089734,-0.5452355960419628,0.692970136919042,-0.5371165554413309,-0.9688732747854814,0.28244217600169796,-0.22720035604596944,0.7420240459752767,-0.9282399623296191,-0.8625582399450433,-0.34159149922882537,-0.39392387158414643,-0.22530720305130325,0.2563585086305933,-0.9441097217544598
-0.7299570339293202,0.529732585414679,-0.35371295490629784,0.12344253612000089,-0.7735276960007549,0.641875326917229,0.45569953707567024,-0.38025875832845557,0.31558709185405664,0.7255191335605455,0.15715664203698743,-0.03767534425119168,0.4826178815133426,-0.3548162900283449,-0.3885872611758132,-0.2136426745204525,-0.8672532647460083,-0.6679772622851559,-0.5601056278493881,-0.28508219930570644,0.3966802642302296,0.5019913009020569,0.9275298301519301,0.9584804554943811,0.7805855486487261,-0.7112083350380918,0.3248410403688031,0.3175086802557274,-0.9645534696789624,0.8876505610697918,-0.6738365774038695,-0.8966699812259091,-0.11969859526941229,0.1368997917232324,-0.8939238969950867,0.6399779382153867,-0.6660853945990226,-0.05290197770084193,-0.9323433256229048,0.017240115671593337,0.5736514985670527,-0.6048742841390831,-0.2614533124948073,-0.07650589966698251,0.7839425924976562,-0.6929697639897601,0.05187570728592927,-0.4602769616916038,-0.5448417347452532,0.08753538788272586,-0.9187687066525705,0.4502280823293876,0.5346301912073912,0.08950977455115527,0.2444770578513269,0.439414728765803,-0.41917658731306884,0.8390993984905406,-0.5683799572963983,-0.3882037229082482,0.5227356564404149,-0.9141249411824242,-0.7893282612744388,-0.23768108578444913,0.19415790434625424,0.22394992521184687,-0.00337220049066822,-0.7453403416879727,0.14346933525658612
-0.012753476550210863,-0.5025999279046647,0.3935917415936083,-0.04621700749294666,-0.5163822951464114,-0.7240384072585611,0.4057690699408447,-0.09511824203554586,0.9674223505259039,-0.1431122744856439,0.07855051213929087,-0.7390417818492749,-0.7637239236458446,-0.38537131148163506,-0.14682159051393118,-0.9408495955201612,-0.8391977858076507,0.8534055794371034,0.3981705993160394,-0.32374773620021857,-0.5729000772247552,0.6416298338733859,0.5615539422394473,-0.21340961278001558,-0.9750532431110155,-0.5573326043480287,0.04997492358313016,-0.11349626421102665,0.8506765042552831,-0.8469933876266356,-0.0809490895426146,0.42447511165168716,-0.1516553557071254,0.1192534294915879,0.6893053774048914,0.08706316623968302,-0.5117064860528426,0.3353999291828844,0.4014673085914531,-0.5112967987136194,0.08462150049152473,-0.6613951864295236,0.9405692742999296,-0.9131206321890897,-0.6573474734174292,-0.6160817166418708,-0.15841643865524202,-0.07201975279018824,0.06399052376808823,0.5747054119587915,-0.2762491698146532,-0.3576396906987407,-0.6632185395748622,-0.7102964050071161,-0.45415486574510466,-0.8677649844060626,-0.7403474030085719,0.10797564103889679,0.9311725925075853,-0.5895454201829831,-0.12401357077890762,-0.29640155403661983,-0.869893205781274,0.9531794467038555,0.02903605354291172,-0.43113092275771425,0.08345124310994123,-0.5160229745382532,-0.7885434429111693
-0.2797014540405547,-0.32873069893871976,-0.004351330561713551,0.24380082705102235,-0.2521380708338725,-0.5625918479522036,0.3080737143030474,0.870275025085717,0.1595822683412058,-0.11173989240964599,-0.5922566308987058,0.7749759376930441,0.21013336062759302,0.19306683843999162,-0.286976325986241,-0.7112263330455595,0.5743174910186641,-0.279682574918503,-0.9073024566457932,-0.6313595106214551,0.11175310658189597,0.07857255906901606,0.10077589531660802,-0.057525884580972075,0.966734709319854,-0.783828722120258,-0.18241959025690968,0.5078198338417803,-0.24530810603657516,0.7330204123501693,0.27158167585001225,0.0895365438084974,0.18143915450360626,0.7912217204960814,0.5818152714044351,-0.6530626723560011,0.932363181229861,-0.30104960620528187,-0.9664465659497148,-0.9843623597061089,-0.8660164110526678,-0.6823482203920965,0.9131123395550385,-0.6715487763140584,0.8914558339998364,-0.903813748844752,0.1454477391151634,0.08417431986536039,-0.7510652092399934,-0.8107940847363584,0.8420949034724909,-0.7218862646938069,0.12659936741012845,0.5033875690329284,0.8366989821493542,0.0157892865678515,-0.3218631413447721,-0.2061867203110468,0.028268900872064684,0.14199063216298136,-0.4252020879939724,0.46397606890029897,0.4291130920865196,-0.7981629438748534,0.11516143375547627,0.3508162386916891,0.5969008383541412,0.7461536849622636,-0.8178242631448536
-0.3669487602845982,0.6876384405684384,-0.24973351915064357,-0.7658017169935332,-0.026793620417262298,-0.09905093112320573,0.6270917682078012,-0.9679640353163157,-0.9887662543472755,-0.5403166990173853,0.7389720931341959,0.059925661543698716,0.6543425008085704,-0.06362345919297163,-0.14107895184921038,-0.976499296814078,0.2699574689203983,-0.616536330369865,-0.2720565675112907,0.952848514125517,0.08783534977690421,0.605932098870458,-0.7414681754845767,0.4449485194970315,-0.04883978087111496,0.6443746047805767,-0.3832400619099863,-0.6191534435037607,-0.3174984148847342,-0.7175912362197887,0.8746484187654109,0.863838970476942,0.07283467425294599,0.12727390999670374,0.6252571607939943,0.29789503606579637,0.10717818789575273,0.4559067280268505,-0.1295861271914338,0.5203495638003539,0.07790438130530086,-0.35752975019485667,0.547514870123252,-0.8615332385501058,-0.653143781884477,-0.07263283008189725,0.5303853939281828,-0.7740545650128352,-0.39750951167875614,-0.09969686019020418,-0.3135184718351449,-0.645960097945536,-0.6394411309194656,-0.12941617068320443,0.5768326538403421,-0.7233292577339447,-0.5588155860354844,-0.8267683576847693,0.028787152722396847,0.20830005234101256,-0.16488699690373498,-0.6044719966715701,-0.9026390518659266,-0.16082008356181743,-0.3778469266300424,-0.40602820552587193,0.6179395865215485,-0.5279881520904375,0.8322906745926326
0.9910285027078996,0.6191421220779674,0.9262181584735849,-0.8497293854330261,0.513424332864834,-0.6674073562523386,-0.8089144167605353,-0.4049165669009078,0.08381769997499044,-0.29707607435932837,0.38386256852072154,-0.28142023994359233,0.29984527030627794,-0.06793013085539945,0.24158991906578464,0.34691597233591054,0.08265421122410177,-0.2712281356590922,-0.8229167363207659,0.7929308000101647,-0.5744063510783455,-0.8427498656069092,0.27981389324997097,-0.548573770391726,0.6684842324692466,0.3424212781637306,-0.562997493451111,0.9246477444666323,-0.64831339615346,-0.7644836677819922,0.7518923013212133,0.9817859958391226,-0.21408990740173817,0.8553750326814313,0.3578117232655198,-0.7495222384485201,0.769953520149564,0.04943745776954467,0.9613882940174199,-0.15477789014220011,0.8924707573240143,0.6748884457371798,0.3810775922989502,-0.2231756466824233,0.7036114246146066,-0.9552878682480948,-0.04561766740794426,-0.6867611618300284,0.2611948475171144,-0.2050040759718068,0.7598231097668209,0.8806658242456737,0.8033269932612226,-0.7310295477699584,-0.9302336041587322,-0.40059601629471886,0.27146054424018917,-0.9884389954404593,0.34301980897666495,-0.025052890457551547,-0.08179007518815329,-0.6922363083673675,-0.39211054113618626,-0.5695345624506389,-0.8545197560894329,-0.554137546496497,-0.7459766000878041,-0.2602014375517183,0.08159613993250514
-0.492518164064333,-0.6078644004609599,-0.5141487393058404,-0.8625143971024862,0.9543158735953154,0.8779147270997707,-0.5575997797933383,-0.6471070615658034,-0.6953884650475384,-0.7599075267583535,-0.9868217410649585,-0.17432613781142225,0.008095082572642243,0.6980875217809401,0.8564491811231401,0.026834317032991217,-0.4532670888224759,-0.3939881996355836,0.13045352353239514,-0.5005558673584058,0.21305735577653206,-0.7395874427471161,-0.6251848504126825,0.712943744223814,0.1651703092235175,-0.7282881418895617,-0.9242520918795456,-0.775544681509015,0.38095985504628516,0.1662553260736388,-0.06294384464035718,0.6878642734652929,0.699812776871533,0.58091642185693,0.2908716116330534,-0.5873893504477228,-0.7988371137979287,-0.4773759127535886,0.15708115262090083,-0.8791397766471949,0.545819764465646,-0.6369649384016061,0.31605108898372425,0.6557391411296312,-0.934657515545082,-0.14843366440196037,0.20225686178286173,-0.5980802486283743,0.6690984141752865,0.55926594949483,0.33393937201903845,-0.8470215085650168,-0.46940898352319205,0.7512072701179733,-0.518544760880983,-0.16378096131802256,-0.9922528837052003,0.794380809022116,0.6360407448554191,-0.7233474665767494,-0.4733312714378357,-0.45392763917946954,0.6928243618544649,0.49403250584836655,0.5134017934699715,-0.04346580264411215,0.4215107030962273,0.4305439666933357,-0.028337840827285854
-0.5407523113132882,0.4158576185314451,0.5011003149337365,-0.8320658880008587,-0.34243095558456327,0.32281059271916535,0.5302180763780195,-0.9599938761372386,-0.28466066240513355,0.4901287073986238,-0.1371884300058812,0.831748015870591,-0.7578762655415101,0.08679981593568442,0.8024168893377461,0.3820615372834457,-0.4523996778534318,-0.31399284702217667,0.8702769253489961,-0.3624210710136828,0.8326405819794342,-0.087154208324419,0.761128878147767,0.02392363615766313,-0.7866182156902186,0.854459447513223,-0.028143025672162203,-0.6751934540820415,-0.7056123854392349,0.13354173780500012,-0.849368460370268,-0.5234042601916729,0.8168717340036384,0.7150838428664719,0.5498840907491129,0.59570111259586,-0.9786758593664155,-0.697065389986463,0.6378740584405369,0.12343730694223187,-0.949079537673851,0.4877521918998442,-0.989061862306561,-0.9546446923864589,-0.34133784793284927,0.8536618614231981,0.14727030934982288,-0.6153375458255204,-0.3285412101866074,0.7112779617763283,-0.02922926820337901,-0.3558762699546967,0.03621450577376906,-0.6716174034067928,0.0802781026767796,-0.6785834619744286,0.15880472369286402,0.7514497969189575,0.07058173487343944,0.052612563922522115,-0.23438954628940123,0.14294446757379897,0.3607262028697815,-0.35824640015015863,0.015677848491554736,0.3673709341865725,0.18341730035814008,-0.706637229928706,0.45947879333480124
0.7633758385711775,0.09091613344816407,-0.619976395115118,0.8456145201084613,0.5690646347275223,0.2843999303942384,0.571786869896743,-0.5114444445562174,0.17527303764792967,0.3208494596217013,0.4854335611943046,0.09073439079590662,-0.03827678507613852,0.7794653515488046,0.4798979669568664,0.033112117858674406,-0.9226506767427094,0.27254991669011464,-0.35515482339554416,-0.21596152944551972,0.5869219167611377,0.20221771095116092,0.3515512758702286,-0.7804283976136934,0.3132482607069995,0.5579206489558937,0.07135594004475876,-0.2565441760045484,-0.253789833466997,0.20639892636042267,-0.1134705706203123,0.6660794142585607,-0.5791393206975619,-0.6345913865319259,0.14218495614025017,-0.8512499758230632,0.5505940499348161,-0.36721270611323464,-0.4686134913671913,-0.2638694535845105,0.266253467039274,0.5217257760214546,-0.4629472776034276,-0.9701431015337034,0.35155663102146484,0.5325290626195398,0.21018149138201547,0.6160561894247665,0.6433128011313773,-0.5606815759762713,0.5582981762993098,-0.06402549170268346,0.19757236268688327,0.7860694653349165,-0.32829156086657285,0.16409901867192422,0.14043720720266673,0.1034227768781395,0.7801379851808918,0.12329931223067869,-0.7413247595054895,-0.6429795487972934,-0.8591806144227669,0.7193154903074241,-0.9429644414510003,-0.8486944521765822,-0.35526011806969526,-0.24446051057106577,-0.38304384658560653
-0.9227035893210456,-0.32119901263473283,-0.2597701094415117,0.9150886028979104,0.949820732455779,0.3733016600154937,0.1002547378077796,0.16088386737894034,-0.5098092431300552,0.6678304074990729,0.26115023934140424,-0.36027285974608403,0.37943128752344957,0.49052761795402144,0.6735431035432442,0.7620906820159477,-0.558180403176789,-0.856015460639608,-0.6588232988132401,-0.6609205962527089,-0.15789274953761034,-0.5172421722686553,-0.8843986144796769,-0.40523757054504506,0.9216077454311031,-0.0378776413073163,-0.24849779964042873,0.9433157691961829,0.235904152337296,0.1329476749245253,0.8481519187889437,-0.20479880754222957,-0.4248414429296974,0.6754096442900701,-0.34934606900007315,-0.4101099146460838,0.6547749974805581,-0.35572348386598174,0.9644689792815948,-0.16085649158706294,0.4715765884256147,-0.23136944211033605,0.9753773304012394,0.16660022154862286,0.27476242725023803,0.5832544133598287,-0.5400597383979937,-0.6529151280583021,-0.5228514597137035,-0.6327263675246173,0.22927002515459804,0.8093236235605163,0.8979451089140633,0.3783043753558679,-0.5396704919976489,0.9300213669140589,-0.495823620901495,0.656159832429752,0.4425485043595798,0.9698336096946969,-0.7054829370688078,0.26429174399449207,-0.38733174672642434,-0.5033331285784051,0.6919107386528693,-0.2366300763947291,0.6009496230131295,0.05518542509629998,-0.49730902452416537
0.2389710100976712,-0.8336668024004303,-0.557099523857099,0.9043199007223697,0.40236369992143395,0.2919795518688344,-0.6500093933324662,-0.5014827352835776,-0.28276126374772614,-0.4892272788602934,0.5134269488085341,0.6516639621413922,0.07504125862418953,-0.12707968210583154,-0.6984235023008465,0.7586259050147943,-0.5863167681334256,-0.2271231293397764,0.7762573787222418,-0.10664184694327195,0.40060649881906074,-0.33044813851927435,0.5736959829763519,-0.31761865754750485,-0.9756335691916911,-0.516414196254614,-0.8427490539245852,-0.5577580866763028,-0.3012777545404537,-0.056604801596415344,-0.6650400773306862,-0.26726580676666467,-0.4396733846238545,0.7816598259135434,0.37479350022924085,0.688295864989857,0.46497661972463944,-0.37301200728582895,0.2303043636167843,0.2677196466540992,-0.26760868887024225,0.220165851766833,-0.9736245157736905,0.9486148186502199,-0.4722231598605777,-0.6531891440819069,-0.8729520940248181,0.4565278452034627,-0.38990598239477414,-0.3596431348821958,0.6822866418784279,0.8616536722820529,-0.3691767943329176,-0.8988343187633332,0.9066130800982968,-0.1839344749876053,0.5870534916379582,-0.26631498398399467,-0.4440787883677868,-0.4491569586256072,-0.7103184050741023,-0.18540783737232847,0.849574917223674,-0.994017122595882,-0.9023943711811804,-0.00021049140719275883,-0.5620148331787977,0.4051881120508498,-0.6881390440432205
0.8809688187503699,0.7169496012769441,-0.03819467720251701,-0.14901157491236527,0.6299319863377069,0.5729425297970114,0.7378874707178427,0.0633337941265828,-0.6908207520941776,0.6999091210129245,-0.6913765280789659,-0.16817392411321874,0.4519421050508432,0.1625855387237105,-0.5088452499355405,-0.6762278571070981,0.5198329113131968,0.7537534172876339,-0.12065191010339027,0.5447596417272715,-0.9063122647956352,-0.9799184825039176,0.8476866354356116,-0.4132747217795463,-0.3800044314245452,-0.8264097516406179,-0.6359585389558586,0.9106370398391637,-0.4327300086292294,0.37131917206415177,-0.24109806760011465,-0.4628771767908999,-0.04385416170326839,0.8961357846976705,0.7719027706867869,-0.7248906891631797,-0.3778821767181131,0.8889260794194689,0.5507576161079635,0.8259039371454411,-0.24402638188227832,0.15380713205587582,-0.7450739519208982,0.2464220386417013,-0.7297501071211765,0.5982450620730055,0.8258564277112481,0.33961945235937074,0.3531159869056004,0.8890252296780838,0.09296473093419788,0.017071857180077865,0.5967438335833506,-0.572454785590806,0.739956559206493,0.6117788955093091,-0.637492470802306,-0.5931414066073797,-0.6842681640953143,-0.027740457686021402,0.9055227189380965,0.9333447945793305,0.9095032596342245,0.3291961419797427,0.6713416619151154,0.09105255558030145,-0.2939439662514127,0.8809850532990957,0.7453906994545147
-0.1115987045713871,0.37784136311260785,0.7748584097568201,0.11640371172620001,-0.3514546911934264,-0.7112682833746244,-0.1650474081112372,-0.8258660472803119,-0.8122177431487332,-0.32498422428509954,0.4514621187175034,-0.520509600413446,0.32650168085871045,-0.6393107645751945,0.7447553061356598,0.09838291161674673,-0.9601844625710205,0.5820655258165961,0.062286018717550906,-0.23222633813538596,0.9483982114983158,-0.022956180134420467,-0.8143636012175197,-0.6330860546087944,0.7988319853400994,0.14563385907434734,0.918526980862699,0.48460347648675417,-0.09394648140453965,0.47994898250087936,-0.5378549221273834,0.6368976751966355,0.8199382533365469,0.5582643269197438,-0.10954174694517338,-0.43790644673609425,0.9690797062848178,-0.37210081626513336,0.45793828311095686,-0.7454098197586061,-0.2889182094121401,-0.5921400605610203,-0.09519710989488761,-0.9467914335107237,-0.4882229369321549,-0.7048507192688092,0.5848249758086457,-0.24895970312976412,-0.7598574241549532,0.9310658453629217,-0.6408372654388936,0.09335146013957529,0.39415181538098176,-0.6360106340460412,0.8738185898206785,-0.45654218223355225,0.623078277883611,-0.98740516651158,-0.33472963745676965,0.7598800908533856,0.8386931595935119,-0.05275502345931282,0.4301696129263066,0.5420857244921247,0.07636824484601012,-0.7526005051096134,-0.7300146061493529,0.48203658934002824,-0.7680387010712308
0.5704042355176255,-0.813373267708744,-0.8652434444647763,0.45873808625107304,-0.6745734873367224,-0.0892683687202045,0.23175465232278714,0.8466845218116186,0.3652793187681882,0.5811342669460402,-0.5271641802222387,0.44419812293092753,0.27003175755680164,0.5035597706229258,0.10707726213348967,-0.45939234233024795,-0.4337366494375119,0.4534147332412102,-0.06345806814313537,-0.5790651991831619,-0.5296557512830298,-0.343954011974668,0.4072592003550426,0.07291439093148888,0.8923882029552757,0.7204367287062081,-0.9170680295569698,0.710204795566354,-0.8905767860880813,0.13658979770833257,0.5525255931865727,0.5427272422237974,-0.4795908570489613,-0.7474714154007176,0.7977149628395528,-0.4099901903443386,0.1619937187234135,0.7645373386471479,-0.991551186557698,0.3270936291742046,-0.7100185678615916,0.7257982324514509,-0.6113404661545931,0.5239397133056756,0.7436133009633745,0.7939092145680797,-0.045657401109543194,-0.19833229332430813,-0.7808895648000496,-0.24416098541528952,-0.29903780427462756,0.3706904556409971,-0.4984926221845045,-0.18028970658687027,-0.4769394582583446,-0.18133613866400666,-0.6433393703082562,-0.6007217560351297,-0.6875893667481405,-0.9969405337069455,-0.7542075723737183,0.022424692309685135,-0.4857420318543606,0.17492104330074798,0.3269367728668158,0.48420509973316284,0.007296786332431804,-0.16398082117803603,-0.24505714881034812
0.07096631302200329,-0.7541615054670534,0.3859986031474436,-0.9682125887155011,0.4030035258633844,-0.3318320508538961,-0.6399020539468905,0.3618175841508091,0.8617790051671119,0.322844993028204,0.608340409634859,0.29955980790533787,0.06707459248091707,-0.9066639978633684,0.9779651111637879,-0.43409349454154555,0.8456941128527502,0.5022250410334037,0.9332025262763131,-0.438434873654695,-0.902806159547745,0.4162797471652575,0.8340580488299427,-0.36061587600789546,0.867622256150111,0.22977066041469008,-0.47122587282140405,0.8922223502854523,-0.5757105395407405,0.1766267036289766,-0.5998549070137049,0.3799107250144036,-0.2614801805064031,0.10766003897602094,0.6045074340822023,-0.2643163556912058,0.9218003515396265,-0.2910254036570654,0.7612608046386498,0.40398000697735115,-0.16599221897638428,0.8069438391034225,-0.91411308063216,-0.34926053450677763,-0.6863375894516948,-0.68461427138478,0.5391838250468299,-0.456003012970589,0.08019903643668114,-0.7407879909463162,0.504460209024058,-0.9856370197988729,0.504156331921179,-0.32802350422721593,-0.5627335730841043,-0.7990962080823949,-0.5289888980919759,-0.8660312807844157,0.12195971847279474,-0.20656920176392002,0.8981730778999826,0.38627571878022526,-0.4456219925236877,-0.20953841372140447,-0.7721763881041421,-0.52993044332724,0.011786510261856398,-0.07037244416878496,-0.07525903447717242
-0.7696372398019842,-0.9599890325584284,-0.3909121181646096,0.9321082638453175,0.26209836146989374,-0.25491303529569453,0.9654713409918976,-0.9550242445503132,0.5137831638067858,0.11326335015502198,0.9097459818536293,0.2717342552801445,0.6946990654393341,0.15794313391384818,0.3843775643991145,0.8738311537946852,-0.6615757423898472,-0.17242197298668316,-0.12530758120602115,-0.6343339744530947,-0.5283198522759265,-0.04592571352052266,-0.8935812768973441,0.535409582216196,0.9611625522089873,-0.9584870304898638,0.8172927549692621,-0.17054394504933224,-0.6326787062320505,0.0032403147541892885,-0.4909517899541169,0.5159727661029825,-0.7118336142816097,-0.6265439867858618,-0.3800494956010574,0.6961922196045978,-0.7273865086147302,0.5000617910280898,-0.8350762887498728,-0.11905161864188685,-0.6364832416089541,-0.730803451364004,-0.5689269524087177,-0.8341013682865417,-0.16176264075790403,-0.0013392714366060599,0.05616885867673327,0.865834335092651,-0.24836026044221926,-0.8039228399582103,0.14024276296896687,-0.5483021162713264,0.31450742998186243,-0.9965613297079297,-0.611553193829109,0.9936576595808904,-0.7008753253252562,0.7361587966248593,0.07476347090869973,0.6506813023794014,-0.15103533035040528,-0.9664381092696439,0.8895222409400507,0.9403018952298321,0.5391022090322752,-0.7957259097144003,-0.06817736140369623,-0.6616843358926519,-0.05619229302514106
-0.14605706440385036,-0.2101479265167272,0.92550798481256,-0.8737528698266503,-0.48531533622510103,-0.6573761853717923,-0.10564273329718477,0.5500759641526081,-0.2626649266356609,0.08258077667169772,0.7294088365249072,-0.02239710878510137,-0.26354412588234055,0.4932773330673583,0.9996323314080486,0.7246313128282273,-0.3432708028885376,-0.43746229524425817,0.5498872131265313,0.4438659950053119,0.034653627529395825,0.32799566087045573,-0.861973595470986,0.3401549945658773,-0.6137798565439807,0.18438330948406922,-0.22118190036483298,0.602212503962182,-0.5777161658623908,0.24691082275435994,0.8871475269258531,-0.7360081996427652,-0.45340916981595303,0.5728049560380726,0.6695606522839543,-0.7615329465489253,0.27931465473496764,-0.7363668763206976,0.008272252743792397,-0.8742416070775763,-0.3059961466329788,-0.6588447015916252,-0.08673554571990816,0.5357175688627493,0.26939603881198626,0.6429019219629153,0.6592022451164556,-0.7617265687072687,-0.2075064989586326,-0.9442587745287652,-0.5909084522530614,-0.2494907752773352,-0.37617190462666605,-0.9019487435169875,-0.6878332670345204,-0.5011854273007572,0.5141940126434268,-0.5342566287784578,-0.23343969779963136,0.9476031653391368,0.7482642139746642,-0.1479532865301827,0.006325383171777554,-0.6067853923298909,-0.24878453012123547,0.27509869965100475,-0.14643761005729905,0.6951421229415742,0.40599740528744954
0.8909719919091803,0.8854548581809973,-0.3155977042791178,-0.8115160439362545,0.08471167634748511,-0.6909735772091856,-0.46493884466581203,-0.7863670189620289,0.7471744904938185,0.49971846245701435,0.26776051435277437,-0.9375741238496904,0.7321511503767939,0.31941398545728283,0.5583018189200841,-0.9973203483265503,-0.6471370031316841,-0.9547428605610202,0.8339996277958077,0.817649584378729,-0.8898375746949805,-0.6414598099741373,-0.6544928659554354,0.9156483448660702,-0.21733791872214847,-0.37715373737576297,0.7426421026966696,-0.052929719387359464,0.3045585013391976,-0.1999386593239878,0.08083734831628897,0.4493756716602135,-0.15615845159675512,0.8201993837864299,-0.9538432528824186,0.8630555715943051,-0.24393216447134214,-0.8319768756333668,0.7189825758247412,0.9617977224786556,0.2028168739617573,0.7501553976457089,-0.9966355222405956,0.3295679245088361,-0.4137710415622964,-0.5771782031673318,-0.010507435626969874,-0.4993329692558668,0.23492881616536376,0.6244913247883943,0.35394319127249085,-0.8477580018916022,0.5840800635679622,-0.2440669833018445,0.0999281468205302,-0.3049908170884814,-0.6560953858584944,-0.4095089776073777,0.9454053604766848,-0.5259742766362474,0.5982009085585254,-0.1891525259167237,0.9118083162261916,-0.5474225658627361,-0.18334098546127375,-0.03461044897358434,-0.3230298203115176,-0.7650954722418144,-0.14420501092476967
-0.09508696419573792,0.0007156229263711733,0.4981150908219292,-0.9113017317926275,-0.20855327655676348,-0.3261211772240109,0.44286792646375317,-0.7301607568350108,-0.20962552624784658,0.4858584647518165,-0.1676461661098183,-0.8911243227389636,-0.4383212304657629,-0.7052864208003786,0.2573767244810481,0.23905265171538526,-0.4353016003902286,-0.8686108672722657,-0.8466416912424908,-0.9207321315710308,0.05076064508692846,0.007309584436461902,0.040717767677143746,-0.38442379547213523,0.08283934440843188,-0.9200948161574356,0.3527840078674571,0.8234748703269696,0.1326739835393984,-0.09392079432848499,0.305316091207096,0.7951197636454219,-0.9716228375447702,-0.36322436682158665,0.03005206067531141,-0.11290949689818208,-0.7998187894985094,0.20650587555600608,0.818312975571089,0.017125923376376972,-0.8746518564102614,-0.22276042646419603,0.20138309367977825,0.4512262873907753,0.3760943588584307,-0.5204442818100554,-0.18446395464330445,-0.8165123501203009,0.7532663381317899,-0.21131699733928255,-0.03101664317331121,-0.895473242184802,0.8199898920493374,0.23998711383269455,0.8403016709451703,-0.6806194518733741,0.7642081909628802,0.4476990359192976,0.4884317628714123,-0.42112134664405687,-0.6014653757427693,-0.5108194918287277,0.5752247731640843,0.7495804775737354,0.7484894611171438,0.35258647025271417,0.3814665877066761,-0.8874553789992363,0.060300390954251215
-0.8789648229434641,0.4283596361138824,-0.21160548604858498,0.6763944338649033,-0.8446624403296092,0.5579005782157505,0.6277708052501476,-0.45942384238718526,-0.19142663561775386,0.2179525613455624,0.21931701720746566,-0.8853513039446532,-0.7982566280959937,0.17962377961924703,-0.7070140673187919,-0.4945797669235399,-0.39768384585385896,0.10068282812358431,0.47630862220965486,0.6380376676824719,-0.965606231203679,-0.4547147801352509,0.8228250328968765,0.8906891885097741,-0.7008409700301521,0.117918435482675,-0.9708906753752176,0.5565840466072653,-0.8129722877757519,-0.3558745377563406,0.4803841160512812,-0.6447720978429277,0.9743094512536807,0.5181338938155293,0.6176841268629887,-0.5699887930102057,-0.25050442622087266,0.44435312553527795,0.18782803694897998,0.03650223341725245,-0.723493010573717,0.2905649234934786,-0.14957474464957166,-0.40021184979036306,-0.07314604542702008,0.9755206786693016,0.5094980065923707,0.0019181132553618419,0.07904210698717606,0.5831058129951567,0.832752428646012,-0.734369161158319,0.14719431852822518,0.9963796289917819,-0.12579540991986726,0.9022392987522732,0.9513924188097791,0.9743849910370861,-0.35326869930206795,0.6045606418784608,0.760763975194864,0.14930846512807583,0.03398837522073417,0.732232137848108,0.22647672666948737,-0.40625831177134697,0.9382163016273584,0.5515684148549607,-0.6942511601013264
-0.029006328203651233,-0.17894609442755316,-0.6113259446436425,0.019993958001715217,0.23691617069721516,0.37830778177749425,-0.45307722696485353,-0.27017533951547157,-0.6015566131911978,0.9437813494725942,0.7019453761544334,0.7394770174731744,-0.9278492967255543,0.829471213491437,-0.3946277666542817,-0.4723388682834364,-0.19008375064149918,0.33671480204754056,0.14561004662809784,0.9291790406170652,-0.2837087935629583,0.027326178167181414,-0.8371928690932149,-0.5093784758253332,0.6038499637700372,0.37634834480957435,-0.7671687759763257,0.8959485474080333,-0.4917029708029341,0.7810340508926865,0.7037181950675335,0.5678991432976599,0.5603028918470665,-0.7780846418803551,0.9879625617026973,-0.3698734317278063,-0.31817747817345343,0.6870155621014153,0.6007940875516293,0.5662526162553523,-0.5896117626068429,0.2519641078060375,0.44572505459573986,-0.9613984308409651,0.9129601780294416,-0.9054102546148406,0.01703998280206509,0.5256622337171464,0.22751529054233255,-0.28962650874009355,0.9964770794662794,0.8554463049948471,-0.3274402543243453,0.6643311689842428,0.6249797102160599,-0.34786787250706097,-0.9103643233192873,-0.18472305781055032,-0.3738373620978288,0.7121526469687165,0.7987396112914062,-0.7484670132612945,0.4516238012924192,0.9365740144379351,-0.005090261768420978,0.5315693632835676,-0.18719972611253732,0.5792863981223391,-0.4784135467031958
NewLayer
-0.6147472006298653,0.992477004473687,0.551972377554437,-0.055104008180936415,-0.09286201780950898,-0.4865636061326879,-0.8838452826115741,0.46574356649747783,-0.8322641040784164,-0.766421298866582,-0.31225536277155297,0.12523410863922146,0.8490232857987059,0.2095509610369688,-0.6430360074257735,0.14269853067486027,0.4937845856283758,0.7503487373681619,-0.15821917630506244,0.49334137855961013,0.6825323806706336,0.8030437077582777,-0.0003336849413926313,0.07622477434359354,0.7727497687339719,0.9213958467675474,-0.16922738824922146,0.8867480029888399,-0.8942960734181349,-0.48464309042657105,0.06617906935720685,0.10408733762681277,0.8129578606392189,0.7723971361860595,-0.2659334467458334,0.8772618963258161,0.12474915834847966,-0.9061692522027205,0.36630930559359354,0.3388693315254665,-0.6274224799295494,0.11266706868206167
0.3324745262287796,-0.8414890895949756,-0.7325622269603738,-0.5157338468940982,0.14816210188557855,-0.8368455149768028,-0.8617588464425936,0.69523911845581,-0.5310270885246455,-0.7573984569406915,0.6414242292710388,0.981934023797173,-0.5769058103879605,-0.16850432861905262,-0.0298741229998285,-0.23832847693598036,0.5798031477492651,0.8597513972101083,-0.23882894188369397,-0.770762938772799,-0.4588621414968166,0.6778429875065077,-0.1205349457827889,0.062290835366615394,0.9756506726858791,-0.766199208020925,-0.23259643600716373,-0.6208569676112659,0.8213618859027265,0.3085794026157671,0.3974738412437939,0.4213410465263814,-0.18499386353339298,-0.9240770845279875,-0.4721897050174415,0.8913688818047418,0.590705240486874,-0.9110114121222095,0.15165634749794177,0.46720506302951037,0.4998381520004751,-0.5143617913444924
-0.6069316607335129,0.9264502031616948,0.7119993640792288,0.6986522516827922,0.7467798100623677,-0.1762959908680497,0.7744292886923276,-0.5065207867607524,-0.5581745564354621,-0.9019997937539714,-0.885086798121884,-0.7497399998278271,-0.862737203653217,-0.06642431920626013,-0.37232628664392564,0.07391267632922816,0.17141095339980783,0.38868248106534997,0.9818081293062277,-0.7851740620128331,0.20201215806328232,-0.5076062221967603,0.31283300792521596,0.7999236847922289,-0.43316282383232463,-0.8811210753823697,-0.3351215652947517,0.2528474480203966,-0.8749065292188245,0.14138932040650753,-0.9508638843497239,-0.23073044936356424,-0.19493471364108017,-0.8461937185115938,0.48688091287918334,0.29696070090020776,-0.1844913733462381,0.8141398706721668,-0.30189841494340675,0.6247880912199206,0.6165129920464636,-0.08411328738214574
-0.6253414432666407,-0.8229868144179817,0.5428663612985831,-0.4263589223344284,0.2344563409067124,0.19325397990591742,-0.43416061536879047,-0.6631938641763755,-0.7197157459301216,0.620017474129944,0.3172944581587127,-0.6399398029459242,-0.7971050985075068,-0.8794746198189352,-0.15943384882999556,-0.5087323414915665,-0.8248467371256494,-0.4293485277896707,-0.024809903068395256,0.6776353219460587,0.8886653282193349,0.9040507665467707,-0.9026491948218485,0.8333538541848426,0.004693121270473943,-0.17210767842301467,0.19585998705849117,0.30763096713217175,-0.9332399116985541,0.6586690969145006,0.5442854895868645,-0.18847274337385,0.68681175555883,-0.24792158173921885,-0.8939922069250252,0.2406710371573202,-0.13249562965751238,0.3532679115616988,0.18151676617340273,-0.9444989724685522,-0.7232351466597731,-0.10736247804894483
0.561152183436112,-0.21588441758786248,0.03970951507156961,-0.4692423393884697,0.4356005968191081,0.25586380656808516,-0.11186200645953126,0.9348103244134798,0.674733408029716,-0.07509593349030164,-0.5619318784905489,-0.733103990497765,-0.16022595758540703,0.4644922581841118,0.7453663128285333,-0.5433695060027026,0.9774277307754755,0.17254739130342234,0.07517937766043636,-0.39416116584380956,0.8465824661034047,-0.6531095914453309,-0.34484224984531053,-0.4768363027643132,-0.7202487749398263,-0.6856717303792461,-0.34118253007856025,0.5774353019156229,0.5847108761260511,-0.4034588088099318,-0.19492215019134074,-0.9845692959024415,0.09056996428222863,-0.25714913399148664,0.6374148830804118,-0.616264909301498,0.9693160935965721,-0.4009008348739522,0.1856671000904042,0.12206672184426859,-0.0924129126786204,0.4228811954060101
-0.013193950849865299,-0.31408657292182585,-0.6154203562286338,0.8751822021830138,-0.38684133922699426,0.08891994593163988,-0.08057020093806155,0.7818581597517864,0.6571827119551825,-0.6050700194432852,0.46438954824779843,0.1869907643817137,-0.44134082287046317,0.45135496958006716,0.3748179220725647,-0.7793757682061342,0.5583636653995763,0.28972394344372887,0.1991257720031867,-0.40024593514771123,0.8076156675753621,0.4467357884715697,0.04287677297438841,-0.250780714683563,-0.7058550187995822,0.419150594032383,-0.6998437624825611,-0.3290165215699141,0.7134616098785482,-0.293504504384704,-0.3543949944923219,0.12045028236091415,0.3093388090885987,0.6024210177922926,-0.9792640423348622,-0.48858328996798894,0.8418673315895027,0.9565173283120132,-0.7830052445512699,-0.8399308884017544,-0.19334106227875925,0.7406303682978497
0.6097117097230618,0.7337188247969415,0.1977524947291629,0.8843678594115472,-0.7450309512726216,-0.18163845815211066,-0.06639720571494978,0.3672062851279605,0.5631174517145423,0.8526504841490554,-0.4359417930761411,0.44958392078084075,-0.21281046220128075,-0.4878167937392004,0.2071177138141984,-0.544413760741381,0.8292449305644956,0.44701987735349324,0.21676866755270074,-0.7137213195339935,0.8024726181723938,0.9504148574290707,0.24601647052571285,-0.9605933540012708,0.5987379376880932,-0.7310292799588682,-0.6371059431793884,-0.3096779903201612,0.1335910968379832,0.7428890952305656,0.9554930873704601,-0.39476414611450816,-0.3212842825764597,0.44387374162726734,0.1296743579632329,-0.2871362363650636,-0.973420244469638,0.2180459590442856,-0.6023494486963552,0.32304522838090954,0.5653162099200055,0.06779379848472789
-0.590963631735161,-0.9137115400425067,0.2843403939799585,-0.40826571398290157,-0.9022882353800608,0.23063802534175637,-0.2563447578197924,0.15090904120500137,-0.8184227911507165,0.18682248150609193,0.8160223662089556,0.44527292950950614,-0.27764211651384896,-0.626229634680668,-0.460521805427492,0.10091259491152171,-0.17162055458105852,-0.2937643925136346,-0.7327634284211968,-0.04848519575541288,-0.9616482352634474,-0.9710248979129457,-0.5377589331947323,0.6810236370277305,0.39536763213055726,0.7436899637281231,-0.14007621819801241,-0.5887107828209075,-0.9776186981908439,0.9198560830557112,0.7858622079548812,0.3874905825567314,-0.7063521232393977,-0.6558650266224431,0.6354622769259313,-0.13707918196092295,0.13680710588896705,0.42523178424487984,0.634945441134886,0.23197076771107628,0.1546019124247917,-0.38191742853620525
0.11243976353474339,-0.3208033078622039,0.22586113353359139,0.14810970399410706,0.5087444414804669,0.5754875573112281,-0.36801532001727955,-0.08736611491384272,-0.46235603459776753,-0.49977968778589865,0.5171174776101808,0.41250534260721006,0.14120590228685304,-0.3792150959100056,-0.1739833579564274,-0.5057785124999297,-0.642071282845408,0.3385092331580759,-0.5588744388078526,-0.5232465094714325,-0.6152061533206339,-0.008071916198665985,-0.6359174710633322,-0.33821238325288006,0.007811360424730074,-0.4074981617630269,-0.48300206277329205,-0.9303711851736691,-0.18279904556862858,0.3892748566613864,-0.1847147967539473,-0.1827063419379411,-0.28074121814632247,0.7012916306539148,0.46960758962841487,0.7966670778271097,0.7655647036557562,0.49753345183418807,-0.8858821213353374,0.8613783096394141,-0.612214930805205,-0.44351124382897855
-0.06450210706893356,0.5085232237098603,0.3440898358213196,-0.3518871274939859,0.7948494892718705,-0.27596531928316104,-0.42893795802453405,0.6826953419445916,0.6569658081092986,0.3852441757158571,-0.5324575494659187,-0.3134771413480173,-0.36857370310229354,-0.625779523815776,-0.1691927148029091,-0.88662212978481,0.717719744832992,-0.9376602307601554,0.7493382932601631,-0.9938101551322522,-0.6102776624265975,-0.5287506028568665,0.4826197701505224,-0.5033381737200096,0.3057420457898359,0.9619049940258546,0.9501568977875481,0.13162876518963817,0.006819926395253972,-0.22158559267614408,0.5801257795586314,0.43178507261097576,-0.046528543565484526,0.6481254665431169,0.3745463989920672,0.9075352163735664,-0.8903289155744687,-0.11180670429298512,0.9212214063832282,-0.962357691966804,0.9054635503479973,0.6455537550953325
0.1453436665795831,-0.6103803120303231,-0.14463219541270877,-0.4396533728426977,0.8916004859476752,0.980836815230063,0.18461576814192404,-0.03911375329752276,0.707713661572948,0.8590201837202276,0.35517000471577886,0.9520354631112915,0.8684536170501196,-0.8611870956325476,-0.4683594778480431,0.86221912746572,0.1660897716008698,-0.811079300441744,0.6112040409721202,-0.5723898128001128,-0.00028658169887374463,0.1023800243587778,0.19885809963942935,-0.6203432582089456,-0.4570962236680376,0.3319332161331181,0.4613050169692594,0.1706249388333685,0.6526316224984545,0.5255793745443202,0.5727169237916834,-0.527230434161235,0.965519833869233,-0.9739394254675928,-0.5140366455094512,-0.28457557726944605,0.4315356264179677,-0.15457431655049914,0.07819452282493189,-0.7689381368202557,0.2754946696284848,-0.4915005760487403
0.9404828886229615,0.43913288512930126,0.9857064649203047,-0.6591571631784845,-0.2979394751561648,0.1281220352852146,0.18672575311870965,0.3122711487955674,0.24909919865718955,-0.8895281883561801,0.24873730517020554,0.6230112412209263,-0.49601198902322796,0.071479179184194,0.9429644835882527,-0.7089965783300582,-0.47393886583903644,-0.1489350468861208,0.18242967416897637,0.8377612982144742,-0.9162405490780263,0.91922815170337,-0.3217253574356298,-0.6654661109594235,-0.8740034817376432,-0.4207508567951297,-0.10984724490008912,-0.998016039233578,-0.686086983305773,0.7486546832815419,0.5176127191525484,-0.6900131862358221,-0.3886935873998134,0.4116524878118628,0.12506951596000615,0.3268018534651851,0.7282827631084228,0.2932766791207917,-0.8350251688725228,0.38304164454942624,0.5209109497566276,0.2677418440531485
-0.9851485111354734,-0.9134895736401183,-0.8908223262725297,0.9056717146383617,0.6285926966271125,0.6100885165634096,-0.7010376689420641,-0.8661177985911521,0.7718594402350172,-0.8045809836604914,0.7660777970054518,0.9039475262480658,-0.3525361469038666,0.8788706899845717,-0.0013504324060791273,0.5365090856871289,-0.4694607750259414,-0.38459546533925204,-0.3232059876779467,-0.16730298939474064,0.4715210729793551,0.18900422411178774,0.8530430892564766,0.7365885075250711,0.7451193633682236,0.4409720520063003,0.5066592555826381,-0.33351783963527004,-0.6592953627845282,-0.21360337138389296,0.7429080546836935,0.6443723891911239,0.48625600277898884,0.0687769639419129,-0.35512143095267046,0.12617068253007324,0.8791803876299853,0.7975717480257303,-0.5994914374269764,-0.37028854763849384,-0.6977543906566381,0.7154793450168329
-0.9936757029500849,0.6218712243419193,-0.4073233154423659,-0.876823834530275,-0.46004392096965563,0.33872019264371733,-0.41302283555818886,0.6388641968253734,-0.8710868026269227,0.9793192644224646,0.45912216234903136,0.2999569105569828,-0.33482219973792504,-0.35749802156656396,-0.5946527344236214,0.7107472644317983,0.710995527178836,0.507121697103688,0.3552199521835546,-0.3362810124919722,-0.36625147922679946,0.2539384415436088,-0.8618146027738725,0.8099786543556484,0.19992143294538134,0.7534019701104335,0.0024280162802379213,0.1518308580711487,0.7089124819583381,-0.7021948840018757,0.21190505293791495,-0.6356037994265211,-0.5724715449153326,-0.568525185168868,0.19599346432037779,-0.9335923285940964,-0.6097874611794165,-0.3686353685008481,-0.4448888086742677,-0.416161636232518,-0.26459103546085005,-0.48388054696669314
0.7947712889264169,-0.9968028157439421,0.7385561739901318,-0.044965689844197465,-0.7928370685883317,0.16351468900686417,-0.12869292402605503,-0.5526602784566794,-0.3867758810493358,-0.1846816135495255,-0.31915384594492524,0.005638087348313059,0.8788201900785211,-0.5868342377933204,0.8989835197258915,-0.3868701790863067,0.8039112012914145,0.34053206799091473,0.6233073252468959,-0.043498217195439226,0.2964837471857247,-0.29389692977923687,0.36146651608637814,-0.7557688390474497,0.11964457241145232,-0.17072365818412094,-0.45253714747081997,-0.31954322011957514,0.9676737906456674,0.44686278391337764,0.9995900556209598,-0.28559486051048966,0.8540644163231681,0.3937043297247471,-0.04839336948585582,0.45113320774565446,0.8409928057218223,-0.5875091685777722,-0.05815903143885559,0.7420497246359374,-0.08956879665927064,-0.2980665124561219
-0.13351895402718106,-0.6220078269447484,-0.1401852672184669,-0.8205183241931249,0.11590077698491652,0.05974458531859583,-0.2929784911306055,0.6818568527502435,0.30909508502264305,-0.9119321439744954,-0.9496421038870595,-0.7399465878934515,-0.7666352835277803,-0.5071182946223576,-0.3426208876505392,0.020176441905545905,-0.4978710956891723,0.15254400007590174,-0.6158871557307697,-0.7198409978763263,-0.8832299690943468,0.42354160530262996,0.4417448862507405,-0.9092358807309064,-0.6572959892631705,0.8159140918036625,0.48541228103772727,-0.35422582572032835,-0.1773259890181369,0.9776408815865516,-0.27253115522755844,-0.7847108071387008,-0.5515277085255883,0.18138965813770613,0.7327146050254807,0.5746927038098402,0.652231510135389,0.6606494838734756,-0.4971348274161669,0.2734927762970665,-0.5676626575709529,-0.6195624639671111
-0.642949518582387,-0.30318057871915927,0.6146616888022365,0.18272249979891364,-0.020046984648538935,-0.5581031083183643,-0.09435318587196995,0.14639041468166458,0.09852792053150128,-0.9743666966755318,-0.8963152071996452,0.042397890495024404,-0.9440432954513895,0.15588732559345342,0.17311651813399598,0.8675989275900817,0.8442379830165903,0.2912966589002126,-0.5292972415017381,-0.33982510368157204,0.47055792564744237,0.5861030831919907,-0.4414201964811373,0.1182306995270761,-0.9606536416804825,-0.5571282870382137,0.8148241263923377,0.3426242001982802,0.9835223783682259,0.7109179672568227,-0.9990785307155678,0.7495582946198549,0.9879989574070942,-0.7502418710134642,0.3572861784906147,-0.31068551029171787,-0.6306293975646917,0.9726479213362786,-0.5976034748861796,0.4856528170504264,-0.7236552990236551,-0.0611738662619139
-0.7523951668352291,0.03812421506633279,0.675147703704468,0.5575300218037469,-0.8942050012007552,-0.9792801642177156,-0.570513523681456,0.17708794906836878,0.5724541752193364,0.2529877419278104,-0.1279186853735077,-0.9091607216839175,0.34626266201390954,-0.08519474610240585,-0.07368929410108893,-0.6482470061776904,-0.5106632245629947,0.16036503300310834,-0.49757833412743846,-0.39102967371451425,-0.41673415072637554,-0.13729492799486254,0.2222259986496098,0.8887483827324998,0.2314680533164284,0.43251050357639564,0.2722090522101166,-0.8351075072796748,-0.7449630522175501,-0.161896282159383,-0.27648567386877665,0.13391274621294946,-0.8801272465651644,-0.5196345436536731,-0.23421550514844314,-0.5941353994895568,-0.47841462708303406,-0.6504436814535002,-0.9452228882727682,-0.9704858252585178,0.048528265752441735,0.06689013979925384
-0.12320213430065241,0.8338545112131317,0.5218308223626014,0.2896899394553363,-0.4244402138835863,0.7498961005527955,-0.29373469929783513,-0.9345341060238666,0.6692657562509814,-0.8009599795789979,-0.21667688526214857,0.872115125748703,0.47114252003170787,-0.30235632767546106,0.9367137589074832,0.39162392148248126,-0.5793396890355749,0.5817618671925688,-0.6383278597169817,-0.5641966786560431,-0.08290921071449553,0.31242385178028886,-0.41615078637394753,0.9731279859308439,-0.6538166415313653,-0.6418003847648301,-0.97271749184354,0.6792347010995439,-0.5632221078124775,0.32561172195147203,-0.21772282482914473,-0.13799989700803428,-0.4064399473441631,-0.4190442134440977,-0.5971282426595121,0.39845998447616604,0.7319554948434146,0.29288532513800036,0.15160845438271608,-0.03441700629058975,0.693729689448267,-0.8835511644803287
-0.1676963651484733,0.07610792069253347,-0.7996125545716584,-0.007364955669955986,-0.10739563621669257,0.9444971479628199,-0.8443975367041916,0.8460209891569934,-0.6129025084362136,0.58246057906493,0.14222385463979026,-0.25381514486963397,-0.1975225219552903,-0.5766138205371651,-0.3643548408654065,0.5464721983853378,-0.1191565247141575,-0.5277978853361938,0.38076967132673745,0.7103349593262316,-0.11411218379394761,0.6333173797343221,-0.7274496512658957,0.2147129177598388,-0.5645410705218685,-0.004225236522801934,-0.9823153627926415,0.05614970131792241,-0.7813778553828081,-0.7157158774543237,-0.05978213269382371,-0.33596270812607343,-0.9203058285567285,-0.5048661363947264,0.1899102019870582,0.03250783802442325,-0.5291523412001433,-0.5306472866182685,0.6536059865442607,0.47798579519582285,0.9913863247817367,-0.05825646109179283
0.9355694082733075,0.38852202547604087,-0.40919624088120155,0.37869042820059806,-0.7805717462799144,0.9200306469792445,-0.755590255295693,0.6825230900296528,0.27663331291437143,0.6966105035783277,-0.21605288133459366,0.4227104076255006,0.47836725022002513,-0.858014511935344,-0.6174395710600584,0.5375851075971623,-0.9782871789359202,-0.9614880234034173,-0.8477414346752301,-0.855009157285942,-0.38647050095482016,0.09740855132906123,0.10249885834008565,-0.5247748706034978,0.08691382543493154,0.747968419723748,-0.825430220955478,0.9758469996133585,0.49504222430324174,-0.6926738054028934,0.1500859938205017,-0.7824429549022545,0.39995446914065225,0.5466721124289706,0.15157820759357077,0.35715145667920734,0.7548059361140311,0.8780672325657228,-0.07189035767929974,0.007908247138267654,-0.14442696245876374,-0.4376769047008098
-0.8514150391362294,0.40509787366468397,-0.7415741528931399,-0.348671379212004,-0.5199320352824701,0.4524382655814614,0.9858151854854247,0.5505535959371217,0.6378223058406562,-0.9233296008646124,0.6923579572175966,0.010570392534024808,-0.09230220094609076,0.14454185941885456,-0.09279986381945737,0.25559829910396537,0.0693455365766924,-0.4715693455631371,-0.562308291661318,0.11187659719805576,-0.05896694318728479,-0.010308797164381378,-0.57887328177046,0.9155785809716599,0.00779576174408092,-0.020953755865932067,0.6705464939852499,-0.6133323018257621,-0.6662009917094995,0.6921551899075615,-0.5889275719747515,0.9453559532929481,-0.19410217460607027,0.8655002241593142,-0.6253886746175896,-0.8246005146713442,-0.08747953475557435,0.1745342853842129,0.9994585418331823,-0.07558461334555111,-0.7514668152779451,0.3199507880644412
0.5179238638885777,0.02610892832460321,-0.06908184634410452,0.8868562094011778,-0.5436980336265422,0.560105220213333,-0.8223616500667186,0.29625775842877955,-0.7875632540413671,0.2129529703213653,-0.559688653963917,0.6319766682031305,-0.10689440307091402,0.6524644210257071,0.924411357708139,-0.26004361795303543,0.03796958063636402,0.5761794599821535,0.3802287519861731,-0.987750430059404,0.37258035444823845,0.5222779753754783,0.6421796638371713,0.18184881772057615,-0.9915323411906236,-0.11280742484418704,0.7415046510997636,-0.7761875803228053,-0.4792595666277437,0.6987499484851314,-0.8433080793796175,-0.7968236533922703,-0.38348608602990053,-0.4332597340424116,-0.47746305051360105,-0.9469878232368325,0.2608225926531238,-0.1539393949959007,0.5289376012786784,0.5186470617168015,-0.5129012234682402,-0.9789965729916459
-0.7667956281088768,0.07634084104045757,0.9630525521065316,-0.8551496707151445,-0.18826883578841458,0.033246822943405974,-0.1390911999655342,-0.8696202937853521,-0.9341213585651833,-0.39033352015068234,-0.15936043682057055,0.04778554265814061,0.18423453181536376,-0.040655626044904025,-0.26618576948568284,0.5344963323965102,0.06782021894628243,0.5017514812883601,0.06789116200311551,-0.28421428579990504,-0.7013603614679755,0.9950119984062671,0.6934654683883039,0.5953294389399788,-0.2115413989891639,-0.523579897002137,-0.6308784805709671,0.21308238717179218,-0.5072621150263141,0.2542078302925497,-0.6263432049785593,-0.9617129870027874,-0.7445150708572521,0.6370598795201872,-8.193071540252284e-05,-0.6072899739712199,0.5590382890820067,-0.8056040417517867,-0.6016195827545627,-0.3197357201476698,-0.2819354511400176,0.169729997820943
0.9910110482465408,0.1503558507195164,-0.47542682968715755,-0.3662563257017475,0.9574683425539618,-0.05293746236565,0.6874533619319547,-0.3295159585703209,-0.5952954589800095,0.867362119808923,0.4724294967735736,0.7833390519541359,0.0971489576956781,0.2919232952240982,0.987517690488799,-0.4888195404674187,0.5817038857671948,-0.1160631704608861,0.8815460681336762,-0.6929654772402143,0.040673449792296035,-0.081563779301697,-0.14597554809887936,-0.34539081674373495,-0.19975616222071801,0.19861678839807873,0.7210054883021804,-0.3541396153367773,0.4511111030580852,0.6231317490783965,-0.8485020597292612,-0.7534135352421238,0.7267992047499281,-0.3801075759443464,-0.8660618385147414,0.9109417092282708,0.25000849882454834,0.6619118994267876,-0.8430883042378563,0.3911338829870237,-0.771412615137393,0.3300846561086017
0.3577651710148744,-0.136764791085062,-0.09014109893228905,0.6728099963301546,0.21006244936190877,-0.6561016332299803,-0.395368673129014,0.805943348874882,-0.6080613184025023,-0.8064485675892605,0.919083538529363,-0.16967578703673492,0.9167091780379706,0.22016562571090637,-0.4991684750396579,-0.7474128621154632,0.41993123475276173,0.5058673691996052,-0.17032343248403103,0.259609136232543,-0.2198092090015007,-0.8100529703633106,-0.8761322868967505,0.32167850155245636,-0.7853658762272671,0.09882016795812798,-0.6511345273212916,-0.6208592386994778,-0.42045143807322116,-0.9215089252664532,-0.8093903914459852,0.08627423982739635,-0.3782813411818855,-0.48084302994189265,0.30609068002901707,0.11697347549627679,-0.5714743487386151,-0.6061004793878078,0.5184437276305938,-0.6062530295603168,0.8493808606065987,-0.8880645440347952
-0.7405173585643665,-0.6785864048562078,-0.036970972732163876,-0.6024467576644132,0.984562147529473,-0.7139043136321117,0.11980040112113666,-0.6622382597327416,0.6797325168288169,0.23109668968785524,-0.41171413820929925,-0.39714102310325017,0.5034926690911365,0.3622461593863928,0.33404483514499894,0.9198288885745667,0.20290613739170738,0.39876722222369176,0.03985154382164802,0.9890998079963678,0.4245260182972772,0.47953434776448023,-0.4086921145796638,-0.6152791058759415,0.9131159261606869,0.7450077592329007,0.9254827981638529,0.8462107541427841,-0.40466163824352597,0.9433539601584862,-0.3713778653403339,0.5535025874509525,-0.7793982393445382,0.9417968770226126,-0.7878161877550651,-0.7965243948991112,-0.4033608260126953,0.40538332692420354,-0.7891111762156189,0.6969671093104,0.5775887544370222,0.4550610164338347
0.39652322683690655,-0.2687204079586587,-0.9097791700293361,0.38961016301341367,-0.2344353154291965,-0.3646997439411026,-0.7725941705509658,-0.6815454204914271,-0.5094726865916326,-0.8031707983150533,0.23766815294188293,-0.1247341662844037,0.12375133984473075,-0.5819697077827801,-0.3176204011394519,-0.018057075135817557,0.7910629940181202,0.7913451396943456,-0.6141945995340388,0.9928204512097636,-0.2952983804778524,0.10598657685225432,-0.7390175827711638,-0.6256180018965778,0.568884598611133,0.09493106565764808,-0.47860513869368937,0.6012648507427372,-0.16545465820956928,-0.3917577645157322,0.6854354647223808,0.2135907057789057,-0.38093717252646675,-0.3132654197252218,0.15226338793358596,0.5669285345898802,-0.45714609830924147,0.0002396755445885912,0.9021014053494276,-0.8574949049687963,0.600916380481759,0.6679257491245483
-0.5748815999832035,0.3905110609220621,0.3172091227460019,-0.37445337593421546,-0.8112718353676949,-0.5559362636775051,0.283195105971183,-0.46947620748983976,0.9492762142733322,-0.29043257818563406,-0.793356990528417,-0.32163430218137234,0.9424657462293831,0.7022183593379367,0.7889046126809736,0.7324028472262991,-0.4830711451646874,-0.009074855633719903,-0.9597431449454805,0.7403011254259391,-0.3860273639959395,0.573763604236259,-0.5733407467762703,0.673112889486529,0.4124850513799794,-0.059006702834506486,0.02779543751374991,-0.08846210819925338,0.8924032237878152,0.7175977113879193,-0.46600412491949106,0.5085715964295459,0.7756872135132789,-0.37765482290142205,0.2780521241339693,0.20319813846740686,0.032327365562491606,-0.9446331780891648,0.5028522807332176,0.6232132267528141,0.8484756887458962,-0.7828729779325272
-0.2210386383884282,-0.2678603625384224,-0.9067339585179208,-0.4047172090362079,0.24994114005479418,-0.7012961033010037,-0.8479771733023702,0.44691911225648817,-0.3540155203778379,0.9146206355538595,0.6047997371124145,0.6032532131070567,-0.7602431845200901,0.40272687026709764,0.6489623590344566,-0.7282359619701197,-0.4818832324589355,-0.6360955142465528,0.09350585849202364,0.5169924400407306,-0.13277076785948028,0.8109263934404511,0.9302080769624164,-0.1612016656562738,-0.9835553054799324,0.039034174256563636,0.5577393776104858,-0.6802768398720591,-0.6323864589492176,0.5758591368462704,0.5257707466964174,-0.19585890244603754,0.6623282217104716,0.8252876204046817,0.29631839090777135,-0.4520226138601364,-0.9405706689450251,-0.9086402539900147,0.48195610327318894,-0.05210698589896734,-0.18167536333717282,0.02967722868999001
0.9896195132666654,-0.552853894867464,-0.6447836593288514,0.6890525479541665,-0.834800999538807,-0.4927930699381662,-0.6705973632971725,-0.3635554381929511,-0.3709365843799226,0.13693132871608715,-0.4620748757205566,-0.2680808410208637,-0.37353588863126674,-0.5928056429063187,-0.6377972218118475,0.38675427936789375,-0.7828812762841793,-0.7304155257493208,-0.19860720065040205,-0.7291570479171188,0.37664844828877353,-0.11189394740029579,0.7678212445907406,-0.34210584091201124,-0.98785486253676,0.4954383397549178,-0.7032947519675219,0.9803842104446028,-0.7158289777505482,-0.9385036233793036,-0.9373904072433892,0.266308147106741,-0.14485286038649536,0.9550994613920283,0.6570161767792206,-0.011706511281305954,0.550486160078459,-0.750775208220007,0.2312014295463336,0.1601033166160548,-0.8522648718095527,0.14520380183940285
0.49919503985569524,-0.4737658488739549,-0.9794440553645376,-0.6241422665395437,0.7191655975530438,0.7810032601438306,-0.5445254408186335,-0.8822837998285231,-0.6218440436184527,0.10200544602319184,0.13957693162809148,-0.176237806909312,-0.17981920870713153,-0.548288847503194,-0.26873454752883985,-0.6101267025947705,0.7999735540596753,-0.963059346029314,0.036575101231016705,-0.5682054762105981,-0.6367163364189259,0.8406491505500393,0.28680167021231107,-0.08261343761068418,-0.1881138863648817,0.674433808479914,0.8541509337026039,-0.0924042828747853,-0.9331234922025635,-0.2578222182248915,-0.245176243790713,0.7242517047372488,-0.7784841270293259,0.8052597920615887,0.8530121825397492,-0.79067131535334,0.1941077048458606,-0.47860295188755053,-0.06764070897230057,0.9168285949401604,0.8398846032844534,-0.6974690864826012
-0.8532565041129245,-0.3422147120869863,0.41095341881019887,-0.7534541130957058,0.7677815593412474,-0.9401646219439452,0.23528747416298557,-0.2936041090243595,0.23910842756533324,0.15059997495412558,0.2514869358044236,0.6119484546694138,0.5825400454804859,0.7233828002637641,0.2461315210107773,0.3448416769430922,0.34400453042236956,-0.6514198678853005,0.9466815528187769,0.8306056522126222,-0.9416727593967804,0.3339657297837908,-0.19427679415142918,0.6059750388526846,0.8646832757047656,-0.8006473080061858,0.5064002397486569,-0.5769868227963402,0.9952318446625181,-0.46062497827500537,-0.3330215198089319,-0.4389100791958376,-0.5108233019473802,-0.568901817828287,-0.6868116156966371,-0.9516304612516155,-0.942584567057972,-0.28518099069162517,-0.8559301621322608,-0.2988828083700843,0.33133571577245235,-0.8080624837570838
0.2956768110684085,0.9476583290675848,0.14578108483268903,0.3154795718126644,-0.7662687236362715,-0.2699076688565234,0.6226861152214331,0.7575927630430899,0.9845703257641807,-0.3649071087466891,-0.05004355368444058,0.7221915525187723,0.5533483237864456,0.2763912080497959,-0.9420126218888283,-0.6143008080996599,-0.7541821687437744,-0.8605810016022215,0.9163679940658158,-0.9586537368576105,0.713961179055161,-0.6880583857266644,0.9808208615475902,0.08786194327510688,0.2781916804450524,-0.5379054519972455,0.4871244325595878,-0.2288354829187853,-0.3288643737529988,0.01036176369013253,-0.37166893633175246,-0.5949449368926993,-0.6480240406380329,-0.6752732570999205,-0.09153554934528185,-0.7929274377364557,0.7977915114023066,-0.7873631327089932,0.48853747236743383,0.24075675472150793,0.11568727871908391,0.36967337859097427
-0.9913890931471021,-0.4167025305593297,0.13101902935278575,0.7015311626677865,0.6303211516441776,-0.07960980930961958,0.6614138253525721,0.6034722474163006,0.1716942735981537,0.7056702227335694,-0.9194097654801274,0.5278730059874666,-0.2207169724089335,0.049106235871792636,0.4428104581814991,-0.4985109035171249,0.5873033359396143,-0.04121976128085225,0.045426407507858535,-0.7164993951182261,-0.7715598012351579,-0.3358222695768778,-0.5710387609743195,-0.9359990354017169,-0.8803628695360803,0.6644337796250099,0.5597838966134496,0.5951064722054902,0.25410381426117135,-0.7199957314232543,-0.18974032876513736,-0.031918154844005286,-0.9473328282441116,0.2729017627776773,0.38340258472781086,0.675333195490323,0.36154446254940886,0.822560640021164,-0.8912843105462223,0.25453972607720265,0.37765293187554305,-0.9494888555033631
0.5153265546340313,0.4532891147361984,0.17162024073264015,0.5559194579975391,0.02688854778484373,-0.9165567293762362,0.14171615867831555,0.7780325064581672,-0.5970287931782137,0.33545033299131854,-0.6982277073972147,-0.16977310064351747,-0.5550330070686094,0.2329700016169034,0.3841885702233483,0.291124050074963,-0.572515088378257,-0.30323654476082007,-0.19387781465912068,0.6238035982195795,-0.8094848964242971,0.6026602236219165,-0.6009469947927544,0.39838884951406994,-0.30749109007731645,-0.8156258121403352,-0.5788857054809464,-0.38084075358482283,0.8581527568669696,-0.886596714199499,-0.4028319681655743,0.8615291603958446,-0.46248369206190865,-0.43592805167872895,0.3629564813012034,-0.422585085802216,0.8520001892674971,-0.17029772108436503,0.1420866826389091,0.0047011544705770625,0.5659521550203594,0.10669889859721016
-0.81580106285956,-0.874477295399888,-0.943325497105989,0.11076545259421433,0.46493437462706866,0.6350445632888373,-0.3529710182897259,-0.7807798362668257,-0.44104701564604487,0.7740194271868996,-0.21128582292946407,0.5650977292899282,0.6521490809794543,0.6764431563973441,-0.46742411436621745,-0.015358707056202903,-0.1399807408918785,-0.5200287000390962,0.6496845509236571,-0.7844598946970947,-0.4181496552361357,-0.9054933435802603,-0.5340448856624402,-0.26111124472116654,0.9376794794586081,0.4022660082058729,0.4702186858282378,0.781575119561198,-0.9714177344164217,-0.7327372553666494,-0.17226681812879896,0.7413069460195452,0.9619719982860948,-0.5414023480480894,0.6779864387469619,-0.4116131484114174,0.052890129477465075,0.45688550222616,0.8062687681219176,0.6653182304787157,-0.6280349903139324,-0.701018301334936
0.01887369450625087,0.6073247102283241,0.7551692467033171,-0.8021867273052643,-0.16610518667162388,-0.5640932719131022,-0.4901109857580479,-0.5053824852657776,-0.41100147980439283,0.5357089587349433,-0.683157976041922,-0.061511732948228204,-0.020249536041183847,-0.16920689591010651,0.5223655892381791,-0.16860748956879945,0.7315400269856611,0.3532740281205131,0.29236102435529965,-0.8647069888471479,0.995560513678287,0.585716639948314,0.21441519391612496,0.4929792367146755,0.6055493258476334,0.7146751493930796,0.02068115662407699,-0.270076946162062,-0.5923313221336244,0.9923173109219501,0.27979209822814544,0.3741044096710153,0.9185061913406012,0.19617566083595284,-0.11489006435235583,-0.043751507065820094,0.37489006161023375,-0.30681367818956207,0.49577727081531564,-0.6973851150649424,0.9692546944823659,0.13791516130543036
-0.15999723079494022,0.7445012107499434,-0.780658054787972,-0.5206909508147337,-0.9191643532796432,0.7514652765700074,-0.28518135556941315,0.10740668405424691,-0.9605494673522661,0.5798323275691182,0.13538501341737308,-0.19081093470829735,-0.2637938546300196,-0.48423611948002065,0.1996139498863645,-0.524136089196497,-0.2736273870480841,0.611853685139107,-0.655594113734324,-0.9594257910816559,-0.2974372066551192,0.4999255854513951,0.40494427658709564,-0.4012074343615324,-0.35974823463422445,0.5284895823316365,0.5945973050008269,0.3438285977310589,-0.13566081033653776,0.002720846088239748,-0.27780711059028573,-0.8471638462890463,0.8711175833952378,0.8975142656862947,0.02333775900259094,0.5308946132446679,-0.04510703966792384,0.13862643929280094,-0.920255211767018,0.31817824176554055,-0.8207889480094728,0.4457205659769392
0.8003634569187836,-0.4668300304333166,-0.9752607115842176,0.824344507008751,-0.045901200960110744,-0.79890618047966,-0.6585249564109157,-0.7379015086609368,-0.9184131464453891,0.47939259619649,0.918010260418354,-0.5786265466554574,-0.07759696818259987,0.7585308066590215,-0.17342702547174094,-0.5381527598997833,-0.8279014088297834,0.883210185350144,0.988465001536573,0.36670980107028517,-0.7811802440393192,0.9274390033877236,-0.12476618908316395,-0.030469214100165454,-0.12627763132772007,-0.7141239092361906,-0.22724453305628756,-0.3278911736748191,-0.04430138368184999,-0.2521201453962063,-0.4113817890184719,0.15030315963478103,0.985034492129468,0.8253819105852978,0.5495655696746635,0.5462287645454187,0.8795263661624209,0.0613532292011969,-0.7607743795797917,0.3040626388890688,0.8390803172967436,-0.5439916918147654
0.19770019522757676,0.24239939950877765,-0.7680737284448589,0.12231545778486153,-0.5253923478010256,-0.32792006676735563,0.46896019430451186,0.24147676005231689,0.1695191475094131,0.5577887393411138,-0.6679484390894146,-0.7457872001730443,-0.055034141932296166,-0.5886639389729553,-0.2267475747245502,-0.061038154337992756,-0.866843934757525,-0.9809542660729973,0.9640546727973844,0.6514760582835717,-0.4672362942911341,-0.6156143044180626,0.30915925148152423,-0.22453183723073322,-0.013261328680987727,-0.6125637524706102,0.8229733401645289,0.11948371345935538,0.4032404100929845,-0.4662393087345811,0.8085685737878299,0.9320331313837225,0.7964043928118347,0.8850052156295449,0.3371689128693087,-0.8074355823473163,0.8527178774584108,-0.4382584933446403,-0.8678493874517823,-0.3987833635699769,0.7087130531573813,-0.15913878849682472
0.6099868171009863,-0.49790609132380936,0.7240677587980886,-0.9608005495236176,-0.42176390458275703,-0.49580770705692423,0.44332167917168075,-0.5102846052291683,0.26059338796981013,0.5197216528964037,0.23917025831990935,-0.6958003926500635,-0.5223058715682984,0.18798352636580296,0.33385744015806496,-0.8475559012290319,-0.0050570623392047764,0.4086534330889513,0.15985364470084207,0.6460109256950632,0.24312376388475143,-0.7876714604131485,-0.2575932630430955,0.8779173960600879,0.6385737034000996,-0.03242840197683572,0.5867589158630664,0.4263246393512532,0.32496065534827134,0.39056861461767833,-0.5547347322792926,-0.1730124280038925,-0.4021385093230583,-0.4393054699398833,0.5168635832659139,-0.42864450166290746,0.9734044945986078,0.4890352118997203,0.9387138673800581,-0.22155107840314026,0.5305630246669721,0.22197079767309402
-0.0758123142343532,-0.06838341933609526,0.7882560446884248,0.8550757318071414,0.8570935114029536,-0.19098167369319685,0.18396527285064512,-0.3389505028696729,-0.30149721305515254,0.6463675837807061,0.78593738390487,-0.29863779706984506,0.14796660569169506,-0.3479209714961611,0.9843216107559118,0.6689400161907908,-0.4845078780660368,0.8910725076236612,0.7856201141254087,-0.7864114728306677,0.8737795519317704,-0.2064357710849345,-0.30204353254929783,-0.3869682602466862,-0.4736542951644682,0.8438388378040576,-0.6147375915372999,0.3932570736676444,-0.5664914165867736,-0.24420283464652504,-0.1457026895219098,-0.4250539827240116,0.29061209633780005,0.9206999489765684,-0.97627094618424,-0.7474826490398943,0.27088904331318453,-0.16025886382741872,0.028494862336426285,0.8374924061147628,0.7012553113980595,0.8783804603154364
-0.25244040562828185,-0.7258987662856364,0.3291692481168418,0.7099031185244935,0.009558075607838168,-0.9663559612155337,-0.35759618539297344,-0.3375621765767911,0.063400382366251,-0.005014761864277961,-0.49381355917410463,0.5952416278693191,0.3581002172142802,0.8336258598927468,0.9834896140864899,0.5347789288664779,0.10115086034176657,0.7085648900262174,0.8959735507461144,-0.7392488240744741,-0.24541009900691013,-0.07911476487152669,-0.4463609094539187,-0.2872312158103816,-0.6801646084274751,-0.9088178975807149,0.09719515448743765,0.6980909355418086,-0.17055461575988207,0.8542217578508675,0.40866024296105263,0.6284455949745205,0.29357543582705525,-0.5960185789773353,0.2796936599683504,-0.356796645186261,0.7042426440143412,0.5658385486653859,0.5273439566181914,0.1414933034736907,0.3533841240560909,-0.16758550926639693
0.12155843757119222,-0.7281018506350025,-0.21744682388427572,-0.2802375299930846,-0.6037102346842635,-0.17987628398348754,0.8710150897079494,0.5552522901426309,0.3273448276151194,-0.9955607096315682,-0.22614468062389603,0.4382624788047136,-0.6363110351327099,-0.8266502872474439,0.09490488416750753,-0.5190051076064588,-0.08066497804720663,0.9756849756769475,-0.3410731051220761,-0.9033761913745397,0.6228783051346676,0.9661831044749842,-0.7407986485535158,0.42995782042200026,-0.7208633526631518,-0.5836269936083738,0.5948830112315007,-0.31945791524661704,-0.6420116685640802,0.3963980413999102,0.5582121212544495,-0.4745982242302569,-0.8460243106214564,0.9708277056843002,-0.5630273406993538,0.29981187077616855,0.9274389716119509,0.6710834376261672,0.8310765773512898,-0.452647513278837,0.9201701899678603,0.4594714246466358
0.7337153317975718,0.3000366772876686,0.7805149563288594,-0.4550732700386082,-0.3861786528138642,0.10932363592059202,0.713409535509161,-0.5552202909613364,-0.6178540461711852,0.5202517644061146,-0.4961285464376879,-0.04983876031619272,-0.9258119151472952,0.3312943444558185,-0.39221373343980237,0.10907815498386064,-0.8974673286789949,0.6599974415882202,0.8638851871115698,0.0032786078833080268,-0.48022799569442753,-0.3855636943039411,-0.5547893145851772,0.26421622757191443,-0.8842449351836901,-0.6643546225513741,-0.7837944634238976,0.4502416935058975,0.21509483065796653,-0.896860404293361,-0.9271139770713561,-0.9687730690018084,0.20914805617132193,-0.3424245915143793,0.2355172732874038,0.7697071394382258,-0.6246176159237986,0.40991520836195816,0.8868155856079334,-0.3362950466312682,0.19763199960286837,-0.05310656774865308
-0.8016396819250353,-0.9362617334725409,-0.6115375245540087,-0.9757008751763832,-0.4064610422167241,-0.6881588270211874,0.3666191707249531,-0.4994202749221608,0.24920205185250932,0.4558917446061781,-0.14527450418521282,-0.5628383079418866,-0.9234168885764931,-0.3585353882285722,-0.5665916850430617,-0.3549538373191894,0.5394696702149229,-0.7326495040570393,0.21646220681631134,0.27057502508124576,0.7463614619526924,0.13372201406768092,0.28546357267293,0.2123360376929626,0.35678997593940087,-0.8864125217443208,-0.22505194484659552,0.8174983471768398,-0.12445489166016666,-0.5026653035182596,0.5572921984862491,0.02129913758220292,0.7681741021934707,0.13655689248981373,-0.2768637886625578,-0.19438248839071703,0.5184471564225193,0.015301444373017281,0.4283456566581192,0.03360488624799696,-0.4070804169439546,0.527150492460609
0.3219786188135576,0.1139427855666979,-0.03077427673016131,-0.6876668559885615,0.6763432613720837,0.504361555226108,-0.2108424890373759,0.3627173817072231,-0.117320901177137,-0.6412830074157114,0.4686076431531092,-0.5648396912377367,0.8155193895265687,0.3794720645147458,0.3854375275044053,0.18226738976991386,-0.4012205687253967,-0.7907953338967479,0.27324833822765093,-0.8860461532624848,0.9935689570807784,0.11744979246473553,-0.9536679211221941,-0.2777946592934539,0.022133480663254934,-0.20857120516366878,-0.7419109068467404,0.4094683311567564,0.9756669341676782,0.6967394690432058,0.27333799446606677,-0.21555129256340577,-0.7063551803080181,0.0012365191539591702,0.4114436383213427,-0.24914167775481766,-0.5575956705999867,-0.05875330367917253,-0.6449005299067758,0.26792599774595227,-0.1063784779877599,0.2014605134760059
-0.8531661683695801,0.514861508651453,-0.6708543059961778,-0.012827712106430189,0.7505169407850463,-0.20661128175838872,-0.46097028473002677,0.7483940117433872,-0.432079180272382,-0.8445149783676404,0.1205924581141482,-0.5919347411414986,-0.23715163349862567,-0.36586404007453677,0.6156784735861858,-0.1595162216688386,-0.8219993027295656,0.361404837888641,0.6169485920450866,0.593311508951752,-0.015617288634085291,0.3876209461318172,-0.8183050468855908,-0.7733916146777182,0.513275637608293,0.19443268029862693,0.04854241049912322,0.8882895285235748,0.24803560376565081,0.41575318119659954,-0.052100947314918766,-0.6703183306863925,0.23473897953865186,0.6594055292340564,0.39122184777461166,0.09453847020008399,0.9221999998369708,-0.9361731944301257,-0.8470556854935449,-0.6559161232976125,0.7790113045222888,-0.9033414911107096
0.7384040819706199,0.04318982658793513,0.5462370078320398,0.7703046083745484,0.7498767375966171,0.29385634195834154,0.5997910587389792,-0.37599744443544636,0.7529040333529584,-0.6977678888510819,0.13124342901150543,-0.20438361066347288,0.7304407312158312,0.8918052700402248,-0.08827398463285707,-0.22887408632373663,0.7344028384217793,-0.8205475029858258,-0.6098678595972025,0.08164089240879635,0.4287038825327474,-0.7621763933641756,0.40398171517388315,0.7896756582956284,0.4421421626129818,0.9002858921159278,0.24490553191203301,-0.6382928378503734,-0.38874487830905213,0.7686519409896142,0.7231985655536644,-0.3244739495191544,-0.0842712813224753,0.1895294519527131,0.8643704255332172,-0.5084783126013406,-0.7769030026622121,0.5596719407178554,0.6542101400319948,0.09754037716638209,-0.5069460240109063,-0.1402342270237653
0.9963356429173527,0.29107146040162446,-0.7942628353760548,-0.9731352140612952,0.22068392928875813,0.28634953163514454,-0.9547893004762955,-0.3336512482941736,-0.21635414328113578,-0.8341058168842883,0.6572885200624334,0.9384158426887697,-0.931128539626904,0.44750334680541815,0.3307565175608398,-0.05633461156399133,-0.02685261512602377,0.18953519681754982,0.6616202200844485,-0.11719459130283183,-0.3975898177276096,-0.03777824930959173,0.11888655832975781,-0.45561350628965536,0.4472212804220286,0.08065337355850621,-0.9738747274705608,-0.007965073014442048,0.14394096055284056,0.7366955237658304,-0.257070456939813,0.2452537736602356,0.49294321666591423,0.9735688972555638,0.19774912825489377,0.5557823503874011,0.6585052860589382,-0.3149650920339244,-0.19140749771718868,0.7846954825418564,0.5425513089366532,-0.05313170312970761
